{
  "metadata": {
    "name": "ijepa-strict-image-tiny-v2",
    "generator": "specs/differential/export_ijepa_strict_fixture.py",
    "reference_repo": "facebookresearch/ijepa",
    "reference_note": "Tiny strict image-path parity fixture covering a 2x2 patch grid and single-layer encoder/predictor stack.",
    "abs_tolerance": 1e-05,
    "rel_tolerance": 1e-05
  },
  "config": {
    "encoder": {
      "in_channels": 1,
      "image_height": 4,
      "image_width": 4,
      "patch_size": [
        2,
        2
      ],
      "embed_dim": 4,
      "num_layers": 1,
      "num_heads": 2,
      "mlp_dim": 8,
      "dropout": 0.0
    },
    "predictor": {
      "encoder_embed_dim": 4,
      "predictor_embed_dim": 4,
      "num_layers": 1,
      "num_heads": 2,
      "max_target_len": 4
    }
  },
  "weights": {
    "context_encoder.patch_embed.projection.weight": {
      "shape": [
        4,
        4
      ],
      "values": [
        -0.14000000059604645,
        -0.12399999797344208,
        -0.1080000028014183,
        -0.09200000017881393,
        -0.07599999755620956,
        -0.05999999865889549,
        -0.04399999976158142,
        -0.02800000086426735,
        -0.012000000104308128,
        0.004000000189989805,
        0.019999999552965164,
        0.035999998450279236,
        0.052000001072883606,
        0.06800000369548798,
        0.08399999886751175,
        0.10000000149011612
      ]
    },
    "context_encoder.patch_embed.projection.bias": {
      "shape": [
        4
      ],
      "values": [
        -0.05000000074505806,
        -0.029999999329447746,
        -0.009999999776482582,
        0.009999999776482582
      ]
    },
    "context_encoder.norm.gamma": {
      "shape": [
        4
      ],
      "values": [
        0.9200000166893005,
        0.9599999785423279,
        1.0,
        1.0399999618530273
      ]
    },
    "context_encoder.norm.beta": {
      "shape": [
        4
      ],
      "values": [
        -0.04500000178813934,
        -0.028333334252238274,
        -0.011666666716337204,
        0.004999999888241291
      ]
    },
    "context_encoder.blocks.0.norm1.gamma": {
      "shape": [
        4
      ],
      "values": [
        0.8600000143051147,
        0.9266666769981384,
        0.9933333396911621,
        1.059999942779541
      ]
    },
    "context_encoder.blocks.0.norm1.beta": {
      "shape": [
        4
      ],
      "values": [
        -0.05000000074505806,
        -0.029999999329447746,
        -0.009999999776482582,
        0.009999999776482582
      ]
    },
    "context_encoder.blocks.0.attn.qkv.weight": {
      "shape": [
        4,
        12
      ],
      "values": [
        -0.1599999964237213,
        -0.1540425568819046,
        -0.1480851024389267,
        -0.14212766289710999,
        -0.13617020845413208,
        -0.13021276891231537,
        -0.12425532191991806,
        -0.11829787492752075,
        -0.11234042793512344,
        -0.10638298094272614,
        -0.10042553395032883,
        -0.09446808695793152,
        -0.08851063996553421,
        -0.0825531929731369,
        -0.0765957459807396,
        -0.07063829898834229,
        -0.06468085199594498,
        -0.05872340500354767,
        -0.05276595801115036,
        -0.04680851101875305,
        -0.04085106402635574,
        -0.034893617033958435,
        -0.028936170041561127,
        -0.02297872304916382,
        -0.01702127605676651,
        -0.011063829995691776,
        -0.005106383003294468,
        0.0008510638144798577,
        0.0068085105158388615,
        0.012765957042574883,
        0.01872340403497219,
        0.0246808510273695,
        0.030638298019766808,
        0.03659574314951897,
        0.042553190141916275,
        0.04851063713431358,
        0.05446808412671089,
        0.0604255311191082,
        0.0663829818367958,
        0.07234042882919312,
        0.07829787582159042,
        0.08425532281398773,
        0.09021276235580444,
        0.09617020934820175,
        0.10212765634059906,
        0.10808510333299637,
        0.11404255032539368,
        0.11999999731779099
      ]
    },
    "context_encoder.blocks.0.attn.qkv.bias": {
      "shape": [
        12
      ],
      "values": [
        -0.05999999865889549,
        -0.05272727087140083,
        -0.04545454680919647,
        -0.03818181902170181,
        -0.030909091234207153,
        -0.023636363446712494,
        -0.016363635659217834,
        -0.00909090880304575,
        -0.001818181830458343,
        0.005454545374959707,
        0.01272727269679308,
        0.019999999552965164
      ]
    },
    "context_encoder.blocks.0.attn.out_proj.weight": {
      "shape": [
        4,
        4
      ],
      "values": [
        -0.11999999731779099,
        -0.1066666692495346,
        -0.09333333373069763,
        -0.07999999821186066,
        -0.06666667014360428,
        -0.0533333346247673,
        -0.03999999910593033,
        -0.02666666731238365,
        -0.013333333656191826,
        0.0,
        0.013333333656191826,
        0.02666666731238365,
        0.03999999910593033,
        0.0533333346247673,
        0.06666667014360428,
        0.07999999821186066
      ]
    },
    "context_encoder.blocks.0.attn.out_proj.bias": {
      "shape": [
        4
      ],
      "values": [
        -0.04500000178813934,
        -0.028333334252238274,
        -0.011666666716337204,
        0.004999999888241291
      ]
    },
    "context_encoder.blocks.0.norm2.gamma": {
      "shape": [
        4
      ],
      "values": [
        0.8799999952316284,
        0.9466666579246521,
        1.0133333206176758,
        1.0800000429153442
      ]
    },
    "context_encoder.blocks.0.norm2.beta": {
      "shape": [
        4
      ],
      "values": [
        -0.04500000178813934,
        -0.028333334252238274,
        -0.011666666716337204,
        0.004999999888241291
      ]
    },
    "context_encoder.blocks.0.mlp.fc1.weight": {
      "shape": [
        4,
        8
      ],
      "values": [
        -0.14000000059604645,
        -0.13225805759429932,
        -0.12451612949371338,
        -0.11677419394254684,
        -0.10903225839138031,
        -0.10129032284021378,
        -0.09354838728904724,
        -0.0858064517378807,
        -0.07806451618671417,
        -0.07032258063554764,
        -0.0625806450843811,
        -0.05483870953321457,
        -0.047096773982048035,
        -0.0393548384308815,
        -0.031612902879714966,
        -0.02387096732854843,
        -0.016129031777381897,
        -0.008387097157537937,
        -0.0006451613153330982,
        0.007096774410456419,
        0.014838709495961666,
        0.022580645978450775,
        0.03032258152961731,
        0.038064517080783844,
        0.04580645263195038,
        0.05354838818311691,
        0.06129032373428345,
        0.06903225928544998,
        0.07677419483661652,
        0.08451613038778305,
        0.09225806593894958,
        0.10000000149011612
      ]
    },
    "context_encoder.blocks.0.mlp.fc1.bias": {
      "shape": [
        8
      ],
      "values": [
        -0.05000000074505806,
        -0.041428569704294205,
        -0.03285714238882065,
        -0.02428571507334709,
        -0.015714285895228386,
        -0.0071428571827709675,
        0.0014285714132711291,
        0.009999999776482582
      ]
    },
    "context_encoder.blocks.0.mlp.fc2.weight": {
      "shape": [
        8,
        4
      ],
      "values": [
        -0.10999999940395355,
        -0.1041935458779335,
        -0.09838709980249405,
        -0.092580646276474,
        -0.08677419275045395,
        -0.0809677392244339,
        -0.07516129314899445,
        -0.0693548396229744,
        -0.06354838609695435,
        -0.057741936296224594,
        -0.051935482770204544,
        -0.04612903296947479,
        -0.04032257944345474,
        -0.03451612964272499,
        -0.02870967797935009,
        -0.02290322631597519,
        -0.01709677465260029,
        -0.011290322989225388,
        -0.0054838708601891994,
        0.0003225806576665491,
        0.006129032466560602,
        0.011935483664274216,
        0.017741935327649117,
        0.023548386991024017,
        0.029354838654398918,
        0.03516129031777382,
        0.04096774011850357,
        0.04677419364452362,
        0.05258064344525337,
        0.05838709697127342,
        0.06419354677200317,
        0.07000000029802322
      ]
    },
    "context_encoder.blocks.0.mlp.fc2.bias": {
      "shape": [
        4
      ],
      "values": [
        -0.03999999910593033,
        -0.02666666731238365,
        -0.013333333656191826,
        0.0
      ]
    },
    "target_encoder.patch_embed.projection.weight": {
      "shape": [
        4,
        4
      ],
      "values": [
        -0.10000000149011612,
        -0.08399999886751175,
        -0.06800000369548798,
        -0.052000001072883606,
        -0.035999998450279236,
        -0.019999999552965164,
        -0.004000000189989805,
        0.012000000104308128,
        0.02800000086426735,
        0.04399999976158142,
        0.05999999865889549,
        0.07599999755620956,
        0.09200000017881393,
        0.1080000028014183,
        0.12399999797344208,
        0.14000000059604645
      ]
    },
    "target_encoder.patch_embed.projection.bias": {
      "shape": [
        4
      ],
      "values": [
        -0.009999999776482582,
        0.009999999776482582,
        0.029999999329447746,
        0.05000000074505806
      ]
    },
    "target_encoder.norm.gamma": {
      "shape": [
        4
      ],
      "values": [
        0.9599999785423279,
        1.0,
        1.0399999618530273,
        1.0800000429153442
      ]
    },
    "target_encoder.norm.beta": {
      "shape": [
        4
      ],
      "values": [
        -0.004999999888241291,
        0.011666666716337204,
        0.028333334252238274,
        0.04500000178813934
      ]
    },
    "target_encoder.blocks.0.norm1.gamma": {
      "shape": [
        4
      ],
      "values": [
        0.8999999761581421,
        0.9666666388511658,
        1.0333333015441895,
        1.100000023841858
      ]
    },
    "target_encoder.blocks.0.norm1.beta": {
      "shape": [
        4
      ],
      "values": [
        -0.009999999776482582,
        0.009999999776482582,
        0.029999999329447746,
        0.05000000074505806
      ]
    },
    "target_encoder.blocks.0.attn.qkv.weight": {
      "shape": [
        4,
        12
      ],
      "values": [
        -0.11999999731779099,
        -0.11404255032539368,
        -0.10808510333299637,
        -0.10212765634059906,
        -0.09617020934820175,
        -0.09021276235580444,
        -0.08425532281398773,
        -0.07829787582159042,
        -0.07234042882919312,
        -0.0663829818367958,
        -0.0604255311191082,
        -0.05446808412671089,
        -0.04851063713431358,
        -0.042553190141916275,
        -0.03659574314951897,
        -0.030638298019766808,
        -0.0246808510273695,
        -0.01872340403497219,
        -0.012765957042574883,
        -0.0068085105158388615,
        -0.0008510638144798577,
        0.005106383003294468,
        0.011063829995691776,
        0.01702127605676651,
        0.02297872304916382,
        0.028936170041561127,
        0.034893617033958435,
        0.04085106402635574,
        0.04680851101875305,
        0.05276595801115036,
        0.05872340500354767,
        0.06468085199594498,
        0.07063829898834229,
        0.0765957459807396,
        0.0825531929731369,
        0.08851063996553421,
        0.09446808695793152,
        0.10042553395032883,
        0.10638298094272614,
        0.11234042793512344,
        0.11829787492752075,
        0.12425532191991806,
        0.13021276891231537,
        0.13617020845413208,
        0.14212766289710999,
        0.1480851024389267,
        0.1540425568819046,
        0.1599999964237213
      ]
    },
    "target_encoder.blocks.0.attn.qkv.bias": {
      "shape": [
        12
      ],
      "values": [
        -0.019999999552965164,
        -0.01272727269679308,
        -0.005454545374959707,
        0.001818181830458343,
        0.00909090880304575,
        0.016363635659217834,
        0.023636363446712494,
        0.030909091234207153,
        0.03818181902170181,
        0.04545454680919647,
        0.05272727087140083,
        0.05999999865889549
      ]
    },
    "target_encoder.blocks.0.attn.out_proj.weight": {
      "shape": [
        4,
        4
      ],
      "values": [
        -0.07999999821186066,
        -0.06666667014360428,
        -0.0533333346247673,
        -0.03999999910593033,
        -0.02666666731238365,
        -0.013333333656191826,
        0.0,
        0.013333333656191826,
        0.02666666731238365,
        0.03999999910593033,
        0.0533333346247673,
        0.06666667014360428,
        0.07999999821186066,
        0.09333333373069763,
        0.1066666692495346,
        0.11999999731779099
      ]
    },
    "target_encoder.blocks.0.attn.out_proj.bias": {
      "shape": [
        4
      ],
      "values": [
        -0.004999999888241291,
        0.011666666716337204,
        0.028333334252238274,
        0.04500000178813934
      ]
    },
    "target_encoder.blocks.0.norm2.gamma": {
      "shape": [
        4
      ],
      "values": [
        0.9200000166893005,
        0.9866666793823242,
        1.0533332824707031,
        1.1200000047683716
      ]
    },
    "target_encoder.blocks.0.norm2.beta": {
      "shape": [
        4
      ],
      "values": [
        -0.004999999888241291,
        0.011666666716337204,
        0.028333334252238274,
        0.04500000178813934
      ]
    },
    "target_encoder.blocks.0.mlp.fc1.weight": {
      "shape": [
        4,
        8
      ],
      "values": [
        -0.10000000149011612,
        -0.09225806593894958,
        -0.08451613038778305,
        -0.07677419483661652,
        -0.06903225928544998,
        -0.06129032373428345,
        -0.05354838818311691,
        -0.04580645263195038,
        -0.038064517080783844,
        -0.03032258152961731,
        -0.022580645978450775,
        -0.014838709495961666,
        -0.007096774410456419,
        0.0006451613153330982,
        0.008387097157537937,
        0.016129031777381897,
        0.02387096732854843,
        0.031612902879714966,
        0.0393548384308815,
        0.047096773982048035,
        0.05483870953321457,
        0.0625806450843811,
        0.07032258063554764,
        0.07806451618671417,
        0.0858064517378807,
        0.09354838728904724,
        0.10129032284021378,
        0.10903225839138031,
        0.11677419394254684,
        0.12451612949371338,
        0.13225805759429932,
        0.14000000059604645
      ]
    },
    "target_encoder.blocks.0.mlp.fc1.bias": {
      "shape": [
        8
      ],
      "values": [
        -0.009999999776482582,
        -0.0014285714132711291,
        0.0071428571827709675,
        0.015714285895228386,
        0.02428571507334709,
        0.03285714238882065,
        0.041428569704294205,
        0.05000000074505806
      ]
    },
    "target_encoder.blocks.0.mlp.fc2.weight": {
      "shape": [
        8,
        4
      ],
      "values": [
        -0.07000000029802322,
        -0.06419354677200317,
        -0.05838709697127342,
        -0.05258064344525337,
        -0.04677419364452362,
        -0.04096774011850357,
        -0.03516129031777382,
        -0.029354838654398918,
        -0.023548386991024017,
        -0.017741935327649117,
        -0.011935483664274216,
        -0.006129032466560602,
        -0.0003225806576665491,
        0.0054838708601891994,
        0.011290322989225388,
        0.01709677465260029,
        0.02290322631597519,
        0.02870967797935009,
        0.03451612964272499,
        0.04032257944345474,
        0.04612903296947479,
        0.051935482770204544,
        0.057741936296224594,
        0.06354838609695435,
        0.0693548396229744,
        0.07516129314899445,
        0.0809677392244339,
        0.08677419275045395,
        0.092580646276474,
        0.09838709980249405,
        0.1041935458779335,
        0.10999999940395355
      ]
    },
    "target_encoder.blocks.0.mlp.fc2.bias": {
      "shape": [
        4
      ],
      "values": [
        0.0,
        0.013333333656191826,
        0.02666666731238365,
        0.03999999910593033
      ]
    },
    "predictor.input_proj.weight": {
      "shape": [
        4,
        4
      ],
      "values": [
        -0.10999999940395355,
        -0.09666666388511658,
        -0.0833333358168602,
        -0.07000000029802322,
        -0.05666666850447655,
        -0.04333333298563957,
        -0.029999999329447746,
        -0.01666666753590107,
        -0.0033333334140479565,
        0.009999999776482582,
        0.023333333432674408,
        0.036666665226221085,
        0.05000000074505806,
        0.06333333253860474,
        0.07666666805744171,
        0.09000000357627869
      ]
    },
    "predictor.input_proj.bias": {
      "shape": [
        4
      ],
      "values": [
        -0.03500000014901161,
        -0.018333332613110542,
        -0.0016666667070239782,
        0.014999999664723873
      ]
    },
    "predictor.norm.gamma": {
      "shape": [
        4
      ],
      "values": [
        0.9399999976158142,
        0.9733333587646484,
        1.006666660308838,
        1.0399999618530273
      ]
    },
    "predictor.norm.beta": {
      "shape": [
        4
      ],
      "values": [
        -0.029999999329447746,
        -0.01666666753590107,
        -0.0033333334140479565,
        0.009999999776482582
      ]
    },
    "predictor.output_proj.weight": {
      "shape": [
        4,
        4
      ],
      "values": [
        -0.10000000149011612,
        -0.08799999952316284,
        -0.07599999755620956,
        -0.06400000303983688,
        -0.052000001072883606,
        -0.03999999910593033,
        -0.02800000086426735,
        -0.01600000075995922,
        -0.004000000189989805,
        0.00800000037997961,
        0.019999999552965164,
        0.03200000151991844,
        0.04399999976158142,
        0.0560000017285347,
        0.06800000369548798,
        0.07999999821186066
      ]
    },
    "predictor.output_proj.bias": {
      "shape": [
        4
      ],
      "values": [
        -0.029999999329447746,
        -0.01666666753590107,
        -0.0033333334140479565,
        0.009999999776482582
      ]
    },
    "predictor.blocks.0.norm1.gamma": {
      "shape": [
        4
      ],
      "values": [
        0.8700000047683716,
        0.9366666674613953,
        1.003333330154419,
        1.0700000524520874
      ]
    },
    "predictor.blocks.0.norm1.beta": {
      "shape": [
        4
      ],
      "values": [
        -0.03999999910593033,
        -0.019999999552965164,
        0.0,
        0.019999999552965164
      ]
    },
    "predictor.blocks.0.attn.qkv.weight": {
      "shape": [
        4,
        12
      ],
      "values": [
        -0.15000000596046448,
        -0.14404255151748657,
        -0.13808511197566986,
        -0.13212765753269196,
        -0.12617021799087524,
        -0.12021276354789734,
        -0.11425531655550003,
        -0.10829786956310272,
        -0.10234042257070541,
        -0.0963829755783081,
        -0.0904255285859108,
        -0.08446808159351349,
        -0.07851063460111618,
        -0.07255319505929947,
        -0.06659574806690216,
        -0.060638297349214554,
        -0.054680850356817245,
        -0.04872340336441994,
        -0.04276595637202263,
        -0.03680850937962532,
        -0.03085106424987316,
        -0.024893617257475853,
        -0.018936170265078545,
        -0.012978723272681236,
        -0.007021276745945215,
        -0.0010638297535479069,
        0.0048936172388494015,
        0.010851063765585423,
        0.016808509826660156,
        0.022765956819057465,
        0.028723403811454773,
        0.03468085080385208,
        0.04063829779624939,
        0.0465957447886467,
        0.052553191781044006,
        0.058510638773441315,
        0.06446808576583862,
        0.07042553275823593,
        0.07638297975063324,
        0.08234042674303055,
        0.08829787373542786,
        0.09425532072782516,
        0.10021276772022247,
        0.10617021471261978,
        0.11212766170501709,
        0.1180851086974144,
        0.1240425556898117,
        0.12999999523162842
      ]
    },
    "predictor.blocks.0.attn.qkv.bias": {
      "shape": [
        12
      ],
      "values": [
        -0.05000000074505806,
        -0.0427272729575634,
        -0.03545454517006874,
        -0.02818181738257408,
        -0.02090909145772457,
        -0.013636363670229912,
        -0.00636363634839654,
        0.0009090909152291715,
        0.008181817829608917,
        0.015454545617103577,
        0.022727273404598236,
        0.029999999329447746
      ]
    },
    "predictor.blocks.0.attn.out_proj.weight": {
      "shape": [
        4,
        4
      ],
      "values": [
        -0.10999999940395355,
        -0.09666666388511658,
        -0.0833333358168602,
        -0.07000000029802322,
        -0.05666666850447655,
        -0.04333333298563957,
        -0.029999999329447746,
        -0.01666666753590107,
        -0.0033333334140479565,
        0.009999999776482582,
        0.023333333432674408,
        0.036666665226221085,
        0.05000000074505806,
        0.06333333253860474,
        0.07666666805744171,
        0.09000000357627869
      ]
    },
    "predictor.blocks.0.attn.out_proj.bias": {
      "shape": [
        4
      ],
      "values": [
        -0.03500000014901161,
        -0.018333332613110542,
        -0.0016666667070239782,
        0.014999999664723873
      ]
    },
    "predictor.blocks.0.norm2.gamma": {
      "shape": [
        4
      ],
      "values": [
        0.8899999856948853,
        0.9566666483879089,
        1.0233333110809326,
        1.090000033378601
      ]
    },
    "predictor.blocks.0.norm2.beta": {
      "shape": [
        4
      ],
      "values": [
        -0.03500000014901161,
        -0.018333332613110542,
        -0.0016666667070239782,
        0.014999999664723873
      ]
    },
    "predictor.blocks.0.mlp.fc1.weight": {
      "shape": [
        4,
        16
      ],
      "values": [
        -0.12999999523162842,
        -0.12619048357009888,
        -0.12238094955682755,
        -0.11857143044471741,
        -0.11476190388202667,
        -0.11095237731933594,
        -0.1071428582072258,
        -0.10333333164453506,
        -0.09952381253242493,
        -0.09571428596973419,
        -0.09190475940704346,
        -0.08809524029493332,
        -0.08428571373224258,
        -0.08047618716955185,
        -0.07666666805744171,
        -0.07285714149475098,
        -0.06904762238264084,
        -0.0652380958199501,
        -0.06142857298254967,
        -0.05761904641985893,
        -0.053809523582458496,
        -0.05000000074505806,
        -0.04619047790765762,
        -0.04238095134496689,
        -0.03857142850756645,
        -0.034761905670166016,
        -0.03095238097012043,
        -0.027142856270074844,
        -0.023333333432674408,
        -0.019523808732628822,
        -0.015714285895228386,
        -0.011904762126505375,
        -0.008095238357782364,
        -0.004285714123398066,
        -0.0004761904710903764,
        0.0033333334140479565,
        0.0071428571827709675,
        0.010952381417155266,
        0.014761905185878277,
        0.018571428954601288,
        0.022380951792001724,
        0.02619047649204731,
        0.029999999329447746,
        0.03380952402949333,
        0.03761904686689377,
        0.041428569704294205,
        0.04523809626698494,
        0.049047619104385376,
        0.05285714194178581,
        0.05666666850447655,
        0.060476191341876984,
        0.06428571790456772,
        0.06809523701667786,
        0.07190476357936859,
        0.07571428269147873,
        0.07952380925416946,
        0.0833333358168602,
        0.08714285492897034,
        0.09095238149166107,
        0.0947619080543518,
        0.09857142716646194,
        0.10238095372915268,
        0.10619047284126282,
        0.10999999940395355
      ]
    },
    "predictor.blocks.0.mlp.fc1.bias": {
      "shape": [
        16
      ],
      "values": [
        -0.03999999910593033,
        -0.035999998450279236,
        -0.03200000151991844,
        -0.02800000086426735,
        -0.024000000208616257,
        -0.019999999552965164,
        -0.01600000075995922,
        -0.012000000104308128,
        -0.00800000037997961,
        -0.004000000189989805,
        0.0,
        0.004000000189989805,
        0.00800000037997961,
        0.012000000104308128,
        0.01600000075995922,
        0.019999999552965164
      ]
    },
    "predictor.blocks.0.mlp.fc2.weight": {
      "shape": [
        16,
        4
      ],
      "values": [
        -0.10000000149011612,
        -0.09714286029338837,
        -0.09428571164608002,
        -0.09142857044935226,
        -0.08857142925262451,
        -0.08571428805589676,
        -0.08285713940858841,
        -0.07999999821186066,
        -0.0771428570151329,
        -0.07428571581840515,
        -0.0714285746216774,
        -0.06857142597436905,
        -0.0657142847776413,
        -0.06285714358091354,
        -0.05999999865889549,
        -0.05714285746216774,
        -0.05428571254014969,
        -0.051428571343421936,
        -0.04857143014669418,
        -0.04571428522467613,
        -0.04285714402794838,
        -0.03999999910593033,
        -0.037142857909202576,
        -0.034285712987184525,
        -0.03142857179045677,
        -0.02857142873108387,
        -0.025714285671710968,
        -0.022857142612338066,
        -0.019999999552965164,
        -0.017142856493592262,
        -0.014285714365541935,
        -0.011428571306169033,
        -0.008571428246796131,
        -0.0057142856530845165,
        -0.0028571428265422583,
        1.3877787807814457e-17,
        0.0028571428265422583,
        0.0057142856530845165,
        0.008571428246796131,
        0.011428571306169033,
        0.014285714365541935,
        0.017142856493592262,
        0.019999999552965164,
        0.022857142612338066,
        0.025714285671710968,
        0.02857142873108387,
        0.03142857179045677,
        0.034285712987184525,
        0.037142857909202576,
        0.03999999910593033,
        0.04285714402794838,
        0.04571428522467613,
        0.04857143014669418,
        0.051428571343421936,
        0.05428571254014969,
        0.05714285746216774,
        0.05999999865889549,
        0.06285714358091354,
        0.0657142847776413,
        0.06857142597436905,
        0.0714285746216774,
        0.07428571581840515,
        0.0771428570151329,
        0.07999999821186066
      ]
    },
    "predictor.blocks.0.mlp.fc2.bias": {
      "shape": [
        4
      ],
      "values": [
        -0.029999999329447746,
        -0.01666666753590107,
        -0.0033333334140479565,
        0.009999999776482582
      ]
    }
  },
  "raw_input": {
    "shape": [
      1,
      1,
      4,
      4
    ],
    "values": [
      0.10000000149011612,
      0.20000000298023224,
      0.30000001192092896,
      0.4000000059604645,
      0.5,
      0.6000000238418579,
      0.699999988079071,
      0.800000011920929,
      0.8999999761581421,
      1.0,
      1.100000023841858,
      1.2000000476837158,
      1.2999999523162842,
      1.399999976158142,
      1.5,
      1.600000023841858
    ]
  },
  "mask": {
    "context_indices": [
      0,
      3
    ],
    "target_indices": [
      1,
      2
    ],
    "total_tokens": 4
  },
  "target_positions": [
    1,
    2
  ],
  "context": {
    "shape": [
      1,
      2,
      4
    ],
    "values": [
      -1.2787121534347534,
      -0.45745059847831726,
      0.4353305399417877,
      1.3996312618255615,
      -0.6186920404434204,
      -0.4666171669960022,
      -0.657630443572998,
      1.800131916999817
    ]
  },
  "target": {
    "shape": [
      1,
      2,
      4
    ],
    "values": [
      -0.6283442974090576,
      -1.2490838766098022,
      0.7243741750717163,
      1.3850613832473755,
      -1.4660191535949707,
      -0.02291647344827652,
      0.3332260251045227,
      1.4093772172927856
    ]
  },
  "predicted": {
    "shape": [
      1,
      2,
      4
    ],
    "values": [
      0.001676694373600185,
      0.01471818145364523,
      0.027759674936532974,
      0.04080114886164665,
      0.023819569498300552,
      0.03704560920596123,
      0.0502716563642025,
      0.06349768489599228
    ]
  },
  "energy": [
    1.0501374006271362
  ]
}
