{
  "metadata": {
    "name": "ijepa-strict-image-rect-v1",
    "generator": "specs/differential/export_ijepa_strict_fixture.py",
    "reference_repo": "facebookresearch/ijepa",
    "reference_note": "Strict image-path parity fixture covering a non-square 3x4 patch grid with a two-layer encoder and two-layer predictor.",
    "abs_tolerance": 2e-05,
    "rel_tolerance": 2e-05
  },
  "config": {
    "encoder": {
      "in_channels": 1,
      "image_height": 6,
      "image_width": 8,
      "patch_size": [
        2,
        2
      ],
      "embed_dim": 8,
      "num_layers": 2,
      "num_heads": 2,
      "mlp_dim": 16,
      "dropout": 0.0
    },
    "predictor": {
      "encoder_embed_dim": 8,
      "predictor_embed_dim": 8,
      "num_layers": 2,
      "num_heads": 2,
      "max_target_len": 12
    }
  },
  "weights": {
    "context_encoder.patch_embed.projection.weight": {
      "shape": [
        4,
        8
      ],
      "values": [
        -0.13500000536441803,
        -0.1272580623626709,
        -0.11951612681150436,
        -0.11177419126033783,
        -0.1040322557091713,
        -0.09629032015800476,
        -0.08854838460683823,
        -0.08080644905567169,
        -0.07306451350450516,
        -0.06532257795333862,
        -0.05758064612746239,
        -0.04983871057629585,
        -0.04209677502512932,
        -0.034354839473962784,
        -0.02661290392279625,
        -0.018870968371629715,
        -0.011129031889140606,
        -0.003387096803635359,
        0.004354838747531176,
        0.012096773833036423,
        0.019838709384202957,
        0.02758064493536949,
        0.035322580486536026,
        0.04306451603770256,
        0.050806451588869095,
        0.05854838714003563,
        0.06629031896591187,
        0.0740322545170784,
        0.08177419006824493,
        0.08951612561941147,
        0.097258061170578,
        0.10499999672174454
      ]
    },
    "context_encoder.patch_embed.projection.bias": {
      "shape": [
        8
      ],
      "values": [
        -0.04500000178813934,
        -0.03642857074737549,
        -0.027857143431901932,
        -0.019285714253783226,
        -0.010714286006987095,
        -0.002142857061699033,
        0.006428571417927742,
        0.014999999664723873
      ]
    },
    "context_encoder.norm.gamma": {
      "shape": [
        8
      ],
      "values": [
        0.925000011920929,
        0.9421428442001343,
        0.9592857360839844,
        0.9764285683631897,
        0.993571400642395,
        1.0107142925262451,
        1.0278571844100952,
        1.0449999570846558
      ]
    },
    "context_encoder.norm.beta": {
      "shape": [
        8
      ],
      "values": [
        -0.03999999910593033,
        -0.03285714238882065,
        -0.025714285671710968,
        -0.018571428954601288,
        -0.011428571306169033,
        -0.004285714123398066,
        0.0028571428265422583,
        0.009999999776482582
      ]
    },
    "context_encoder.blocks.0.norm1.gamma": {
      "shape": [
        8
      ],
      "values": [
        0.8650000095367432,
        0.8935714364051819,
        0.9221428632736206,
        0.9507142901420593,
        0.979285717010498,
        1.007857084274292,
        1.0364285707473755,
        1.065000057220459
      ]
    },
    "context_encoder.blocks.0.norm1.beta": {
      "shape": [
        8
      ],
      "values": [
        -0.04500000178813934,
        -0.03642857074737549,
        -0.027857143431901932,
        -0.019285714253783226,
        -0.010714286006987095,
        -0.002142857061699033,
        0.006428571417927742,
        0.014999999664723873
      ]
    },
    "context_encoder.blocks.0.attn.qkv.weight": {
      "shape": [
        8,
        24
      ],
      "values": [
        -0.1550000011920929,
        -0.15353402495384216,
        -0.15206806361675262,
        -0.1506020873785019,
        -0.14913612604141235,
        -0.14767014980316162,
        -0.14620418846607208,
        -0.14473822712898254,
        -0.1432722508907318,
        -0.14180628955364227,
        -0.14034031331539154,
        -0.138874351978302,
        -0.13740837574005127,
        -0.13594241440296173,
        -0.134476438164711,
        -0.13301047682762146,
        -0.13154450058937073,
        -0.1300785392522812,
        -0.12861256301403046,
        -0.12714660167694092,
        -0.12568062543869019,
        -0.12421465665102005,
        -0.12274868786334991,
        -0.12128271907567978,
        -0.11981675028800964,
        -0.1183507889509201,
        -0.11688482016324997,
        -0.11541885137557983,
        -0.1139528825879097,
        -0.11248691380023956,
        -0.11102094501256943,
        -0.10955497622489929,
        -0.10808900743722916,
        -0.10662303864955902,
        -0.10515706986188889,
        -0.10369110107421875,
        -0.10222513228654861,
        -0.10075916349887848,
        -0.09929319471120834,
        -0.09782722592353821,
        -0.09636125713586807,
        -0.09489528834819794,
        -0.0934293195605278,
        -0.09196335077285767,
        -0.09049738198518753,
        -0.0890314131975174,
        -0.08756544440984726,
        -0.08609947562217712,
        -0.08463350683450699,
        -0.08316753804683685,
        -0.08170156925916672,
        -0.08023560047149658,
        -0.07876963168382645,
        -0.07730366289615631,
        -0.07583769410848618,
        -0.07437172532081604,
        -0.0729057565331459,
        -0.07143978774547577,
        -0.06997381895780563,
        -0.0685078501701355,
        -0.06704188138246536,
        -0.06557591259479523,
        -0.06410995125770569,
        -0.06264398247003555,
        -0.06117800995707512,
        -0.059712041169404984,
        -0.05824607238173485,
        -0.05678010359406471,
        -0.05531413480639458,
        -0.05384816601872444,
        -0.052382197231054306,
        -0.05091623216867447,
        -0.049450263381004333,
        -0.0479842945933342,
        -0.04651832580566406,
        -0.04505235701799393,
        -0.04358638823032379,
        -0.042120419442653656,
        -0.04065445065498352,
        -0.039188481867313385,
        -0.03772251307964325,
        -0.036256544291973114,
        -0.03479057550430298,
        -0.03332460671663284,
        -0.03185863792896271,
        -0.03039267100393772,
        -0.028926702216267586,
        -0.02746073342859745,
        -0.025994764640927315,
        -0.02452879585325718,
        -0.023062827065587044,
        -0.021596858277916908,
        -0.020130889490246773,
        -0.018664920702576637,
        -0.01719895377755165,
        -0.015732984989881516,
        -0.014267015270888805,
        -0.012801047414541245,
        -0.011335078626871109,
        -0.009869109839200974,
        -0.008403141051530838,
        -0.00693717272952199,
        -0.005471204407513142,
        -0.004005235619843006,
        -0.0025392670650035143,
        -0.0010732983937487006,
        0.0003926701610907912,
        0.001858638715930283,
        0.0033246073871850967,
        0.004790575709193945,
        0.00625654449686408,
        0.007722513284534216,
        0.009188481606543064,
        0.0106544503942132,
        0.012120419181883335,
        0.013586387038230896,
        0.015052355825901031,
        0.016518324613571167,
        0.017984293401241302,
        0.019450262188911438,
        0.020916230976581573,
        0.02238219976425171,
        0.023848166689276695,
        0.02531413547694683,
        0.026780104264616966,
        0.028246073052287102,
        0.029712041839957237,
        0.031178010627627373,
        0.03264397755265236,
        0.034109946340322495,
        0.03557591512799263,
        0.037041883915662766,
        0.0385078527033329,
        0.039973821491003036,
        0.04143979027867317,
        0.04290575906634331,
        0.04437172785401344,
        0.04583769664168358,
        0.047303665429353714,
        0.04876963421702385,
        0.050235603004693985,
        0.05170157179236412,
        0.053167540580034256,
        0.05463350936770439,
        0.05609947815537453,
        0.057565443217754364,
        0.0590314120054245,
        0.060497380793094635,
        0.06196334958076477,
        0.0634293183684349,
        0.06489528715610504,
        0.06636125594377518,
        0.06782722473144531,
        0.06929319351911545,
        0.07075916230678558,
        0.07222513109445572,
        0.07369109988212585,
        0.07515706866979599,
        0.07662303745746613,
        0.07808900624513626,
        0.0795549750328064,
        0.08102094382047653,
        0.08248691260814667,
        0.0839528813958168,
        0.08541885018348694,
        0.08688481897115707,
        0.08835078775882721,
        0.08981675654649734,
        0.09128272533416748,
        0.09274869412183762,
        0.09421466290950775,
        0.09568063169717789,
        0.09714660048484802,
        0.09861256182193756,
        0.1000785306096077,
        0.10154449939727783,
        0.10301046818494797,
        0.1044764369726181,
        0.10594240576028824,
        0.10740837454795837,
        0.10887434333562851,
        0.11034031212329865,
        0.11180628091096878,
        0.11327224969863892,
        0.11473821848630905,
        0.11620418727397919,
        0.11767015606164932,
        0.11913612484931946,
        0.1206020936369896,
        0.12206806242465973,
        0.12353403121232986,
        0.125
      ]
    },
    "context_encoder.blocks.0.attn.qkv.bias": {
      "shape": [
        24
      ],
      "values": [
        -0.054999999701976776,
        -0.05152174085378647,
        -0.04804347828030586,
        -0.044565215706825256,
        -0.04108695685863495,
        -0.03760869428515434,
        -0.034130435436964035,
        -0.030652174726128578,
        -0.027173912152647972,
        -0.023695651441812515,
        -0.02021739073097706,
        -0.0167391300201416,
        -0.013260869309306145,
        -0.009782608598470688,
        -0.006304347887635231,
        -0.0028260869439691305,
        0.0006521739414893091,
        0.004130434710532427,
        0.007608695421367884,
        0.011086956597864628,
        0.014565217308700085,
        0.018043478950858116,
        0.021521739661693573,
        0.02500000037252903
      ]
    },
    "context_encoder.blocks.0.attn.out_proj.weight": {
      "shape": [
        8,
        8
      ],
      "values": [
        -0.11500000208616257,
        -0.11182539910078049,
        -0.10865079611539841,
        -0.10547619313001633,
        -0.10230159014463425,
        -0.09912698715925217,
        -0.09595238417387009,
        -0.092777781188488,
        -0.08960317820310593,
        -0.08642856776714325,
        -0.08325396478176117,
        -0.08007936179637909,
        -0.07690475881099701,
        -0.07373015582561493,
        -0.07055555284023285,
        -0.06738094985485077,
        -0.06420634686946869,
        -0.06103174760937691,
        -0.05785714462399483,
        -0.05468253791332245,
        -0.05150793492794037,
        -0.04833333194255829,
        -0.04515872895717621,
        -0.04198412597179413,
        -0.03880952298641205,
        -0.03563492000102997,
        -0.03246031701564789,
        -0.029285714030265808,
        -0.026111111044883728,
        -0.022936508059501648,
        -0.019761905074119568,
        -0.016587302088737488,
        -0.013412698172032833,
        -0.010238095186650753,
        -0.007063492201268673,
        -0.003888888983055949,
        -0.0007142857066355646,
        0.0024603174533694983,
        0.005634920671582222,
        0.008809523656964302,
        0.011984126642346382,
        0.015158730559051037,
        0.018333332613110542,
        0.021507935598492622,
        0.02468254044651985,
        0.027857143431901932,
        0.031031746417284012,
        0.03420634940266609,
        0.03738095238804817,
        0.04055555537343025,
        0.04373015835881233,
        0.04690476134419441,
        0.05007936432957649,
        0.05325396731495857,
        0.05642857030034065,
        0.05960317328572273,
        0.06277777999639511,
        0.06595238298177719,
        0.06912698596715927,
        0.07230158895254135,
        0.07547619193792343,
        0.07865079492330551,
        0.08182539790868759,
        0.08500000089406967
      ]
    },
    "context_encoder.blocks.0.attn.out_proj.bias": {
      "shape": [
        8
      ],
      "values": [
        -0.03999999910593033,
        -0.03285714238882065,
        -0.025714285671710968,
        -0.018571428954601288,
        -0.011428571306169033,
        -0.004285714123398066,
        0.0028571428265422583,
        0.009999999776482582
      ]
    },
    "context_encoder.blocks.0.norm2.gamma": {
      "shape": [
        8
      ],
      "values": [
        0.8849999904632568,
        0.9135714173316956,
        0.9421428442001343,
        0.970714271068573,
        0.9992856979370117,
        1.0278571844100952,
        1.0564285516738892,
        1.0850000381469727
      ]
    },
    "context_encoder.blocks.0.norm2.beta": {
      "shape": [
        8
      ],
      "values": [
        -0.03999999910593033,
        -0.03285714238882065,
        -0.025714285671710968,
        -0.018571428954601288,
        -0.011428571306169033,
        -0.004285714123398066,
        0.0028571428265422583,
        0.009999999776482582
      ]
    },
    "context_encoder.blocks.0.mlp.fc1.weight": {
      "shape": [
        8,
        16
      ],
      "values": [
        -0.13500000536441803,
        -0.13311024010181427,
        -0.1312204748392105,
        -0.12933070957660675,
        -0.127440944314003,
        -0.12555117905139923,
        -0.12366141378879547,
        -0.12177165597677231,
        -0.11988189071416855,
        -0.11799212545156479,
        -0.11610236018896103,
        -0.11421259492635727,
        -0.1123228371143341,
        -0.11043307185173035,
        -0.10854330658912659,
        -0.10665354132652283,
        -0.10476377606391907,
        -0.1028740182518959,
        -0.10098425298929214,
        -0.09909448772668839,
        -0.09720472246408463,
        -0.09531495720148087,
        -0.0934251993894577,
        -0.09153543412685394,
        -0.08964566886425018,
        -0.08775590360164642,
        -0.08586613833904266,
        -0.0839763805270195,
        -0.08208661526441574,
        -0.08019685000181198,
        -0.07830708473920822,
        -0.07641731947660446,
        -0.0745275616645813,
        -0.07263779640197754,
        -0.07074803113937378,
        -0.06885826587677002,
        -0.06696850061416626,
        -0.0650787428021431,
        -0.06318897753953934,
        -0.06129921227693558,
        -0.05940944701433182,
        -0.057519685477018356,
        -0.0556299202144146,
        -0.053740158677101135,
        -0.051850393414497375,
        -0.049960628151893616,
        -0.048070866614580154,
        -0.046181101351976395,
        -0.04429133981466293,
        -0.042401574552059174,
        -0.040511809289455414,
        -0.03862204775214195,
        -0.03673228248953819,
        -0.03484252095222473,
        -0.03295275568962097,
        -0.03106299228966236,
        -0.02917322888970375,
        -0.02728346548974514,
        -0.02539370022714138,
        -0.02350393682718277,
        -0.02161417342722416,
        -0.01972441002726555,
        -0.01783464476466179,
        -0.01594488136470318,
        -0.014055117964744568,
        -0.012165354564785957,
        -0.010275590233504772,
        -0.008385826833546162,
        -0.006496062967926264,
        -0.004606299102306366,
        -0.0027165354695171118,
        -0.0008267716621048748,
        0.001062992145307362,
        0.002952755894511938,
        0.004842519760131836,
        0.006732283625751734,
        0.008622047491371632,
        0.010511810891330242,
        0.012401575222611427,
        0.014291338622570038,
        0.01618110202252865,
        0.01807086542248726,
        0.01996063068509102,
        0.02185039408504963,
        0.02374015748500824,
        0.02562992088496685,
        0.02751968428492546,
        0.02940944954752922,
        0.03129921108484268,
        0.03318897634744644,
        0.0350787416100502,
        0.03696850314736366,
        0.03885826840996742,
        0.040748029947280884,
        0.042637795209884644,
        0.0445275604724884,
        0.046417322009801865,
        0.048307087272405624,
        0.050196848809719086,
        0.052086614072322845,
        0.053976379334926605,
        0.055866140872240067,
        0.057755906134843826,
        0.05964566767215729,
        0.06153543293476105,
        0.06342519819736481,
        0.06531496345996857,
        0.06720472127199173,
        0.06909448653459549,
        0.07098425179719925,
        0.07287401705980301,
        0.07476378232240677,
        0.07665354013442993,
        0.07854330539703369,
        0.08043307065963745,
        0.08232283592224121,
        0.08421260118484497,
        0.08610235899686813,
        0.0879921242594719,
        0.08988188952207565,
        0.09177165478467941,
        0.09366142004728317,
        0.09555117785930634,
        0.0974409431219101,
        0.09933070838451385,
        0.10122047364711761,
        0.10311023890972137,
        0.10499999672174454
      ]
    },
    "context_encoder.blocks.0.mlp.fc1.bias": {
      "shape": [
        16
      ],
      "values": [
        -0.04500000178813934,
        -0.04100000113248825,
        -0.03700000047683716,
        -0.032999999821186066,
        -0.028999999165534973,
        -0.02500000037252903,
        -0.020999999716877937,
        -0.017000000923871994,
        -0.013000000268220901,
        -0.008999999612569809,
        -0.004999999888241291,
        -0.0010000000474974513,
        0.003000000026077032,
        0.007000000216066837,
        0.010999999940395355,
        0.014999999664723873
      ]
    },
    "context_encoder.blocks.0.mlp.fc2.weight": {
      "shape": [
        16,
        8
      ],
      "values": [
        -0.10499999672174454,
        -0.10358268022537231,
        -0.1021653562784195,
        -0.10074803233146667,
        -0.09933070838451385,
        -0.09791338443756104,
        -0.09649606049060822,
        -0.0950787365436554,
        -0.09366142004728317,
        -0.09224409610033035,
        -0.09082677215337753,
        -0.08940944820642471,
        -0.0879921242594719,
        -0.08657480031251907,
        -0.08515748381614685,
        -0.08374015986919403,
        -0.08232283592224121,
        -0.08090551197528839,
        -0.07948818802833557,
        -0.07807086408138275,
        -0.07665354013442993,
        -0.07523622363805771,
        -0.07381889969110489,
        -0.07240157574415207,
        -0.07098425179719925,
        -0.06956692785024643,
        -0.06814960390329361,
        -0.06673227995634079,
        -0.06531496345996857,
        -0.06389763951301575,
        -0.06248031556606293,
        -0.06106299161911011,
        -0.05964566767215729,
        -0.058228347450494766,
        -0.056811023503541946,
        -0.05539369955658913,
        -0.053976379334926605,
        -0.052559055387973785,
        -0.051141731441020966,
        -0.049724411219358444,
        -0.048307087272405624,
        -0.046889763325452805,
        -0.045472439378499985,
        -0.04405511915683746,
        -0.042637795209884644,
        -0.041220471262931824,
        -0.0398031510412693,
        -0.03838582709431648,
        -0.03696850314736366,
        -0.03555118292570114,
        -0.03413385897874832,
        -0.0327165350317955,
        -0.03129921108484268,
        -0.02988188900053501,
        -0.02846456691622734,
        -0.02704724483191967,
        -0.02562992088496685,
        -0.02421259880065918,
        -0.02279527485370636,
        -0.02137795276939869,
        -0.01996063068509102,
        -0.0185433067381382,
        -0.017125984653830528,
        -0.01570866070687771,
        -0.014291338622570038,
        -0.012874015606939793,
        -0.011456692591309547,
        -0.010039370507001877,
        -0.008622047491371632,
        -0.007204724475741386,
        -0.005787401460111141,
        -0.004370078910142183,
        -0.002952755894511938,
        -0.0015354331117123365,
        -0.000118110234325286,
        0.0012992125703021884,
        0.0027165354695171118,
        0.004133858252316713,
        0.0055511812679469585,
        0.0069685038179159164,
        0.008385826833546162,
        0.009803149849176407,
        0.011220472864806652,
        0.012637794949114323,
        0.014055117964744568,
        0.015472440980374813,
        0.01688976399600506,
        0.01830708608031273,
        0.01972441002726555,
        0.02114173211157322,
        0.02255905419588089,
        0.02397637814283371,
        0.02539370022714138,
        0.0268110241740942,
        0.02822834625840187,
        0.02964567020535469,
        0.03106299228966236,
        0.03248031437397003,
        0.03389763832092285,
        0.03531496226787567,
        0.03673228248953819,
        0.03814960643649101,
        0.03956693038344383,
        0.040984250605106354,
        0.042401574552059174,
        0.04381889849901199,
        0.045236218720674515,
        0.046653542667627335,
        0.048070866614580154,
        0.049488190561532974,
        0.050905510783195496,
        0.052322834730148315,
        0.053740158677101135,
        0.05515747889876366,
        0.056574802845716476,
        0.057992126792669296,
        0.05940944701433182,
        0.06082677096128464,
        0.06224409490823746,
        0.06366141885519028,
        0.0650787428021431,
        0.06649605929851532,
        0.06791338324546814,
        0.06933070719242096,
        0.07074803113937378,
        0.0721653550863266,
        0.07358267903327942,
        0.07500000298023224
      ]
    },
    "context_encoder.blocks.0.mlp.fc2.bias": {
      "shape": [
        8
      ],
      "values": [
        -0.03500000014901161,
        -0.029285714030265808,
        -0.023571427911520004,
        -0.01785714365541935,
        -0.012142857536673546,
        -0.006428571417927742,
        -0.0007142857066355646,
        0.004999999888241291
      ]
    },
    "context_encoder.blocks.1.norm1.gamma": {
      "shape": [
        8
      ],
      "values": [
        0.875,
        0.9035714268684387,
        0.9321428537368774,
        0.9607142806053162,
        0.9892857074737549,
        1.0178571939468384,
        1.0464285612106323,
        1.0750000476837158
      ]
    },
    "context_encoder.blocks.1.norm1.beta": {
      "shape": [
        8
      ],
      "values": [
        -0.03500000014901161,
        -0.026428570970892906,
        -0.01785714365541935,
        -0.009285714477300644,
        -0.0007142857066355646,
        0.007857142947614193,
        0.016428571194410324,
        0.02500000037252903
      ]
    },
    "context_encoder.blocks.1.attn.qkv.weight": {
      "shape": [
        8,
        24
      ],
      "values": [
        -0.14499999582767487,
        -0.14353403449058533,
        -0.1420680582523346,
        -0.14060209691524506,
        -0.13913612067699432,
        -0.13767015933990479,
        -0.13620418310165405,
        -0.13473822176456451,
        -0.13327224552631378,
        -0.13180628418922424,
        -0.1303403079509735,
        -0.12887434661388397,
        -0.12740837037563324,
        -0.1259424090385437,
        -0.12447644025087357,
        -0.12301047146320343,
        -0.1215445026755333,
        -0.12007853388786316,
        -0.11861256510019302,
        -0.11714659631252289,
        -0.11568062752485275,
        -0.11421465873718262,
        -0.11274868994951248,
        -0.11128272116184235,
        -0.10981675237417221,
        -0.10835078358650208,
        -0.10688481479883194,
        -0.1054188460111618,
        -0.10395287722349167,
        -0.10248690843582153,
        -0.1010209396481514,
        -0.09955497086048126,
        -0.09808900207281113,
        -0.09662303328514099,
        -0.09515706449747086,
        -0.09369110316038132,
        -0.09222513437271118,
        -0.09075916558504105,
        -0.08929319679737091,
        -0.08782722800970078,
        -0.08636125922203064,
        -0.0848952904343605,
        -0.08342932164669037,
        -0.08196335285902023,
        -0.0804973840713501,
        -0.07903141528367996,
        -0.07756544649600983,
        -0.07609947770833969,
        -0.07463350892066956,
        -0.07316754013299942,
        -0.07170157134532928,
        -0.07023560255765915,
        -0.06876963376998901,
        -0.06730366498231888,
        -0.06583769619464874,
        -0.06437172740697861,
        -0.06290575861930847,
        -0.061439789831638336,
        -0.0599738210439682,
        -0.058507852256298065,
        -0.05704188346862793,
        -0.055575914680957794,
        -0.05410994589328766,
        -0.05264398083090782,
        -0.051178012043237686,
        -0.04971204325556755,
        -0.048246074467897415,
        -0.04678010568022728,
        -0.045314136892557144,
        -0.04384816810488701,
        -0.04238219931721687,
        -0.04091623052954674,
        -0.0394502617418766,
        -0.03798429295420647,
        -0.03651832416653633,
        -0.035052355378866196,
        -0.03358638659119606,
        -0.032120417803525925,
        -0.03065445087850094,
        -0.029188482090830803,
        -0.027722513303160667,
        -0.026256544515490532,
        -0.024790575727820396,
        -0.02332460694015026,
        -0.021858638152480125,
        -0.02039266936480999,
        -0.018926702439785004,
        -0.017460733652114868,
        -0.015994764864444733,
        -0.014528796076774597,
        -0.013062827289104462,
        -0.011596858501434326,
        -0.01013088971376419,
        -0.00866492185741663,
        -0.007198953069746494,
        -0.005732984282076359,
        -0.004267015494406223,
        -0.002801047172397375,
        -0.0013350785011425614,
        0.0001308900536969304,
        0.0015968586085364223,
        0.003062827279791236,
        0.004528795834630728,
        0.005994764622300863,
        0.0074607329443097115,
        0.008926701731979847,
        0.010392670519649982,
        0.011858638375997543,
        0.013324607163667679,
        0.014790575951337814,
        0.01625654473900795,
        0.017722513526678085,
        0.01918848231434822,
        0.020654451102018356,
        0.022120418027043343,
        0.023586386814713478,
        0.025052355602383614,
        0.02651832439005375,
        0.027984293177723885,
        0.02945026196539402,
        0.030916230753064156,
        0.03238219767808914,
        0.03384816646575928,
        0.03531413525342941,
        0.03678010404109955,
        0.038246072828769684,
        0.03971204161643982,
        0.041178010404109955,
        0.04264397919178009,
        0.044109947979450226,
        0.04557591676712036,
        0.0470418855547905,
        0.04850785434246063,
        0.04997382313013077,
        0.0514397919178009,
        0.05290576070547104,
        0.054371729493141174,
        0.05583769455552101,
        0.05730366334319115,
        0.05876963213086128,
        0.06023560091853142,
        0.06170156970620155,
        0.06316754221916199,
        0.06463351100683212,
        0.06609947979450226,
        0.0675654485821724,
        0.06903140991926193,
        0.07049737870693207,
        0.0719633474946022,
        0.07342931628227234,
        0.07489528506994247,
        0.07636125385761261,
        0.07782722264528275,
        0.07929319143295288,
        0.08075916022062302,
        0.08222512900829315,
        0.08369109779596329,
        0.08515706658363342,
        0.08662303537130356,
        0.0880890041589737,
        0.08955497294664383,
        0.09102094173431396,
        0.0924869105219841,
        0.09395287930965424,
        0.09541884809732437,
        0.0968848168849945,
        0.09835078567266464,
        0.09981675446033478,
        0.10128272324800491,
        0.10274869203567505,
        0.10421466082334518,
        0.10568062961101532,
        0.10714659839868546,
        0.10861256718635559,
        0.11007853597402573,
        0.11154450476169586,
        0.113010473549366,
        0.11447644233703613,
        0.11594241112470627,
        0.1174083799123764,
        0.11887434870004654,
        0.12034031748771667,
        0.12180628627538681,
        0.12327224761247635,
        0.12473821640014648,
        0.12620419263839722,
        0.12767015397548676,
        0.1291361302137375,
        0.13060209155082703,
        0.13206806778907776,
        0.1335340291261673,
        0.13500000536441803
      ]
    },
    "context_encoder.blocks.1.attn.qkv.bias": {
      "shape": [
        24
      ],
      "values": [
        -0.04500000178813934,
        -0.04152173921465874,
        -0.03804347664117813,
        -0.034565217792987823,
        -0.031086957082152367,
        -0.02760869637131691,
        -0.024130435660481453,
        -0.020652173087000847,
        -0.01717391237616539,
        -0.013695652596652508,
        -0.010217390954494476,
        -0.0067391302436590195,
        -0.0032608695328235626,
        0.00021739130897913128,
        0.0036956521216779947,
        0.007173913065344095,
        0.01065217424184084,
        0.014130434952676296,
        0.01760869473218918,
        0.021086957305669785,
        0.02456521801650524,
        0.028043478727340698,
        0.031521737575531006,
        0.03500000014901161
      ]
    },
    "context_encoder.blocks.1.attn.out_proj.weight": {
      "shape": [
        8,
        8
      ],
      "values": [
        -0.10499999672174454,
        -0.10182539373636246,
        -0.09865079075098038,
        -0.0954761877655983,
        -0.09230158478021622,
        -0.08912698179483414,
        -0.08595237880945206,
        -0.08277777582406998,
        -0.0796031728386879,
        -0.07642856985330582,
        -0.07325396686792374,
        -0.07007936388254166,
        -0.06690476089715958,
        -0.0637301579117775,
        -0.060555554926395416,
        -0.057380951941013336,
        -0.054206348955631256,
        -0.051031745970249176,
        -0.047857142984867096,
        -0.044682539999485016,
        -0.041507937014102936,
        -0.038333334028720856,
        -0.035158731043338776,
        -0.031984128057956696,
        -0.028809523209929466,
        -0.025634920224547386,
        -0.022460317239165306,
        -0.019285714253783226,
        -0.016111111268401146,
        -0.012936508283019066,
        -0.009761904366314411,
        -0.006587301380932331,
        -0.003412698395550251,
        -0.0002380952355451882,
        0.0029365080408751965,
        0.0061111110262572765,
        0.009285714477300644,
        0.012460317462682724,
        0.015634920448064804,
        0.018809523433446884,
        0.021984126418828964,
        0.025158729404211044,
        0.028333334252238274,
        0.031507935374975204,
        0.034682538360357285,
        0.037857141345739365,
        0.041031744331121445,
        0.04420635104179382,
        0.0473809540271759,
        0.05055555701255798,
        0.053730159997940063,
        0.056904762983322144,
        0.060079365968704224,
        0.0632539689540863,
        0.06642857193946838,
        0.06960317492485046,
        0.07277777791023254,
        0.07595238089561462,
        0.0791269838809967,
        0.08230158686637878,
        0.08547618985176086,
        0.08865079283714294,
        0.09182539582252502,
        0.0949999988079071
      ]
    },
    "context_encoder.blocks.1.attn.out_proj.bias": {
      "shape": [
        8
      ],
      "values": [
        -0.029999999329447746,
        -0.022857142612338066,
        -0.015714285895228386,
        -0.008571428246796131,
        -0.0014285714132711291,
        0.0057142856530845165,
        0.012857142835855484,
        0.019999999552965164
      ]
    },
    "context_encoder.blocks.1.norm2.gamma": {
      "shape": [
        8
      ],
      "values": [
        0.8949999809265137,
        0.9235714077949524,
        0.9521428346633911,
        0.9807142615318298,
        1.0092856884002686,
        1.037857174873352,
        1.066428542137146,
        1.0950000286102295
      ]
    },
    "context_encoder.blocks.1.norm2.beta": {
      "shape": [
        8
      ],
      "values": [
        -0.029999999329447746,
        -0.022857142612338066,
        -0.015714285895228386,
        -0.008571428246796131,
        -0.0014285714132711291,
        0.0057142856530845165,
        0.012857142835855484,
        0.019999999552965164
      ]
    },
    "context_encoder.blocks.1.mlp.fc1.weight": {
      "shape": [
        8,
        16
      ],
      "values": [
        -0.125,
        -0.12311023473739624,
        -0.12122046947479248,
        -0.11933071166276932,
        -0.11744094640016556,
        -0.1155511811375618,
        -0.11366141587495804,
        -0.11177165061235428,
        -0.10988189280033112,
        -0.10799212753772736,
        -0.1061023622751236,
        -0.10421259701251984,
        -0.10232283174991608,
        -0.10043307393789291,
        -0.09854330867528915,
        -0.0966535434126854,
        -0.09476377815008163,
        -0.09287401288747787,
        -0.09098425507545471,
        -0.08909448981285095,
        -0.08720472455024719,
        -0.08531495928764343,
        -0.08342519402503967,
        -0.08153543621301651,
        -0.07964567095041275,
        -0.07775590568780899,
        -0.07586614042520523,
        -0.07397637516260147,
        -0.07208661735057831,
        -0.07019685208797455,
        -0.06830708682537079,
        -0.06641732156276703,
        -0.06452755630016327,
        -0.0626377984881401,
        -0.060748033225536346,
        -0.05885826796293259,
        -0.05696850270032883,
        -0.055078741163015366,
        -0.053188975900411606,
        -0.051299214363098145,
        -0.049409449100494385,
        -0.047519683837890625,
        -0.045629922300577164,
        -0.043740157037973404,
        -0.04185039550065994,
        -0.03996063023805618,
        -0.03807086497545242,
        -0.03618110343813896,
        -0.0342913381755352,
        -0.03240157663822174,
        -0.03051181137561798,
        -0.02862204797565937,
        -0.02673228271305561,
        -0.024842519313097,
        -0.02295275591313839,
        -0.02106299251317978,
        -0.01917322911322117,
        -0.01728346385061741,
        -0.015393700450658798,
        -0.013503937050700188,
        -0.011614173650741577,
        -0.009724409319460392,
        -0.007834645919501781,
        -0.005944882053881884,
        -0.004055118188261986,
        -0.002165354322642088,
        -0.00027559054433368146,
        0.001614173175767064,
        0.003503937041386962,
        0.005393700674176216,
        0.007283464539796114,
        0.009173228405416012,
        0.011062991805374622,
        0.012952756136655807,
        0.014842519536614418,
        0.01673228293657303,
        0.01862204633653164,
        0.0205118115991354,
        0.02240157499909401,
        0.02429133839905262,
        0.02618110179901123,
        0.02807086706161499,
        0.0299606304615736,
        0.03185039386153221,
        0.03374015912413597,
        0.03562992066144943,
        0.03751968592405319,
        0.03940944746136665,
        0.04129921272397041,
        0.04318897798657417,
        0.045078739523887634,
        0.046968504786491394,
        0.048858266323804855,
        0.050748031586408615,
        0.052637796849012375,
        0.054527558386325836,
        0.056417323648929596,
        0.05830708518624306,
        0.06019685044884682,
        0.06208661571145058,
        0.06397637724876404,
        0.0658661425113678,
        0.06775590777397156,
        0.06964566558599472,
        0.07153543084859848,
        0.07342519611120224,
        0.075314961373806,
        0.07720472663640976,
        0.07909449189901352,
        0.08098424971103668,
        0.08287401497364044,
        0.0847637802362442,
        0.08665354549884796,
        0.08854331076145172,
        0.09043306857347488,
        0.09232283383607864,
        0.0942125990986824,
        0.09610236436128616,
        0.09799212962388992,
        0.09988188743591309,
        0.10177165269851685,
        0.1036614179611206,
        0.10555118322372437,
        0.10744094848632812,
        0.10933070629835129,
        0.11122047156095505,
        0.11311023682355881,
        0.11500000208616257
      ]
    },
    "context_encoder.blocks.1.mlp.fc1.bias": {
      "shape": [
        16
      ],
      "values": [
        -0.03500000014901161,
        -0.03099999949336052,
        -0.027000000700354576,
        -0.023000000044703484,
        -0.01899999938905239,
        -0.014999999664723873,
        -0.010999999940395355,
        -0.007000000216066837,
        -0.003000000026077032,
        0.0010000000474974513,
        0.004999999888241291,
        0.008999999612569809,
        0.013000000268220901,
        0.017000000923871994,
        0.020999999716877937,
        0.02500000037252903
      ]
    },
    "context_encoder.blocks.1.mlp.fc2.weight": {
      "shape": [
        16,
        8
      ],
      "values": [
        -0.0949999988079071,
        -0.09358267486095428,
        -0.09216535091400146,
        -0.09074803441762924,
        -0.08933071047067642,
        -0.0879133865237236,
        -0.08649606257677078,
        -0.08507873862981796,
        -0.08366141468286514,
        -0.08224409818649292,
        -0.0808267742395401,
        -0.07940945029258728,
        -0.07799212634563446,
        -0.07657480239868164,
        -0.07515747845172882,
        -0.073740154504776,
        -0.07232283800840378,
        -0.07090551406145096,
        -0.06948819011449814,
        -0.06807086616754532,
        -0.0666535422205925,
        -0.06523621827363968,
        -0.06381889432668686,
        -0.06240157410502434,
        -0.06098425015807152,
        -0.059566929936409,
        -0.05814960598945618,
        -0.05673228204250336,
        -0.055314961820840836,
        -0.053897637873888016,
        -0.052480313926935196,
        -0.051062993705272675,
        -0.049645669758319855,
        -0.048228345811367035,
        -0.046811021864414215,
        -0.045393701642751694,
        -0.043976377695798874,
        -0.042559053748846054,
        -0.04114173352718353,
        -0.03972440958023071,
        -0.03830708563327789,
        -0.03688976541161537,
        -0.03547244146466255,
        -0.03405511751770973,
        -0.03263779357075691,
        -0.03122047334909439,
        -0.02980314940214157,
        -0.0283858273178339,
        -0.02696850337088108,
        -0.02555118128657341,
        -0.02413385733962059,
        -0.02271653525531292,
        -0.02129921317100525,
        -0.01988188922405243,
        -0.01846456713974476,
        -0.01704724319279194,
        -0.015629921108484268,
        -0.014212598092854023,
        -0.012795276008546352,
        -0.011377952992916107,
        -0.009960629977285862,
        -0.008543306961655617,
        -0.007125984411686659,
        -0.005708661396056414,
        -0.0042913383804261684,
        -0.0028740158304572105,
        -0.0014566929312422872,
        -3.937007932108827e-05,
        0.0013779527507722378,
        0.0027952755335718393,
        0.004212598316371441,
        0.005629921332001686,
        0.007047243881970644,
        0.008464567363262177,
        0.009881889447569847,
        0.011299212463200092,
        0.012716535478830338,
        0.014133858494460583,
        0.015551181510090828,
        0.0169685035943985,
        0.01838582754135132,
        0.01980314962565899,
        0.02122047170996666,
        0.02263779565691948,
        0.02405511774122715,
        0.02547244168817997,
        0.02688976377248764,
        0.02830708585679531,
        0.02972440980374813,
        0.0311417318880558,
        0.03255905583500862,
        0.03397637978196144,
        0.03539370000362396,
        0.03681102395057678,
        0.0382283478975296,
        0.03964566811919212,
        0.04106299206614494,
        0.04248031601309776,
        0.043897636234760284,
        0.045314960181713104,
        0.046732284128665924,
        0.048149608075618744,
        0.049566928297281265,
        0.050984252244234085,
        0.052401576191186905,
        0.053818896412849426,
        0.055236220359802246,
        0.056653544306755066,
        0.05807086452841759,
        0.05948818847537041,
        0.06090551242232323,
        0.06232283636927605,
        0.06374015659093857,
        0.06515748053789139,
        0.06657480448484421,
        0.06799212843179703,
        0.06940945237874985,
        0.07082676887512207,
        0.07224409282207489,
        0.07366141676902771,
        0.07507874071598053,
        0.07649606466293335,
        0.07791338860988617,
        0.07933070510625839,
        0.08074802905321121,
        0.08216535300016403,
        0.08358267694711685,
        0.08500000089406967
      ]
    },
    "context_encoder.blocks.1.mlp.fc2.bias": {
      "shape": [
        8
      ],
      "values": [
        -0.02500000037252903,
        -0.019285714253783226,
        -0.013571428135037422,
        -0.007857142947614193,
        -0.002142857061699033,
        0.0035714285913854837,
        0.009285714477300644,
        0.014999999664723873
      ]
    },
    "target_encoder.patch_embed.projection.weight": {
      "shape": [
        4,
        8
      ],
      "values": [
        -0.0949999988079071,
        -0.08725806325674057,
        -0.07951612770557404,
        -0.0717741921544075,
        -0.06403225660324097,
        -0.05629032105207443,
        -0.0485483855009079,
        -0.040806449949741364,
        -0.03306451439857483,
        -0.025322580710053444,
        -0.01758064515888691,
        -0.009838709607720375,
        -0.0020967742893844843,
        0.005645161494612694,
        0.013387097045779228,
        0.021129032596945763,
        0.028870968148112297,
        0.03661290183663368,
        0.04435483738780022,
        0.05209677293896675,
        0.059838708490133286,
        0.06758064776659012,
        0.07532258331775665,
        0.08306451886892319,
        0.09080645442008972,
        0.09854838997125626,
        0.10629032552242279,
        0.11403226107358932,
        0.12177419662475586,
        0.1295161247253418,
        0.13725806772708893,
        0.14499999582767487
      ]
    },
    "target_encoder.patch_embed.projection.bias": {
      "shape": [
        8
      ],
      "values": [
        -0.004999999888241291,
        0.0035714285913854837,
        0.012142857536673546,
        0.020714284852147102,
        0.029285714030265808,
        0.037857141345739365,
        0.04642857238650322,
        0.054999999701976776
      ]
    },
    "target_encoder.norm.gamma": {
      "shape": [
        8
      ],
      "values": [
        0.9649999737739563,
        0.9821428656578064,
        0.9992856979370117,
        1.0164285898208618,
        1.033571481704712,
        1.0507142543792725,
        1.0678571462631226,
        1.0850000381469727
      ]
    },
    "target_encoder.norm.beta": {
      "shape": [
        8
      ],
      "values": [
        0.0,
        0.0071428571827709675,
        0.014285714365541935,
        0.02142857201397419,
        0.02857142873108387,
        0.0357142873108387,
        0.04285714402794838,
        0.05000000074505806
      ]
    },
    "target_encoder.blocks.0.norm1.gamma": {
      "shape": [
        8
      ],
      "values": [
        0.9049999713897705,
        0.933571457862854,
        0.9621428847312927,
        0.9907143115997314,
        1.0192856788635254,
        1.0478571653366089,
        1.0764285326004028,
        1.1050000190734863
      ]
    },
    "target_encoder.blocks.0.norm1.beta": {
      "shape": [
        8
      ],
      "values": [
        -0.004999999888241291,
        0.0035714285913854837,
        0.012142857536673546,
        0.020714284852147102,
        0.029285714030265808,
        0.037857141345739365,
        0.04642857238650322,
        0.054999999701976776
      ]
    },
    "target_encoder.blocks.0.attn.qkv.weight": {
      "shape": [
        8,
        24
      ],
      "values": [
        -0.11500000208616257,
        -0.11353403329849243,
        -0.1120680645108223,
        -0.11060209572315216,
        -0.10913612693548203,
        -0.10767015814781189,
        -0.10620418936014175,
        -0.10473822057247162,
        -0.10327225178480148,
        -0.10180628299713135,
        -0.10034031420946121,
        -0.09887434542179108,
        -0.09740837663412094,
        -0.0959424078464508,
        -0.09447643905878067,
        -0.09301047027111053,
        -0.0915445014834404,
        -0.09007853269577026,
        -0.08861256390810013,
        -0.08714659512042999,
        -0.08568062633275986,
        -0.08421465754508972,
        -0.08274868875741959,
        -0.08128271996974945,
        -0.07981675118207932,
        -0.07835078239440918,
        -0.07688481360673904,
        -0.07541884481906891,
        -0.07395287603139877,
        -0.07248691469430923,
        -0.0710209459066391,
        -0.06955497711896896,
        -0.06808900833129883,
        -0.06662303954362869,
        -0.06515707075595856,
        -0.06369110196828842,
        -0.06222512945532799,
        -0.06075916066765785,
        -0.05929319187998772,
        -0.05782722681760788,
        -0.056361258029937744,
        -0.05489528924226761,
        -0.05342932045459747,
        -0.05196335166692734,
        -0.0504973828792572,
        -0.04903141409158707,
        -0.04756544530391693,
        -0.046099476516246796,
        -0.04463350772857666,
        -0.043167538940906525,
        -0.04170157015323639,
        -0.040235601365566254,
        -0.03876963257789612,
        -0.03730366379022598,
        -0.03583769500255585,
        -0.03437172621488571,
        -0.032905757427215576,
        -0.03143979236483574,
        -0.029973821714520454,
        -0.02850785292685032,
        -0.027041884139180183,
        -0.025575915351510048,
        -0.02410994842648506,
        -0.022643979638814926,
        -0.02117801085114479,
        -0.019712042063474655,
        -0.01824607327580452,
        -0.016780104488134384,
        -0.015314135700464249,
        -0.013848167844116688,
        -0.012382199056446552,
        -0.010916230268776417,
        -0.009450261481106281,
        -0.00798429362475872,
        -0.006518324837088585,
        -0.005052356049418449,
        -0.0035863874945789576,
        -0.0021204189397394657,
        -0.000654450268484652,
        0.0008115183445625007,
        0.0022774869576096535,
        0.0037434555124491453,
        0.005209424067288637,
        0.006675392854958773,
        0.00814136117696762,
        0.009607329964637756,
        0.011073298752307892,
        0.012539266608655453,
        0.014005235396325588,
        0.015471204183995724,
        0.016937172040343285,
        0.01840314082801342,
        0.019869109615683556,
        0.02133507840335369,
        0.022801047191023827,
        0.024267015978693962,
        0.025732984766364098,
        0.027198953554034233,
        0.02866492234170437,
        0.030130889266729355,
        0.03159685805439949,
        0.033062826842069626,
        0.03452879562973976,
        0.0359947644174099,
        0.03746073320508003,
        0.03892670199275017,
        0.0403926707804203,
        0.04185863956809044,
        0.043324608355760574,
        0.04479057714343071,
        0.046256545931100845,
        0.04772251471877098,
        0.049188483506441116,
        0.05065444856882095,
        0.05212041735649109,
        0.053586386144161224,
        0.05505235493183136,
        0.056518323719501495,
        0.05798429250717163,
        0.059450261294841766,
        0.0609162300825119,
        0.06238219887018204,
        0.06384816765785217,
        0.06531413644552231,
        0.06678010523319244,
        0.06824607402086258,
        0.06971204280853271,
        0.07117801159620285,
        0.07264398038387299,
        0.07410994917154312,
        0.07557591795921326,
        0.07704188674688339,
        0.07850785553455353,
        0.07997382432222366,
        0.0814397931098938,
        0.08290576189756393,
        0.08437173068523407,
        0.0858376994729042,
        0.08730366826057434,
        0.08876963704824448,
        0.09023559838533401,
        0.09170156717300415,
        0.09316753596067429,
        0.09463350474834442,
        0.09609947353601456,
        0.09756544232368469,
        0.09903141111135483,
        0.10049737989902496,
        0.1019633486866951,
        0.10342931747436523,
        0.10489528626203537,
        0.1063612550497055,
        0.10782722383737564,
        0.10929319262504578,
        0.11075916141271591,
        0.11222513020038605,
        0.11369109898805618,
        0.11515706777572632,
        0.11662303656339645,
        0.11808900535106659,
        0.11955497413873672,
        0.12102094292640686,
        0.122486911714077,
        0.12395288050174713,
        0.12541884183883667,
        0.1268848180770874,
        0.12835077941417694,
        0.12981675565242767,
        0.1312827169895172,
        0.13274869322776794,
        0.13421465456485748,
        0.13568063080310822,
        0.13714659214019775,
        0.1386125683784485,
        0.14007852971553802,
        0.14154450595378876,
        0.1430104672908783,
        0.14447644352912903,
        0.14594240486621857,
        0.1474083811044693,
        0.14887434244155884,
        0.15034031867980957,
        0.1518062800168991,
        0.15327225625514984,
        0.15473821759223938,
        0.1562041938304901,
        0.15767015516757965,
        0.15913613140583038,
        0.16060209274291992,
        0.16206806898117065,
        0.1635340303182602,
        0.16500000655651093
      ]
    },
    "target_encoder.blocks.0.attn.qkv.bias": {
      "shape": [
        24
      ],
      "values": [
        -0.014999999664723873,
        -0.011521738953888416,
        -0.00804347824305296,
        -0.004565217532217503,
        -0.0010869564721360803,
        0.0023913043551146984,
        0.005869565065950155,
        0.0093478262424469,
        0.012826086953282356,
        0.016304347664117813,
        0.01978260837495327,
        0.023260869085788727,
        0.026739129796624184,
        0.03021739050745964,
        0.03369565308094025,
        0.037173911929130554,
        0.04065217450261116,
        0.04413043335080147,
        0.047608695924282074,
        0.05108695477247238,
        0.05456521734595299,
        0.058043479919433594,
        0.0615217387676239,
        0.06499999761581421
      ]
    },
    "target_encoder.blocks.0.attn.out_proj.weight": {
      "shape": [
        8,
        8
      ],
      "values": [
        -0.07500000298023224,
        -0.07182539999485016,
        -0.06865079700946808,
        -0.065476194024086,
        -0.06230158731341362,
        -0.05912698432803154,
        -0.05595238134264946,
        -0.05277777835726738,
        -0.0496031753718853,
        -0.04642857238650322,
        -0.04325396940112114,
        -0.04007936641573906,
        -0.03690476343035698,
        -0.0337301604449749,
        -0.03055555559694767,
        -0.02738095261156559,
        -0.02420634962618351,
        -0.02103174664080143,
        -0.01785714365541935,
        -0.014682539738714695,
        -0.011507936753332615,
        -0.008333333767950535,
        -0.0051587303169071674,
        -0.0019841270986944437,
        0.0011904762359336019,
        0.004365079570561647,
        0.0075396825559437275,
        0.010714286006987095,
        0.013888888992369175,
        0.01706349290907383,
        0.02023809589445591,
        0.02341269887983799,
        0.02658730186522007,
        0.02976190485060215,
        0.03293650969862938,
        0.03611111268401146,
        0.03928571566939354,
        0.04246031865477562,
        0.0456349216401577,
        0.04880952462553978,
        0.05198412761092186,
        0.05515873059630394,
        0.05833333358168602,
        0.0615079365670681,
        0.06468254327774048,
        0.06785714626312256,
        0.07103174924850464,
        0.07420635223388672,
        0.0773809552192688,
        0.08055555820465088,
        0.08373016119003296,
        0.08690476417541504,
        0.09007936716079712,
        0.0932539701461792,
        0.09642857313156128,
        0.09960317611694336,
        0.10277777910232544,
        0.10595238208770752,
        0.1091269850730896,
        0.11230158805847168,
        0.11547619104385376,
        0.11865079402923584,
        0.12182539701461792,
        0.125
      ]
    },
    "target_encoder.blocks.0.attn.out_proj.bias": {
      "shape": [
        8
      ],
      "values": [
        0.0,
        0.0071428571827709675,
        0.014285714365541935,
        0.02142857201397419,
        0.02857142873108387,
        0.0357142873108387,
        0.04285714402794838,
        0.05000000074505806
      ]
    },
    "target_encoder.blocks.0.norm2.gamma": {
      "shape": [
        8
      ],
      "values": [
        0.925000011920929,
        0.9535714387893677,
        0.9821428656578064,
        1.0107142925262451,
        1.039285659790039,
        1.0678571462631226,
        1.0964285135269165,
        1.125
      ]
    },
    "target_encoder.blocks.0.norm2.beta": {
      "shape": [
        8
      ],
      "values": [
        0.0,
        0.0071428571827709675,
        0.014285714365541935,
        0.02142857201397419,
        0.02857142873108387,
        0.0357142873108387,
        0.04285714402794838,
        0.05000000074505806
      ]
    },
    "target_encoder.blocks.0.mlp.fc1.weight": {
      "shape": [
        8,
        16
      ],
      "values": [
        -0.0949999988079071,
        -0.09311023354530334,
        -0.09122047573328018,
        -0.08933071047067642,
        -0.08744094520807266,
        -0.0855511799454689,
        -0.08366141468286514,
        -0.08177165687084198,
        -0.07988189160823822,
        -0.07799212634563446,
        -0.0761023610830307,
        -0.07421259582042694,
        -0.07232283800840378,
        -0.07043307274580002,
        -0.06854330748319626,
        -0.0666535422205925,
        -0.06476377695798874,
        -0.06287401914596558,
        -0.06098425015807152,
        -0.05909448862075806,
        -0.0572047233581543,
        -0.055314961820840836,
        -0.053425196558237076,
        -0.051535431295633316,
        -0.049645669758319855,
        -0.047755904495716095,
        -0.045866142958402634,
        -0.043976377695798874,
        -0.042086612433195114,
        -0.04019685089588165,
        -0.03830708563327789,
        -0.03641732409596443,
        -0.03452755883336067,
        -0.03263779357075691,
        -0.03074803203344345,
        -0.02885826863348484,
        -0.02696850337088108,
        -0.02507873997092247,
        -0.02318897657096386,
        -0.02129921317100525,
        -0.01940944790840149,
        -0.01751968450844288,
        -0.015629921108484268,
        -0.013740157708525658,
        -0.011850393377244473,
        -0.009960629977285862,
        -0.008070866577327251,
        -0.006181102246046066,
        -0.0042913383804261684,
        -0.0024015747476369143,
        -0.0005118109984323382,
        0.0013779527507722378,
        0.0032677166163921356,
        0.0051574804820120335,
        0.007047243881970644,
        0.008937007747590542,
        0.010826772078871727,
        0.012716535478830338,
        0.014606298878788948,
        0.01649606227874756,
        0.01838582754135132,
        0.02027559094130993,
        0.02216535434126854,
        0.02405511774122715,
        0.02594488114118576,
        0.02783464640378952,
        0.02972440980374813,
        0.03161417320370674,
        0.0335039384663105,
        0.03539370000362396,
        0.03728346526622772,
        0.039173226803541183,
        0.04106299206614494,
        0.0429527573287487,
        0.044842518866062164,
        0.046732284128665924,
        0.048622045665979385,
        0.050511810928583145,
        0.052401576191186905,
        0.054291337728500366,
        0.056181102991104126,
        0.05807086452841759,
        0.05996062979102135,
        0.06185039505362511,
        0.06374015659093857,
        0.06562992185354233,
        0.06751968711614609,
        0.06940945237874985,
        0.07129921019077301,
        0.07318897545337677,
        0.07507874071598053,
        0.07696850597858429,
        0.07885827124118805,
        0.08074802905321121,
        0.08263779431581497,
        0.08452755957841873,
        0.08641732484102249,
        0.08830709010362625,
        0.09019684791564941,
        0.09208661317825317,
        0.09397637844085693,
        0.0958661437034607,
        0.09775590896606445,
        0.09964566677808762,
        0.10153543204069138,
        0.10342519730329514,
        0.1053149625658989,
        0.10720472782850266,
        0.10909448564052582,
        0.11098425090312958,
        0.11287401616573334,
        0.1147637814283371,
        0.11665354669094086,
        0.11854330450296402,
        0.12043306976556778,
        0.12232283502817154,
        0.1242126002907753,
        0.12610235810279846,
        0.12799212336540222,
        0.12988188862800598,
        0.13177165389060974,
        0.1336614191532135,
        0.13555118441581726,
        0.13744094967842102,
        0.13933071494102478,
        0.14122046530246735,
        0.1431102305650711,
        0.14499999582767487
      ]
    },
    "target_encoder.blocks.0.mlp.fc1.bias": {
      "shape": [
        16
      ],
      "values": [
        -0.004999999888241291,
        -0.0010000000474974513,
        0.003000000026077032,
        0.007000000216066837,
        0.010999999940395355,
        0.014999999664723873,
        0.01899999938905239,
        0.023000000044703484,
        0.027000000700354576,
        0.03099999949336052,
        0.03500000014901161,
        0.039000000804662704,
        0.0430000014603138,
        0.04699999839067459,
        0.050999999046325684,
        0.054999999701976776
      ]
    },
    "target_encoder.blocks.0.mlp.fc2.weight": {
      "shape": [
        16,
        8
      ],
      "values": [
        -0.06499999761581421,
        -0.06358267366886139,
        -0.06216535344719887,
        -0.060748033225536346,
        -0.05933070927858353,
        -0.05791338533163071,
        -0.05649606138467789,
        -0.055078741163015366,
        -0.053661417216062546,
        -0.052244093269109726,
        -0.050826773047447205,
        -0.049409449100494385,
        -0.047992125153541565,
        -0.046574804931879044,
        -0.045157480984926224,
        -0.043740157037973404,
        -0.042322833091020584,
        -0.04090551286935806,
        -0.03948818892240524,
        -0.03807086497545242,
        -0.0366535447537899,
        -0.03523622080683708,
        -0.03381889685988426,
        -0.03240157663822174,
        -0.03098425269126892,
        -0.0295669287443161,
        -0.02814960666000843,
        -0.02673228271305561,
        -0.02531496062874794,
        -0.02389763854444027,
        -0.02248031459748745,
        -0.02106299251317978,
        -0.01964566856622696,
        -0.01822834648191929,
        -0.016811024397611618,
        -0.015393700450658798,
        -0.013976378366351128,
        -0.012559055350720882,
        -0.011141732335090637,
        -0.009724409319460392,
        -0.008307086303830147,
        -0.006889763753861189,
        -0.005472440738230944,
        -0.004055118188261986,
        -0.0026377951726317406,
        -0.001220472389832139,
        0.00019685039296746254,
        0.001614173175767064,
        0.0030314959585666656,
        0.004448818974196911,
        0.005866141524165869,
        0.007283464539796114,
        0.008700787089765072,
        0.010118110105395317,
        0.011535433121025562,
        0.012952756136655807,
        0.014370079152286053,
        0.015787402167916298,
        0.01720472425222397,
        0.01862204633653164,
        0.02003937028348446,
        0.02145669236779213,
        0.02287401631474495,
        0.02429133839905262,
        0.02570866234600544,
        0.02712598443031311,
        0.02854330651462078,
        0.0299606304615736,
        0.03137795254588127,
        0.03279527649283409,
        0.03421259671449661,
        0.03562992066144943,
        0.03704724460840225,
        0.03846456855535507,
        0.03988188877701759,
        0.04129921272397041,
        0.04271653667092323,
        0.044133856892585754,
        0.045551180839538574,
        0.046968504786491394,
        0.048385825008153915,
        0.049803148955106735,
        0.051220472902059555,
        0.052637796849012375,
        0.054055117070674896,
        0.055472441017627716,
        0.056889764964580536,
        0.05830708518624306,
        0.05972440913319588,
        0.0611417330801487,
        0.06255905330181122,
        0.06397637724876404,
        0.06539370119571686,
        0.06681102514266968,
        0.0682283490896225,
        0.06964566558599472,
        0.07106298953294754,
        0.07248031347990036,
        0.07389763742685318,
        0.075314961373806,
        0.07673228532075882,
        0.07814960926771164,
        0.07956692576408386,
        0.08098424971103668,
        0.0824015736579895,
        0.08381889760494232,
        0.08523622155189514,
        0.08665354549884796,
        0.08807086944580078,
        0.089488185942173,
        0.09090550988912582,
        0.09232283383607864,
        0.09374015778303146,
        0.09515748172998428,
        0.0965748056769371,
        0.09799212962388992,
        0.09940944612026215,
        0.10082677006721497,
        0.10224409401416779,
        0.1036614179611206,
        0.10507874190807343,
        0.10649606585502625,
        0.10791338235139847,
        0.10933070629835129,
        0.11074803024530411,
        0.11216535419225693,
        0.11358267813920975,
        0.11500000208616257
      ]
    },
    "target_encoder.blocks.0.mlp.fc2.bias": {
      "shape": [
        8
      ],
      "values": [
        0.004999999888241291,
        0.010714286006987095,
        0.016428571194410324,
        0.022142857313156128,
        0.027857143431901932,
        0.033571429550647736,
        0.03928571566939354,
        0.04500000178813934
      ]
    },
    "target_encoder.blocks.1.norm1.gamma": {
      "shape": [
        8
      ],
      "values": [
        0.9150000214576721,
        0.9435714483261108,
        0.9721428751945496,
        1.0007143020629883,
        1.0292856693267822,
        1.0578571557998657,
        1.0864285230636597,
        1.1150000095367432
      ]
    },
    "target_encoder.blocks.1.norm1.beta": {
      "shape": [
        8
      ],
      "values": [
        0.004999999888241291,
        0.013571428135037422,
        0.022142857313156128,
        0.030714286491274834,
        0.03928571566939354,
        0.047857142984867096,
        0.05642857030034065,
        0.06499999761581421
      ]
    },
    "target_encoder.blocks.1.attn.qkv.weight": {
      "shape": [
        8,
        24
      ],
      "values": [
        -0.10499999672174454,
        -0.1035340279340744,
        -0.10206805914640427,
        -0.10060209780931473,
        -0.09913612902164459,
        -0.09767016023397446,
        -0.09620419144630432,
        -0.09473822265863419,
        -0.09327225387096405,
        -0.09180628508329391,
        -0.09034031629562378,
        -0.08887434750795364,
        -0.08740837872028351,
        -0.08594240993261337,
        -0.08447644114494324,
        -0.0830104723572731,
        -0.08154450356960297,
        -0.08007853478193283,
        -0.0786125659942627,
        -0.07714659720659256,
        -0.07568062841892242,
        -0.07421465963125229,
        -0.07274869084358215,
        -0.07128272205591202,
        -0.06981675326824188,
        -0.06835078448057175,
        -0.06688481569290161,
        -0.06541884690523148,
        -0.06395287811756134,
        -0.062486909329891205,
        -0.06102094426751137,
        -0.05955497547984123,
        -0.0580890066921711,
        -0.05662303790450096,
        -0.055157069116830826,
        -0.05369110032916069,
        -0.052225131541490555,
        -0.05075916275382042,
        -0.049293193966150284,
        -0.04782722517848015,
        -0.04636125639081001,
        -0.04489528760313988,
        -0.04342931881546974,
        -0.041963350027799606,
        -0.04049738124012947,
        -0.039031412452459335,
        -0.0375654436647892,
        -0.036099474877119064,
        -0.03463350608944893,
        -0.03316754102706909,
        -0.031701572239398956,
        -0.03023560158908367,
        -0.028769632801413536,
        -0.0273036640137434,
        -0.025837697088718414,
        -0.02437172830104828,
        -0.022905759513378143,
        -0.021439790725708008,
        -0.019973821938037872,
        -0.018507853150367737,
        -0.0170418843626976,
        -0.01557591650635004,
        -0.014109947718679905,
        -0.01264397893100977,
        -0.011178010143339634,
        -0.009712042286992073,
        -0.008246073499321938,
        -0.006780104711651802,
        -0.0053141359239816666,
        -0.0038481676019728184,
        -0.0023821990471333265,
        -0.0009162303758785129,
        0.0005497382371686399,
        0.0020157068502157927,
        0.0034816754050552845,
        0.00494764419272542,
        0.006413612514734268,
        0.007879581302404404,
        0.00934555009007454,
        0.0108115179464221,
        0.012277486734092236,
        0.013743455521762371,
        0.015209424309432507,
        0.016675392165780067,
        0.018141360953450203,
        0.01960732974112034,
        0.021073298528790474,
        0.02253926731646061,
        0.024005236104130745,
        0.02547120489180088,
        0.026937173679471016,
        0.028403140604496002,
        0.029869109392166138,
        0.03133507817983627,
        0.03280104696750641,
        0.034267015755176544,
        0.03573298454284668,
        0.037198953330516815,
        0.03866492211818695,
        0.040130890905857086,
        0.04159685969352722,
        0.04306282848119736,
        0.04452879726886749,
        0.04599476605653763,
        0.047460734844207764,
        0.0489266999065876,
        0.050392668694257736,
        0.05185863748192787,
        0.05332460626959801,
        0.05479057505726814,
        0.05625654384493828,
        0.057722512632608414,
        0.05918848142027855,
        0.060654450207948685,
        0.06212041899561882,
        0.06358638405799866,
        0.06505235284566879,
        0.06651832163333893,
        0.06798429042100906,
        0.0694502592086792,
        0.07091622799634933,
        0.07238219678401947,
        0.0738481655716896,
        0.07531413435935974,
        0.07678010314702988,
        0.07824607193470001,
        0.07971204072237015,
        0.08117800951004028,
        0.08264397829771042,
        0.08410994708538055,
        0.08557591587305069,
        0.08704188466072083,
        0.08850785344839096,
        0.0899738222360611,
        0.09143979102373123,
        0.09290575981140137,
        0.0943717285990715,
        0.09583769738674164,
        0.09730366617441177,
        0.09876963496208191,
        0.10023560374975204,
        0.10170157253742218,
        0.10316754132509232,
        0.10463351011276245,
        0.10609947890043259,
        0.10756544768810272,
        0.10903141647577286,
        0.110497385263443,
        0.11196335405111313,
        0.11342932283878326,
        0.1148952916264534,
        0.11636125296354294,
        0.11782722175121307,
        0.11929319053888321,
        0.12075915932655334,
        0.12222512811422348,
        0.12369109690189362,
        0.12515707314014435,
        0.1266230344772339,
        0.12808901071548462,
        0.12955497205257416,
        0.1310209482908249,
        0.13248690962791443,
        0.13395288586616516,
        0.1354188472032547,
        0.13688482344150543,
        0.13835078477859497,
        0.1398167610168457,
        0.14128272235393524,
        0.14274868369102478,
        0.1442146599292755,
        0.14568062126636505,
        0.14714659750461578,
        0.14861255884170532,
        0.15007853507995605,
        0.1515444964170456,
        0.15301047265529633,
        0.15447643399238586,
        0.1559424102306366,
        0.15740837156772614,
        0.15887434780597687,
        0.1603403091430664,
        0.16180628538131714,
        0.16327224671840668,
        0.1647382229566574,
        0.16620418429374695,
        0.16767016053199768,
        0.16913612186908722,
        0.17060209810733795,
        0.1720680594444275,
        0.17353403568267822,
        0.17499999701976776
      ]
    },
    "target_encoder.blocks.1.attn.qkv.bias": {
      "shape": [
        24
      ],
      "values": [
        -0.004999999888241291,
        -0.0015217391774058342,
        0.0019565217662602663,
        0.005434782709926367,
        0.008913043886423111,
        0.012391304597258568,
        0.015869565308094025,
        0.01934782601892948,
        0.02282608672976494,
        0.026304347440600395,
        0.029782608151435852,
        0.03326087072491646,
        0.036739129573106766,
        0.04021739214658737,
        0.04369565099477768,
        0.047173913568258286,
        0.05065217241644859,
        0.0541304349899292,
        0.05760869383811951,
        0.06108695641160011,
        0.06456521898508072,
        0.06804347783327103,
        0.07152173668146133,
        0.07500000298023224
      ]
    },
    "target_encoder.blocks.1.attn.out_proj.weight": {
      "shape": [
        8,
        8
      ],
      "values": [
        -0.06499999761581421,
        -0.06182539835572243,
        -0.05865079537034035,
        -0.05547618865966797,
        -0.05230158567428589,
        -0.04912698268890381,
        -0.04595237970352173,
        -0.04277777671813965,
        -0.03960317373275757,
        -0.03642857074737549,
        -0.03325396776199341,
        -0.030079364776611328,
        -0.026904761791229248,
        -0.023730158805847168,
        -0.020555555820465088,
        -0.017380952835083008,
        -0.014206348918378353,
        -0.011031745932996273,
        -0.007857142947614193,
        -0.004682539496570826,
        -0.0015079365111887455,
        0.0016666667070239782,
        0.004841269925236702,
        0.008015872910618782,
        0.011190475896000862,
        0.014365079812705517,
        0.017539681866765022,
        0.020714284852147102,
        0.02388888970017433,
        0.027063492685556412,
        0.030238095670938492,
        0.03341269865632057,
        0.03658730164170265,
        0.03976190462708473,
        0.04293650761246681,
        0.04611111059784889,
        0.04928571358323097,
        0.05246031656861305,
        0.05563491955399513,
        0.05880952253937721,
        0.06198412552475929,
        0.06515873223543167,
        0.06833333522081375,
        0.07150793820619583,
        0.07468254119157791,
        0.07785714417695999,
        0.08103174716234207,
        0.08420635014772415,
        0.08738095313310623,
        0.09055555611848831,
        0.09373015910387039,
        0.09690476208925247,
        0.10007936507463455,
        0.10325396806001663,
        0.10642857104539871,
        0.10960317403078079,
        0.11277777701616287,
        0.11595238000154495,
        0.11912698298692703,
        0.12230158597230911,
        0.1254761964082718,
        0.12865079939365387,
        0.13182540237903595,
        0.13500000536441803
      ]
    },
    "target_encoder.blocks.1.attn.out_proj.bias": {
      "shape": [
        8
      ],
      "values": [
        0.009999999776482582,
        0.017142856493592262,
        0.02428571507334709,
        0.03142857179045677,
        0.03857142850756645,
        0.04571428522467613,
        0.05285714194178581,
        0.05999999865889549
      ]
    },
    "target_encoder.blocks.1.norm2.gamma": {
      "shape": [
        8
      ],
      "values": [
        0.9350000023841858,
        0.9635714292526245,
        0.9921428561210632,
        1.020714282989502,
        1.0492857694625854,
        1.0778571367263794,
        1.106428623199463,
        1.1349999904632568
      ]
    },
    "target_encoder.blocks.1.norm2.beta": {
      "shape": [
        8
      ],
      "values": [
        0.009999999776482582,
        0.017142856493592262,
        0.02428571507334709,
        0.03142857179045677,
        0.03857142850756645,
        0.04571428522467613,
        0.05285714194178581,
        0.05999999865889549
      ]
    },
    "target_encoder.blocks.1.mlp.fc1.weight": {
      "shape": [
        8,
        16
      ],
      "values": [
        -0.08500000089406967,
        -0.08311023563146591,
        -0.08122047036886215,
        -0.07933070510625839,
        -0.07744094729423523,
        -0.07555118203163147,
        -0.07366141676902771,
        -0.07177165150642395,
        -0.06988188624382019,
        -0.06799212843179703,
        -0.06610236316919327,
        -0.06421259790658951,
        -0.06232283636927605,
        -0.06043307110667229,
        -0.05854330584406853,
        -0.056653544306755066,
        -0.054763779044151306,
        -0.052874017506837845,
        -0.050984252244234085,
        -0.049094486981630325,
        -0.047204725444316864,
        -0.045314960181713104,
        -0.04342519864439964,
        -0.04153543338179588,
        -0.03964566811919212,
        -0.03775590658187866,
        -0.0358661413192749,
        -0.03397637978196144,
        -0.03208661451935768,
        -0.03019685111939907,
        -0.02830708585679531,
        -0.0264173224568367,
        -0.02452755905687809,
        -0.02263779565691948,
        -0.02074803225696087,
        -0.01885826699435711,
        -0.0169685035943985,
        -0.015078740194439888,
        -0.013188976794481277,
        -0.011299212463200092,
        -0.009409449063241482,
        -0.007519685197621584,
        -0.005629921332001686,
        -0.0037401574663817883,
        -0.0018503937171772122,
        3.937007932108827e-05,
        0.0019291338976472616,
        0.003818897530436516,
        0.005708661396056414,
        0.0075984252616763115,
        0.009488188661634922,
        0.011377952992916107,
        0.013267716392874718,
        0.015157480724155903,
        0.01704724319279194,
        0.0189370084553957,
        0.02082677185535431,
        0.02271653525531292,
        0.02460629865527153,
        0.02649606391787529,
        0.0283858273178339,
        0.03027559071779251,
        0.03216535598039627,
        0.03405511751770973,
        0.03594488278031349,
        0.03783464431762695,
        0.03972440958023071,
        0.04161417484283447,
        0.043503936380147934,
        0.045393701642751694,
        0.047283463180065155,
        0.049173228442668915,
        0.051062993705272675,
        0.052952755242586136,
        0.054842520505189896,
        0.05673228204250336,
        0.05862204730510712,
        0.060511812567710876,
        0.06240157410502434,
        0.0642913356423378,
        0.06618110090494156,
        0.06807086616754532,
        0.06996063143014908,
        0.07185039669275284,
        0.073740154504776,
        0.07562991976737976,
        0.07751968502998352,
        0.07940945029258728,
        0.08129921555519104,
        0.0831889733672142,
        0.08507873862981796,
        0.08696850389242172,
        0.08885826915502548,
        0.09074803441762924,
        0.0926377922296524,
        0.09452755749225616,
        0.09641732275485992,
        0.09830708801746368,
        0.10019685328006744,
        0.1020866110920906,
        0.10397637635469437,
        0.10586614161729813,
        0.10775590687990189,
        0.10964567214250565,
        0.11153542995452881,
        0.11342519521713257,
        0.11531496047973633,
        0.11720472574234009,
        0.11909449100494385,
        0.12098424881696701,
        0.12287401407957077,
        0.12476377934217453,
        0.1266535371541977,
        0.12854330241680145,
        0.1304330676794052,
        0.13232283294200897,
        0.13421259820461273,
        0.1361023634672165,
        0.13799212872982025,
        0.139881893992424,
        0.14177165925502777,
        0.14366142451763153,
        0.1455511748790741,
        0.14744094014167786,
        0.14933070540428162,
        0.15122047066688538,
        0.15311023592948914,
        0.1550000011920929
      ]
    },
    "target_encoder.blocks.1.mlp.fc1.bias": {
      "shape": [
        16
      ],
      "values": [
        0.004999999888241291,
        0.008999999612569809,
        0.013000000268220901,
        0.017000000923871994,
        0.020999999716877937,
        0.02500000037252903,
        0.028999999165534973,
        0.032999999821186066,
        0.03700000047683716,
        0.04100000113248825,
        0.04500000178813934,
        0.04899999871850014,
        0.05299999937415123,
        0.05700000002980232,
        0.061000000685453415,
        0.06499999761581421
      ]
    },
    "target_encoder.blocks.1.mlp.fc2.weight": {
      "shape": [
        16,
        8
      ],
      "values": [
        -0.054999999701976776,
        -0.053582675755023956,
        -0.052165355533361435,
        -0.050748031586408615,
        -0.049330707639455795,
        -0.047913387417793274,
        -0.046496063470840454,
        -0.045078739523887634,
        -0.043661415576934814,
        -0.04224409535527229,
        -0.04082677140831947,
        -0.03940944746136665,
        -0.03799212723970413,
        -0.03657480329275131,
        -0.03515747934579849,
        -0.03374015912413597,
        -0.03232283517718315,
        -0.03090551123023033,
        -0.02948818914592266,
        -0.02807086706161499,
        -0.02665354311466217,
        -0.0252362210303545,
        -0.02381889708340168,
        -0.02240157499909401,
        -0.02098425105214119,
        -0.01956692896783352,
        -0.01814960688352585,
        -0.01673228293657303,
        -0.015314960852265358,
        -0.013897637836635113,
        -0.012480314821004868,
        -0.011062991805374622,
        -0.009645669721066952,
        -0.008228346705436707,
        -0.006811023689806461,
        -0.005393700674176216,
        -0.003976378124207258,
        -0.002559055108577013,
        -0.0011417323257774115,
        0.00027559054433368146,
        0.0016929133562371135,
        0.003110236255452037,
        0.004527559038251638,
        0.005944882053881884,
        0.0073622046038508415,
        0.008779527619481087,
        0.010196850635111332,
        0.011614173650741577,
        0.013031495735049248,
        0.014448818750679493,
        0.015866141766309738,
        0.01728346385061741,
        0.01870078779757023,
        0.0201181098818779,
        0.02153543382883072,
        0.02295275591313839,
        0.02437007799744606,
        0.02578740194439888,
        0.02720472402870655,
        0.02862204797565937,
        0.03003937005996704,
        0.03145669400691986,
        0.03287401422858238,
        0.0342913381755352,
        0.03570866212248802,
        0.03712598606944084,
        0.03854330629110336,
        0.03996063023805618,
        0.041377954185009,
        0.042795274406671524,
        0.044212598353624344,
        0.045629922300577164,
        0.047047242522239685,
        0.048464566469192505,
        0.049881890416145325,
        0.051299214363098145,
        0.052716534584760666,
        0.054133858531713486,
        0.055551182478666306,
        0.05696850270032883,
        0.05838582664728165,
        0.05980315059423447,
        0.06122047081589699,
        0.0626377984881401,
        0.06405511498451233,
        0.06547243893146515,
        0.06688976287841797,
        0.06830708682537079,
        0.06972441077232361,
        0.07114173471927643,
        0.07255905866622925,
        0.07397637516260147,
        0.07539369910955429,
        0.07681102305650711,
        0.07822834700345993,
        0.07964567095041275,
        0.08106299489736557,
        0.08248031139373779,
        0.08389763534069061,
        0.08531495928764343,
        0.08673228323459625,
        0.08814960718154907,
        0.08956693112850189,
        0.09098425507545471,
        0.09240157157182693,
        0.09381889551877975,
        0.09523621946573257,
        0.0966535434126854,
        0.09807086735963821,
        0.09948819130659103,
        0.10090551525354385,
        0.10232283174991608,
        0.1037401556968689,
        0.10515747964382172,
        0.10657480359077454,
        0.10799212753772736,
        0.10940945148468018,
        0.1108267679810524,
        0.11224409192800522,
        0.11366141587495804,
        0.11507873982191086,
        0.11649606376886368,
        0.1179133877158165,
        0.11933071166276932,
        0.12074802815914154,
        0.12216535210609436,
        0.12358267605304718,
        0.125
      ]
    },
    "target_encoder.blocks.1.mlp.fc2.bias": {
      "shape": [
        8
      ],
      "values": [
        0.014999999664723873,
        0.020714284852147102,
        0.026428570970892906,
        0.03214285895228386,
        0.037857141345739365,
        0.04357142746448517,
        0.04928571358323097,
        0.054999999701976776
      ]
    },
    "predictor.input_proj.weight": {
      "shape": [
        8,
        8
      ],
      "values": [
        -0.0949999988079071,
        -0.09182539582252502,
        -0.08865079283714294,
        -0.08547618985176086,
        -0.08230158686637878,
        -0.0791269838809967,
        -0.07595238089561462,
        -0.07277777791023254,
        -0.06960317492485046,
        -0.06642857193946838,
        -0.0632539689540863,
        -0.060079365968704224,
        -0.056904762983322144,
        -0.053730159997940063,
        -0.05055555701255798,
        -0.0473809540271759,
        -0.04420635104179382,
        -0.041031744331121445,
        -0.037857141345739365,
        -0.034682538360357285,
        -0.031507935374975204,
        -0.028333334252238274,
        -0.025158729404211044,
        -0.021984126418828964,
        -0.018809523433446884,
        -0.015634920448064804,
        -0.012460317462682724,
        -0.009285714477300644,
        -0.0061111110262572765,
        -0.0029365080408751965,
        0.0002380952355451882,
        0.003412698395550251,
        0.006587301380932331,
        0.009761904366314411,
        0.012936508283019066,
        0.016111111268401146,
        0.019285714253783226,
        0.022460317239165306,
        0.025634920224547386,
        0.028809523209929466,
        0.031984128057956696,
        0.035158731043338776,
        0.038333334028720856,
        0.041507937014102936,
        0.044682539999485016,
        0.047857142984867096,
        0.051031745970249176,
        0.054206348955631256,
        0.057380951941013336,
        0.060555554926395416,
        0.0637301579117775,
        0.06690476089715958,
        0.07007936388254166,
        0.07325396686792374,
        0.07642856985330582,
        0.0796031728386879,
        0.08277777582406998,
        0.08595237880945206,
        0.08912698179483414,
        0.09230158478021622,
        0.0954761877655983,
        0.09865079075098038,
        0.10182539373636246,
        0.10499999672174454
      ]
    },
    "predictor.input_proj.bias": {
      "shape": [
        8
      ],
      "values": [
        -0.019999999552965164,
        -0.012857142835855484,
        -0.0057142856530845165,
        0.0014285714132711291,
        0.008571428246796131,
        0.015714285895228386,
        0.022857142612338066,
        0.029999999329447746
      ]
    },
    "predictor.norm.gamma": {
      "shape": [
        8
      ],
      "values": [
        0.9549999833106995,
        0.9692857265472412,
        0.9835714101791382,
        0.9978571534156799,
        1.0121428966522217,
        1.0264285802841187,
        1.0407142639160156,
        1.0549999475479126
      ]
    },
    "predictor.norm.beta": {
      "shape": [
        8
      ],
      "values": [
        -0.014999999664723873,
        -0.009285714477300644,
        -0.0035714285913854837,
        0.002142857061699033,
        0.007857142947614193,
        0.013571428135037422,
        0.019285714253783226,
        0.02500000037252903
      ]
    },
    "predictor.output_proj.weight": {
      "shape": [
        8,
        8
      ],
      "values": [
        -0.08500000089406967,
        -0.08214285969734192,
        -0.07928571105003357,
        -0.07642856985330582,
        -0.07357142865657806,
        -0.07071428745985031,
        -0.06785714626312256,
        -0.06499999761581421,
        -0.062142856419086456,
        -0.059285715222358704,
        -0.05642857030034065,
        -0.0535714291036129,
        -0.05071428418159485,
        -0.047857142984867096,
        -0.04500000178813934,
        -0.04214285686612129,
        -0.03928571566939354,
        -0.03642857074737549,
        -0.033571429550647736,
        -0.030714286491274834,
        -0.027857143431901932,
        -0.02500000037252903,
        -0.022142857313156128,
        -0.019285714253783226,
        -0.016428571194410324,
        -0.013571428135037422,
        -0.010714286006987095,
        -0.007857142947614193,
        -0.004999999888241291,
        -0.002142857061699033,
        0.0007142857066355646,
        0.0035714285913854837,
        0.006428571417927742,
        0.009285714477300644,
        0.012142857536673546,
        0.014999999664723873,
        0.01785714365541935,
        0.020714284852147102,
        0.023571427911520004,
        0.026428570970892906,
        0.029285714030265808,
        0.03214285895228386,
        0.03500000014901161,
        0.037857141345739365,
        0.040714286267757416,
        0.04357142746448517,
        0.04642857238650322,
        0.04928571358323097,
        0.05214285850524902,
        0.054999999701976776,
        0.05785714462399483,
        0.06071428582072258,
        0.06357143074274063,
        0.06642857193946838,
        0.06928571313619614,
        0.07214285433292389,
        0.07500000298023224,
        0.07785714417695999,
        0.08071428537368774,
        0.0835714265704155,
        0.08642856776714325,
        0.0892857164144516,
        0.09214285761117935,
        0.0949999988079071
      ]
    },
    "predictor.output_proj.bias": {
      "shape": [
        8
      ],
      "values": [
        -0.014999999664723873,
        -0.009285714477300644,
        -0.0035714285913854837,
        0.002142857061699033,
        0.007857142947614193,
        0.013571428135037422,
        0.019285714253783226,
        0.02500000037252903
      ]
    },
    "predictor.blocks.0.norm1.gamma": {
      "shape": [
        8
      ],
      "values": [
        0.8849999904632568,
        0.9135714173316956,
        0.9421428442001343,
        0.970714271068573,
        0.9992856979370117,
        1.0278571844100952,
        1.0564285516738892,
        1.0850000381469727
      ]
    },
    "predictor.blocks.0.norm1.beta": {
      "shape": [
        8
      ],
      "values": [
        -0.02500000037252903,
        -0.016428571194410324,
        -0.007857142947614193,
        0.0007142857066355646,
        0.009285714477300644,
        0.01785714365541935,
        0.026428570970892906,
        0.03500000014901161
      ]
    },
    "predictor.blocks.0.attn.qkv.weight": {
      "shape": [
        8,
        24
      ],
      "values": [
        -0.13500000536441803,
        -0.1335340291261673,
        -0.13206806778907776,
        -0.13060209155082703,
        -0.1291361302137375,
        -0.12767015397548676,
        -0.12620419263839722,
        -0.12473821640014648,
        -0.12327224761247635,
        -0.12180628627538681,
        -0.12034031748771667,
        -0.11887434870004654,
        -0.1174083799123764,
        -0.11594241112470627,
        -0.11447644233703613,
        -0.113010473549366,
        -0.11154450476169586,
        -0.11007853597402573,
        -0.10861256718635559,
        -0.10714659839868546,
        -0.10568062961101532,
        -0.10421466082334518,
        -0.10274869203567505,
        -0.10128272324800491,
        -0.09981675446033478,
        -0.09835078567266464,
        -0.0968848168849945,
        -0.09541884809732437,
        -0.09395287930965424,
        -0.0924869105219841,
        -0.09102094173431396,
        -0.08955497294664383,
        -0.0880890041589737,
        -0.08662303537130356,
        -0.08515706658363342,
        -0.08369109779596329,
        -0.08222512900829315,
        -0.08075916022062302,
        -0.07929319143295288,
        -0.07782722264528275,
        -0.07636125385761261,
        -0.07489528506994247,
        -0.07342931628227234,
        -0.0719633474946022,
        -0.07049737870693207,
        -0.06903140991926193,
        -0.0675654485821724,
        -0.06609947979450226,
        -0.06463351100683212,
        -0.06316754221916199,
        -0.06170156970620155,
        -0.06023560091853142,
        -0.05876963213086128,
        -0.05730366334319115,
        -0.05583769455552101,
        -0.054371729493141174,
        -0.05290576070547104,
        -0.0514397919178009,
        -0.04997382313013077,
        -0.04850785434246063,
        -0.0470418855547905,
        -0.04557591676712036,
        -0.044109947979450226,
        -0.04264397919178009,
        -0.041178010404109955,
        -0.03971204161643982,
        -0.038246072828769684,
        -0.03678010404109955,
        -0.03531413525342941,
        -0.03384816646575928,
        -0.03238219767808914,
        -0.030916230753064156,
        -0.02945026196539402,
        -0.027984293177723885,
        -0.02651832439005375,
        -0.025052355602383614,
        -0.023586386814713478,
        -0.022120418027043343,
        -0.020654451102018356,
        -0.01918848231434822,
        -0.017722513526678085,
        -0.01625654473900795,
        -0.014790575951337814,
        -0.013324607163667679,
        -0.011858638375997543,
        -0.010392670519649982,
        -0.008926701731979847,
        -0.0074607329443097115,
        -0.005994764622300863,
        -0.004528795834630728,
        -0.003062827279791236,
        -0.0015968586085364223,
        -0.0001308900536969304,
        0.0013350785011425614,
        0.002801047172397375,
        0.004267015494406223,
        0.005732984282076359,
        0.007198953069746494,
        0.00866492185741663,
        0.01013088971376419,
        0.011596858501434326,
        0.013062827289104462,
        0.014528796076774597,
        0.015994764864444733,
        0.017460733652114868,
        0.018926702439785004,
        0.02039266936480999,
        0.021858638152480125,
        0.02332460694015026,
        0.024790575727820396,
        0.026256544515490532,
        0.027722513303160667,
        0.029188482090830803,
        0.03065445087850094,
        0.032120417803525925,
        0.03358638659119606,
        0.035052355378866196,
        0.03651832416653633,
        0.03798429295420647,
        0.0394502617418766,
        0.04091623052954674,
        0.04238219931721687,
        0.04384816810488701,
        0.045314136892557144,
        0.04678010568022728,
        0.048246074467897415,
        0.04971204325556755,
        0.051178012043237686,
        0.05264398083090782,
        0.05410994589328766,
        0.055575914680957794,
        0.05704188346862793,
        0.058507852256298065,
        0.0599738210439682,
        0.061439789831638336,
        0.06290575861930847,
        0.06437172740697861,
        0.06583769619464874,
        0.06730366498231888,
        0.06876963376998901,
        0.07023560255765915,
        0.07170157134532928,
        0.07316754013299942,
        0.07463350892066956,
        0.07609947770833969,
        0.07756544649600983,
        0.07903141528367996,
        0.0804973840713501,
        0.08196335285902023,
        0.08342932164669037,
        0.0848952904343605,
        0.08636125922203064,
        0.08782722800970078,
        0.08929319679737091,
        0.09075916558504105,
        0.09222513437271118,
        0.09369110316038132,
        0.09515706449747086,
        0.09662303328514099,
        0.09808900207281113,
        0.09955497086048126,
        0.1010209396481514,
        0.10248690843582153,
        0.10395287722349167,
        0.1054188460111618,
        0.10688481479883194,
        0.10835078358650208,
        0.10981675237417221,
        0.11128272116184235,
        0.11274868994951248,
        0.11421465873718262,
        0.11568062752485275,
        0.11714659631252289,
        0.11861256510019302,
        0.12007853388786316,
        0.1215445026755333,
        0.12301047146320343,
        0.12447644025087357,
        0.1259424090385437,
        0.12740837037563324,
        0.12887434661388397,
        0.1303403079509735,
        0.13180628418922424,
        0.13327224552631378,
        0.13473822176456451,
        0.13620418310165405,
        0.13767015933990479,
        0.13913612067699432,
        0.14060209691524506,
        0.1420680582523346,
        0.14353403449058533,
        0.14499999582767487
      ]
    },
    "predictor.blocks.0.attn.qkv.bias": {
      "shape": [
        24
      ],
      "values": [
        -0.03500000014901161,
        -0.031521737575531006,
        -0.028043478727340698,
        -0.02456521801650524,
        -0.021086957305669785,
        -0.01760869473218918,
        -0.014130434952676296,
        -0.01065217424184084,
        -0.007173913065344095,
        -0.0036956521216779947,
        -0.00021739130897913128,
        0.0032608695328235626,
        0.0067391302436590195,
        0.010217390954494476,
        0.013695652596652508,
        0.01717391237616539,
        0.020652173087000847,
        0.024130435660481453,
        0.02760869637131691,
        0.031086957082152367,
        0.034565217792987823,
        0.03804347664117813,
        0.04152173921465874,
        0.04500000178813934
      ]
    },
    "predictor.blocks.0.attn.out_proj.weight": {
      "shape": [
        8,
        8
      ],
      "values": [
        -0.0949999988079071,
        -0.09182539582252502,
        -0.08865079283714294,
        -0.08547618985176086,
        -0.08230158686637878,
        -0.0791269838809967,
        -0.07595238089561462,
        -0.07277777791023254,
        -0.06960317492485046,
        -0.06642857193946838,
        -0.0632539689540863,
        -0.060079365968704224,
        -0.056904762983322144,
        -0.053730159997940063,
        -0.05055555701255798,
        -0.0473809540271759,
        -0.04420635104179382,
        -0.041031744331121445,
        -0.037857141345739365,
        -0.034682538360357285,
        -0.031507935374975204,
        -0.028333334252238274,
        -0.025158729404211044,
        -0.021984126418828964,
        -0.018809523433446884,
        -0.015634920448064804,
        -0.012460317462682724,
        -0.009285714477300644,
        -0.0061111110262572765,
        -0.0029365080408751965,
        0.0002380952355451882,
        0.003412698395550251,
        0.006587301380932331,
        0.009761904366314411,
        0.012936508283019066,
        0.016111111268401146,
        0.019285714253783226,
        0.022460317239165306,
        0.025634920224547386,
        0.028809523209929466,
        0.031984128057956696,
        0.035158731043338776,
        0.038333334028720856,
        0.041507937014102936,
        0.044682539999485016,
        0.047857142984867096,
        0.051031745970249176,
        0.054206348955631256,
        0.057380951941013336,
        0.060555554926395416,
        0.0637301579117775,
        0.06690476089715958,
        0.07007936388254166,
        0.07325396686792374,
        0.07642856985330582,
        0.0796031728386879,
        0.08277777582406998,
        0.08595237880945206,
        0.08912698179483414,
        0.09230158478021622,
        0.0954761877655983,
        0.09865079075098038,
        0.10182539373636246,
        0.10499999672174454
      ]
    },
    "predictor.blocks.0.attn.out_proj.bias": {
      "shape": [
        8
      ],
      "values": [
        -0.019999999552965164,
        -0.012857142835855484,
        -0.0057142856530845165,
        0.0014285714132711291,
        0.008571428246796131,
        0.015714285895228386,
        0.022857142612338066,
        0.029999999329447746
      ]
    },
    "predictor.blocks.0.norm2.gamma": {
      "shape": [
        8
      ],
      "values": [
        0.9049999713897705,
        0.933571457862854,
        0.9621428847312927,
        0.9907143115997314,
        1.0192856788635254,
        1.0478571653366089,
        1.0764285326004028,
        1.1050000190734863
      ]
    },
    "predictor.blocks.0.norm2.beta": {
      "shape": [
        8
      ],
      "values": [
        -0.019999999552965164,
        -0.012857142835855484,
        -0.0057142856530845165,
        0.0014285714132711291,
        0.008571428246796131,
        0.015714285895228386,
        0.022857142612338066,
        0.029999999329447746
      ]
    },
    "predictor.blocks.0.mlp.fc1.weight": {
      "shape": [
        8,
        32
      ],
      "values": [
        -0.11500000208616257,
        -0.11405882239341736,
        -0.11311765015125275,
        -0.11217647045850754,
        -0.11123529076576233,
        -0.11029411852359772,
        -0.10935293883085251,
        -0.1084117665886879,
        -0.10747058689594269,
        -0.10652941465377808,
        -0.10558823496103287,
        -0.10464705526828766,
        -0.10370588302612305,
        -0.10276470333337784,
        -0.10182353109121323,
        -0.10088235139846802,
        -0.0999411791563034,
        -0.0989999994635582,
        -0.09805882722139359,
        -0.09711764752864838,
        -0.09617646783590317,
        -0.09523529559373856,
        -0.09429411590099335,
        -0.09335294365882874,
        -0.09241176396608353,
        -0.09147059172391891,
        -0.0905294120311737,
        -0.0895882323384285,
        -0.08864706009626389,
        -0.08770588040351868,
        -0.08676470816135406,
        -0.08582352846860886,
        -0.08488235622644424,
        -0.08394117653369904,
        -0.08299999684095383,
        -0.08205882459878922,
        -0.081117644906044,
        -0.0801764726638794,
        -0.07923529297113419,
        -0.07829412072896957,
        -0.07735294103622437,
        -0.07641176134347916,
        -0.07547058910131454,
        -0.07452940940856934,
        -0.07358823716640472,
        -0.07264705747365952,
        -0.0717058852314949,
        -0.0707647055387497,
        -0.06982352584600449,
        -0.06888235360383987,
        -0.06794117391109467,
        -0.06700000166893005,
        -0.06605882197618484,
        -0.06511764973402023,
        -0.06417647004127502,
        -0.06323529779911041,
        -0.062294118106365204,
        -0.061352942138910294,
        -0.06041176617145538,
        -0.059470586478710175,
        -0.058529410511255264,
        -0.057588234543800354,
        -0.056647058576345444,
        -0.05570588260889053,
        -0.05476470664143562,
        -0.05382353067398071,
        -0.0528823547065258,
        -0.051941175013780594,
        -0.050999999046325684,
        -0.05005882307887077,
        -0.04911764711141586,
        -0.04817647114396095,
