{
  "metadata": {
    "name": "ijepa-strict-image-rgb-patch24-v1",
    "generator": "specs/differential/export_ijepa_strict_fixture.py",
    "reference_repo": "facebookresearch/ijepa",
    "reference_note": "Strict image-path parity fixture covering RGB input, asymmetric 2x4 patches, and a predictor that projects from 8 encoder dims into 12 predictor dims.",
    "abs_tolerance": 2e-05,
    "rel_tolerance": 2e-05
  },
  "config": {
    "encoder": {
      "in_channels": 3,
      "image_height": 8,
      "image_width": 8,
      "patch_size": [
        2,
        4
      ],
      "embed_dim": 8,
      "num_layers": 1,
      "num_heads": 2,
      "mlp_dim": 24,
      "dropout": 0.0
    },
    "predictor": {
      "encoder_embed_dim": 8,
      "predictor_embed_dim": 12,
      "num_layers": 1,
      "num_heads": 3,
      "max_target_len": 8
    }
  },
  "weights": {
    "context_encoder.patch_embed.projection.weight": {
      "shape": [
        24,
        8
      ],
      "values": [
        -0.12999999523162842,
        -0.12874345481395721,
        -0.127486914396286,
        -0.1262303590774536,
        -0.12497381865978241,
        -0.1237172782421112,
        -0.1224607303738594,
        -0.1212041899561882,
        -0.1199476420879364,
        -0.1186911016702652,
        -0.1174345538020134,
        -0.1161780133843422,
        -0.1149214655160904,
        -0.11366492509841919,
        -0.11240837723016739,
        -0.11115182936191559,
        -0.10989528894424438,
        -0.10863874107599258,
        -0.10738220065832138,
        -0.10612565279006958,
        -0.10486911237239838,
        -0.10361256450414658,
        -0.10235602408647537,
        -0.10109947621822357,
        -0.09984292834997177,
        -0.09858638793230057,
        -0.09732984006404877,
        -0.09607329964637756,
        -0.09481675177812576,
        -0.09356021136045456,
        -0.09230366349220276,
        -0.09104712307453156,
        -0.08979057520627975,
        -0.08853403478860855,
        -0.08727748692035675,
        -0.08602093905210495,
        -0.08476439863443375,
        -0.08350785076618195,
        -0.08225131034851074,
        -0.08099476248025894,
        -0.07973822206258774,
        -0.07848167419433594,
        -0.07722513377666473,
        -0.07596858590841293,
        -0.07471204549074173,
        -0.07345549762248993,
        -0.07219894975423813,
        -0.07094240933656693,
        -0.06968586146831512,
        -0.06842932105064392,
        -0.06717277318239212,
        -0.06591623276472092,
        -0.06465968489646912,
        -0.06340314447879791,
        -0.06214659661054611,
        -0.06089005246758461,
        -0.05963350832462311,
        -0.058376964181661606,
        -0.057120420038700104,
        -0.0558638758957386,
        -0.0546073280274868,
        -0.0533507838845253,
        -0.0520942397415638,
        -0.050837695598602295,
        -0.04958115145564079,
        -0.04832460731267929,
        -0.04706806316971779,
        -0.04581151902675629,
        -0.044554974883794785,
        -0.04329843074083328,
        -0.04204188659787178,
        -0.04078533872961998,
        -0.03952879458665848,
        -0.038272250443696976,
        -0.037015706300735474,
        -0.03575916215777397,
        -0.03450261801481247,
        -0.03324607387185097,
        -0.031989529728889465,
        -0.030732983723282814,
        -0.029476439580321312,
        -0.02821989543735981,
        -0.026963351294398308,
        -0.025706807151436806,
        -0.024450261145830154,
        -0.023193717002868652,
        -0.02193717285990715,
        -0.020680628716945648,
        -0.019424084573984146,
        -0.018167538568377495,
        -0.016910994425415993,
        -0.01565445028245449,
        -0.014397906139492989,
        -0.013141361065208912,
        -0.01188481692224741,
        -0.010628271847963333,
        -0.009371727705001831,
        -0.008115183562040329,
        -0.00685863895341754,
        -0.00560209434479475,
        -0.004345549736171961,
        -0.0030890051275491714,
        -0.0018324607517570257,
        -0.0005759162013418972,
        0.0006806282908655703,
        0.001937172724865377,
        0.0031937172170728445,
        0.00445026159286499,
        0.00570680620148778,
        0.006963350810110569,
        0.008219894953072071,
        0.009476440027356148,
        0.01073298417031765,
        0.011989529244601727,
        0.013246073387563229,
        0.01450261753052473,
        0.015759162604808807,
        0.01701570674777031,
        0.01827225089073181,
        0.019528795033693314,
        0.020785341039299965,
        0.022041885182261467,
        0.02329842932522297,
        0.02455497346818447,
        0.025811517611145973,
        0.027068063616752625,
        0.028324607759714127,
        0.02958115190267563,
        0.03083769604563713,
        0.03209424018859863,
        0.033350784331560135,
        0.03460732847452164,
        0.03586387261748314,
        0.03712042048573494,
        0.03837696462869644,
        0.039633508771657944,
        0.040890052914619446,
        0.04214659705758095,
        0.04340314120054245,
        0.04465968534350395,
        0.045916229486465454,
        0.047172773629426956,
        0.04842931777238846,
        0.04968586564064026,
        0.05094240978360176,
        0.05219895392656326,
        0.053455498069524765,
        0.05471204221248627,
        0.05596858635544777,
        0.05722513049840927,
        0.05848167464137077,
        0.059738218784332275,
        0.06099476292729378,
        0.06225130707025528,
        0.06350785493850708,
        0.06476439535617828,
        0.06602094322443008,
        0.06727748364210129,
        0.06853403151035309,
        0.06979057937860489,
        0.07104711979627609,
        0.0723036676645279,
        0.0735602080821991,
        0.0748167559504509,
        0.0760732963681221,
        0.0773298442363739,
        0.0785863846540451,
        0.0798429325222969,
        0.08109947293996811,
        0.08235602080821991,
        0.08361256867647171,
        0.08486910909414291,
        0.08612565696239471,
        0.08738219738006592,
        0.08863874524831772,
        0.08989528566598892,
        0.09115183353424072,
        0.09240837395191193,
        0.09366492182016373,
        0.09492146968841553,
        0.09617801010608673,
        0.09743455797433853,
        0.09869109839200974,
        0.09994764626026154,
        0.10120418667793274,
        0.10246073454618454,
        0.10371727496385574,
        0.10497382283210754,
        0.10623036324977875,
        0.10748691111803055,
        0.10874345898628235,
        0.10999999940395355
      ]
    },
    "context_encoder.patch_embed.projection.bias": {
      "shape": [
        8
      ],
      "values": [
        -0.03999999910593033,
        -0.03142857179045677,
        -0.022857142612338066,
        -0.014285714365541935,
        -0.0057142856530845165,
        0.0028571428265422583,
        0.011428571306169033,
        0.019999999552965164
      ]
    },
    "context_encoder.norm.gamma": {
      "shape": [
        8
      ],
      "values": [
        0.9300000071525574,
        0.9471428394317627,
        0.9642857313156128,
        0.9814285635948181,
        0.9985714554786682,
        1.0157142877578735,
        1.0328571796417236,
        1.0499999523162842
      ]
    },
    "context_encoder.norm.beta": {
      "shape": [
        8
      ],
      "values": [
        -0.03500000014901161,
        -0.027857143431901932,
        -0.020714284852147102,
        -0.013571428135037422,
        -0.006428571417927742,
        0.0007142857066355646,
        0.007857142947614193,
        0.014999999664723873
      ]
    },
    "context_encoder.blocks.0.norm1.gamma": {
      "shape": [
        8
      ],
      "values": [
        0.8700000047683716,
        0.8985714316368103,
        0.927142858505249,
        0.9557142853736877,
        0.9842857122421265,
        1.01285719871521,
        1.041428565979004,
        1.0700000524520874
      ]
    },
    "context_encoder.blocks.0.norm1.beta": {
      "shape": [
        8
      ],
      "values": [
        -0.03999999910593033,
        -0.03142857179045677,
        -0.022857142612338066,
        -0.014285714365541935,
        -0.0057142856530845165,
        0.0028571428265422583,
        0.011428571306169033,
        0.019999999552965164
      ]
    },
    "context_encoder.blocks.0.attn.qkv.weight": {
      "shape": [
        8,
        24
      ],
      "values": [
        -0.15000000596046448,
        -0.14853402972221375,
        -0.1470680683851242,
        -0.14560209214687347,
        -0.14413613080978394,
        -0.1426701545715332,
        -0.14120419323444366,
        -0.13973821699619293,
        -0.1382722556591034,
        -0.13680627942085266,
        -0.13534031808376312,
        -0.1338743418455124,
        -0.13240838050842285,
        -0.13094240427017212,
        -0.12947644293308258,
        -0.12801046669483185,
        -0.1265445053577423,
        -0.12507852911949158,
        -0.12361256778240204,
        -0.1221465989947319,
        -0.12068063020706177,
        -0.11921466141939163,
        -0.1177486926317215,
        -0.11628272384405136,
        -0.11481675505638123,
        -0.11335078626871109,
        -0.11188481748104095,
        -0.11041884869337082,
        -0.10895287990570068,
        -0.10748691111803055,
        -0.10602094233036041,
        -0.10455497354269028,
        -0.10308900475502014,
        -0.10162303596735,
        -0.10015706717967987,
        -0.09869109839200974,
        -0.0972251296043396,
        -0.09575916081666946,
        -0.09429319202899933,
        -0.0928272232413292,
        -0.09136125445365906,
        -0.08989528566598892,
        -0.08842931687831879,
        -0.08696334809064865,
        -0.08549737930297852,
        -0.08403141051530838,
        -0.08256544172763824,
        -0.08109947293996811,
        -0.07963350415229797,
        -0.07816754281520844,
        -0.0767015740275383,
        -0.07523560523986816,
        -0.07376963645219803,
        -0.0723036676645279,
        -0.07083769887685776,
        -0.06937173008918762,
        -0.06790576130151749,
        -0.06643979251384735,
        -0.06497382372617722,
        -0.06350785493850708,
        -0.062041886150836945,
        -0.06057591736316681,
        -0.059109948575496674,
        -0.05764397978782654,
        -0.0561780110001564,
        -0.05471204221248627,
        -0.05324607342481613,
        -0.051780104637145996,
        -0.05031413584947586,
        -0.048848167061805725,
        -0.04738219827413559,
        -0.045916229486465454,
        -0.04445026069879532,
        -0.04298429191112518,
        -0.04151832312345505,
        -0.04005235433578491,
        -0.038586389273405075,
        -0.03712042048573494,
        -0.035654451698064804,
        -0.03418848291039467,
        -0.03272251412272453,
        -0.0312565453350544,
        -0.029790576547384262,
        -0.028324607759714127,
        -0.02685863897204399,
        -0.025392670184373856,
        -0.02392670139670372,
        -0.022460732609033585,
        -0.02099476382136345,
        -0.019528795033693314,
        -0.018062828108668327,
        -0.016596859320998192,
        -0.015130889602005482,
        -0.01366492174565792,
        -0.012198952957987785,
        -0.01073298417031765,
        -0.009267015382647514,
        -0.007801047060638666,
        -0.006335078738629818,
        -0.0048691099509596825,
        -0.0034031413961201906,
        -0.001937172724865377,
        -0.00047120419912971556,
        0.0009947643848136067,
        0.0024607330560684204,
        0.003926701378077269,
        0.005392670165747404,
        0.00685863895341754,
        0.008324607275426388,
        0.009790576063096523,
        0.011256544850766659,
        0.01272251270711422,
        0.014188481494784355,
        0.01565445028245449,
        0.017120419070124626,
        0.01858638785779476,
        0.020052356645464897,
        0.021518325433135033,
        0.02298429235816002,
        0.024450261145830154,
        0.02591622993350029,
        0.027382198721170425,
        0.02884816750884056,
        0.030314136296510696,
        0.03178010508418083,
        0.03324607387185097,
        0.0347120426595211,
        0.03617801144719124,
        0.037643980234861374,
        0.03910994902253151,
        0.040575917810201645,
        0.04204188659787178,
        0.04350785166025162,
        0.04497382044792175,
        0.04643978923559189,
        0.047905758023262024,
        0.04937172681093216,
        0.050837695598602295,
        0.05230366438627243,
        0.053769633173942566,
        0.0552356019616127,
        0.05670157074928284,
        0.05816753953695297,
        0.05963350832462311,
        0.06109947711229324,
        0.06256544589996338,
        0.06403141468763351,
        0.06549738347530365,
        0.06696335226297379,
        0.06842932105064392,
        0.06989528983831406,
        0.07136125862598419,
        0.07282722741365433,
        0.07429319620132446,
        0.0757591649889946,
        0.07722513377666473,
        0.07869110256433487,
        0.080157071352005,
        0.08162304013967514,
        0.08308900892734528,
        0.08455497026443481,
        0.08602093905210495,
        0.08748690783977509,
        0.08895287662744522,
        0.09041884541511536,
        0.09188481420278549,
        0.09335078299045563,
        0.09481675177812576,
        0.0962827205657959,
        0.09774868935346603,
        0.09921465814113617,
        0.1006806269288063,
        0.10214659571647644,
        0.10361256450414658,
        0.10507853329181671,
        0.10654450207948685,
        0.10801047086715698,
        0.10947643965482712,
        0.11094240844249725,
        0.11240837723016739,
        0.11387434601783752,
        0.11534031480550766,
        0.1168062835931778,
        0.11827225238084793,
        0.11973822116851807,
        0.1212041899561882,
        0.12267015874385834,
        0.12413612753152847,
        0.1256020963191986,
        0.12706805765628815,
        0.12853403389453888,
        0.12999999523162842
      ]
    },
    "context_encoder.blocks.0.attn.qkv.bias": {
      "shape": [
        24
      ],
      "values": [
        -0.05000000074505806,
        -0.046521738171577454,
        -0.043043479323387146,
        -0.03956521674990654,
        -0.03608695790171623,
        -0.032608695328235626,
        -0.02913043461740017,
        -0.025652173906564713,
        -0.022173913195729256,
        -0.0186956524848938,
        -0.015217390842735767,
        -0.01173913013190031,
        -0.008260869421064854,
        -0.004782608710229397,
        -0.0013043478829786181,
        0.0021739129442721605,
        0.005652173887938261,
        0.009130435064435005,
        0.012608695775270462,
        0.01608695648610592,
        0.019565217196941376,
        0.023043477907776833,
        0.02652173861861229,
        0.029999999329447746
      ]
    },
    "context_encoder.blocks.0.attn.out_proj.weight": {
      "shape": [
        8,
        8
      ],
      "values": [
        -0.10999999940395355,
        -0.10682539641857147,
        -0.10365079343318939,
        -0.10047619044780731,
        -0.09730158746242523,
        -0.09412698447704315,
        -0.09095238149166107,
        -0.08777777850627899,
        -0.08460317552089691,
        -0.08142857253551483,
        -0.07825396955013275,
        -0.07507936656475067,
        -0.07190476357936859,
        -0.06873016059398651,
        -0.06555555760860443,
        -0.06238095089793205,
        -0.05920634791254997,
        -0.05603174492716789,
        -0.05285714194178581,
        -0.04968253895640373,
        -0.04650793597102165,
        -0.04333333298563957,
        -0.04015873000025749,
        -0.03698412701487541,
        -0.03380952402949333,
        -0.030634921044111252,
        -0.027460318058729172,
        -0.02428571507334709,
        -0.021111110225319862,
        -0.017936507239937782,
        -0.014761905185878277,
        -0.011587301269173622,
        -0.008412698283791542,
        -0.005238095298409462,
        -0.0020634920801967382,
        0.0011111111380159855,
        0.004285714123398066,
        0.007460317574441433,
        0.010634920559823513,
        0.013809523545205593,
        0.016984127461910248,
        0.020158730447292328,
        0.023333333432674408,
        0.026507936418056488,
        0.029682539403438568,
        0.03285714238882065,
        0.03603174537420273,
        0.03920634835958481,
        0.04238095134496689,
        0.04555555433034897,
        0.04873015731573105,
        0.05190476030111313,
        0.05507936328649521,
        0.05825396999716759,
        0.06142857298254967,
        0.06460317224264145,
        0.06777777522802353,
        0.07095237821340561,
        0.07412698119878769,
        0.07730158418416977,
        0.08047618716955185,
        0.08365079015493393,
        0.08682539314031601,
        0.09000000357627869
      ]
    },
    "context_encoder.blocks.0.attn.out_proj.bias": {
      "shape": [
        8
      ],
      "values": [
        -0.03500000014901161,
        -0.027857143431901932,
        -0.020714284852147102,
        -0.013571428135037422,
        -0.006428571417927742,
        0.0007142857066355646,
        0.007857142947614193,
        0.014999999664723873
      ]
    },
    "context_encoder.blocks.0.norm2.gamma": {
      "shape": [
        8
      ],
      "values": [
        0.8899999856948853,
        0.918571412563324,
        0.9471428394317627,
        0.9757142663002014,
        1.0042856931686401,
        1.0328571796417236,
        1.0614285469055176,
        1.090000033378601
      ]
    },
    "context_encoder.blocks.0.norm2.beta": {
      "shape": [
        8
      ],
      "values": [
        -0.03500000014901161,
        -0.027857143431901932,
        -0.020714284852147102,
        -0.013571428135037422,
        -0.006428571417927742,
        0.0007142857066355646,
        0.007857142947614193,
        0.014999999664723873
      ]
    },
    "context_encoder.blocks.0.mlp.fc1.weight": {
      "shape": [
        8,
        24
      ],
      "values": [
        -0.12999999523162842,
        -0.12874345481395721,
        -0.127486914396286,
        -0.1262303590774536,
        -0.12497381865978241,
        -0.1237172782421112,
        -0.1224607303738594,
        -0.1212041899561882,
        -0.1199476420879364,
        -0.1186911016702652,
        -0.1174345538020134,
        -0.1161780133843422,
        -0.1149214655160904,
        -0.11366492509841919,
        -0.11240837723016739,
        -0.11115182936191559,
        -0.10989528894424438,
        -0.10863874107599258,
        -0.10738220065832138,
        -0.10612565279006958,
        -0.10486911237239838,
        -0.10361256450414658,
        -0.10235602408647537,
        -0.10109947621822357,
        -0.09984292834997177,
        -0.09858638793230057,
        -0.09732984006404877,
        -0.09607329964637756,
        -0.09481675177812576,
        -0.09356021136045456,
        -0.09230366349220276,
        -0.09104712307453156,
        -0.08979057520627975,
        -0.08853403478860855,
        -0.08727748692035675,
        -0.08602093905210495,
        -0.08476439863443375,
        -0.08350785076618195,
        -0.08225131034851074,
        -0.08099476248025894,
        -0.07973822206258774,
        -0.07848167419433594,
        -0.07722513377666473,
        -0.07596858590841293,
        -0.07471204549074173,
        -0.07345549762248993,
        -0.07219894975423813,
        -0.07094240933656693,
        -0.06968586146831512,
        -0.06842932105064392,
        -0.06717277318239212,
        -0.06591623276472092,
        -0.06465968489646912,
        -0.06340314447879791,
        -0.06214659661054611,
        -0.06089005246758461,
        -0.05963350832462311,
        -0.058376964181661606,
        -0.057120420038700104,
        -0.0558638758957386,
        -0.0546073280274868,
        -0.0533507838845253,
        -0.0520942397415638,
        -0.050837695598602295,
        -0.04958115145564079,
        -0.04832460731267929,
        -0.04706806316971779,
        -0.04581151902675629,
        -0.044554974883794785,
        -0.04329843074083328,
        -0.04204188659787178,
        -0.04078533872961998,
        -0.03952879458665848,
        -0.038272250443696976,
        -0.037015706300735474,
        -0.03575916215777397,
        -0.03450261801481247,
        -0.03324607387185097,
        -0.031989529728889465,
        -0.030732983723282814,
        -0.029476439580321312,
        -0.02821989543735981,
        -0.026963351294398308,
        -0.025706807151436806,
        -0.024450261145830154,
        -0.023193717002868652,
        -0.02193717285990715,
        -0.020680628716945648,
        -0.019424084573984146,
        -0.018167538568377495,
        -0.016910994425415993,
        -0.01565445028245449,
        -0.014397906139492989,
        -0.013141361065208912,
        -0.01188481692224741,
        -0.010628271847963333,
        -0.009371727705001831,
        -0.008115183562040329,
        -0.00685863895341754,
        -0.00560209434479475,
        -0.004345549736171961,
        -0.0030890051275491714,
        -0.0018324607517570257,
        -0.0005759162013418972,
        0.0006806282908655703,
        0.001937172724865377,
        0.0031937172170728445,
        0.00445026159286499,
        0.00570680620148778,
        0.006963350810110569,
        0.008219894953072071,
        0.009476440027356148,
        0.01073298417031765,
        0.011989529244601727,
        0.013246073387563229,
        0.01450261753052473,
        0.015759162604808807,
        0.01701570674777031,
        0.01827225089073181,
        0.019528795033693314,
        0.020785341039299965,
        0.022041885182261467,
        0.02329842932522297,
        0.02455497346818447,
        0.025811517611145973,
        0.027068063616752625,
        0.028324607759714127,
        0.02958115190267563,
        0.03083769604563713,
        0.03209424018859863,
        0.033350784331560135,
        0.03460732847452164,
        0.03586387261748314,
        0.03712042048573494,
        0.03837696462869644,
        0.039633508771657944,
        0.040890052914619446,
        0.04214659705758095,
        0.04340314120054245,
        0.04465968534350395,
        0.045916229486465454,
        0.047172773629426956,
        0.04842931777238846,
        0.04968586564064026,
        0.05094240978360176,
        0.05219895392656326,
        0.053455498069524765,
        0.05471204221248627,
        0.05596858635544777,
        0.05722513049840927,
        0.05848167464137077,
        0.059738218784332275,
        0.06099476292729378,
        0.06225130707025528,
        0.06350785493850708,
        0.06476439535617828,
        0.06602094322443008,
        0.06727748364210129,
        0.06853403151035309,
        0.06979057937860489,
        0.07104711979627609,
        0.0723036676645279,
        0.0735602080821991,
        0.0748167559504509,
        0.0760732963681221,
        0.0773298442363739,
        0.0785863846540451,
        0.0798429325222969,
        0.08109947293996811,
        0.08235602080821991,
        0.08361256867647171,
        0.08486910909414291,
        0.08612565696239471,
        0.08738219738006592,
        0.08863874524831772,
        0.08989528566598892,
        0.09115183353424072,
        0.09240837395191193,
        0.09366492182016373,
        0.09492146968841553,
        0.09617801010608673,
        0.09743455797433853,
        0.09869109839200974,
        0.09994764626026154,
        0.10120418667793274,
        0.10246073454618454,
        0.10371727496385574,
        0.10497382283210754,
        0.10623036324977875,
        0.10748691111803055,
        0.10874345898628235,
        0.10999999940395355
      ]
    },
    "context_encoder.blocks.0.mlp.fc1.bias": {
      "shape": [
        24
      ],
      "values": [
        -0.03999999910593033,
        -0.0373913049697876,
        -0.03478260710835457,
        -0.03217391297221184,
        -0.029565216973423958,
        -0.026956520974636078,
        -0.024347826838493347,
        -0.021739130839705467,
        -0.019130434840917587,
        -0.016521738842129707,
        -0.013913043774664402,
        -0.011304347775876522,
        -0.008695651777088642,
        -0.006086956709623337,
        -0.0034782609436661005,
        -0.0008695652359165251,
        0.0017391304718330503,
        0.004347825888544321,
        0.006956521887332201,
        0.009565217420458794,
        0.012173913419246674,
        0.014782608486711979,
        0.017391303554177284,
        0.019999999552965164
      ]
    },
    "context_encoder.blocks.0.mlp.fc2.weight": {
      "shape": [
        24,
        8
      ],
      "values": [
        -0.10000000149011612,
        -0.09905759245157242,
        -0.09811518341302872,
        -0.09717277437448502,
        -0.09623036533594131,
        -0.09528795629739761,
        -0.09434554725885391,
        -0.09340313822031021,
        -0.0924607366323471,
        -0.0915183275938034,
        -0.0905759185552597,
        -0.089633509516716,
        -0.0886911004781723,
        -0.0877486914396286,
        -0.0868062824010849,
        -0.0858638733625412,
        -0.0849214643239975,
        -0.0839790552854538,
        -0.0830366462469101,
        -0.0820942372083664,
        -0.08115183562040329,
        -0.08020942658185959,
        -0.07926701754331589,
        -0.07832460850477219,
        -0.07738219946622849,
        -0.07643979042768478,
        -0.07549738138914108,
        -0.07455497235059738,
        -0.07361256331205368,
        -0.07267015427350998,
        -0.07172774523496628,
        -0.07078534364700317,
        -0.06984293460845947,
        -0.06890052556991577,
        -0.06795811653137207,
        -0.06701570749282837,
        -0.06607329845428467,
        -0.06513088941574097,
        -0.06418848037719727,
        -0.06324607133865356,
        -0.06230366602540016,
        -0.06136125698685646,
        -0.06041884794831276,
        -0.05947643890976906,
        -0.05853402987122536,
        -0.057591624557971954,
        -0.05664921551942825,
        -0.05570680648088455,
        -0.05476439744234085,
        -0.05382198840379715,
        -0.05287957936525345,
        -0.051937174052000046,
        -0.050994765013456345,
        -0.05005235597491264,
        -0.04910994693636894,
        -0.04816753789782524,
        -0.04722513258457184,
        -0.04628272354602814,
        -0.045340314507484436,
        -0.044397905468940735,
        -0.043455496430397034,
        -0.04251308739185333,
        -0.04157068207859993,
        -0.04062827304005623,
        -0.03968586400151253,
        -0.038743454962968826,
        -0.037801045924425125,
        -0.036858636885881424,
        -0.03591623157262802,
        -0.03497382253408432,
        -0.03403141349554062,
        -0.03308900445699692,
        -0.03214659541845322,
        -0.031204188242554665,
        -0.030261779204010963,
        -0.02931937202811241,
        -0.02837696298956871,
        -0.02743455581367016,
        -0.026492146775126457,
        -0.025549737736582756,
        -0.024607330560684204,
        -0.023664921522140503,
        -0.022722512483596802,
        -0.02178010530769825,
        -0.02083769626915455,
        -0.019895287230610847,
        -0.018952880054712296,
        -0.018010471016168594,
        -0.017068061977624893,
        -0.01612565480172634,
        -0.01518324576318264,
        -0.014240837655961514,
        -0.013298429548740387,
        -0.012356020510196686,
        -0.01141361240297556,
        -0.010471204295754433,
        -0.009528796188533306,
        -0.008586387149989605,
        -0.007643979042768478,
        -0.0067015704698860645,
        -0.005759162362664938,
        -0.004816753789782524,
        -0.003874345449730754,
        -0.0029319371096789837,
        -0.0019895287696272135,
        -0.0010471204295754433,
        -0.00010471203859196976,
        0.0008376963087357581,
        0.0017801047069951892,
        0.0027225131634622812,
        0.0036649215035140514,
        0.004607329610735178,
        0.005549738183617592,
        0.006492146756500006,
        0.007434554863721132,
        0.008376963436603546,
        0.009319371543824673,
        0.0102617796510458,
        0.0112041886895895,
        0.012146596796810627,
        0.013089004904031754,
        0.014031413942575455,
        0.014973822049796581,
        0.015916230157017708,
        0.01685863919556141,
        0.01780104637145996,
        0.018743455410003662,
        0.019685864448547363,
        0.020628271624445915,
        0.021570680662989616,
        0.022513089701533318,
        0.02345549687743187,
        0.02439790591597557,
        0.025340314954519272,
        0.026282722130417824,
        0.027225131168961525,
        0.028167538344860077,
        0.029109947383403778,
        0.03005235642194748,
        0.03099476359784603,
        0.03193717449903488,
        0.032879579812288284,
        0.033821988850831985,
        0.03476439788937569,
        0.03570680692791939,
        0.03664921596646309,
        0.03759162127971649,
        0.03853403031826019,
        0.039476439356803894,
        0.040418848395347595,
        0.041361257433891296,
        0.042303666472435,
        0.0432460717856884,
        0.0441884808242321,
        0.0451308898627758,
        0.046073298901319504,
        0.047015707939863205,
        0.047958116978406906,
        0.04890052229166031,
        0.04984293133020401,
        0.05078534036874771,
        0.05172774940729141,
        0.052670158445835114,
        0.053612563759088516,
        0.05455497279763222,
        0.05549738183617592,
        0.05643979087471962,
        0.05738219991326332,
        0.05832460895180702,
        0.059267014265060425,
        0.060209423303604126,
        0.06115183234214783,
        0.06209424138069153,
        0.06303665041923523,
        0.06397905945777893,
        0.06492146849632263,
        0.06586387753486633,
        0.06680627912282944,
        0.06774868816137314,
        0.06869109719991684,
        0.06963350623846054,
        0.07057591527700424,
        0.07151832431554794,
        0.07246073335409164,
        0.07340314239263535,
        0.07434555143117905,
        0.07528796046972275,
        0.07623036950826645,
        0.07717277854681015,
        0.07811518013477325,
        0.07905758917331696,
        0.07999999821186066
      ]
    },
    "context_encoder.blocks.0.mlp.fc2.bias": {
      "shape": [
        8
      ],
      "values": [
        -0.029999999329447746,
        -0.02428571507334709,
        -0.018571428954601288,
        -0.012857142835855484,
        -0.0071428571827709675,
        -0.0014285714132711291,
        0.004285714123398066,
        0.009999999776482582
      ]
    },
    "target_encoder.patch_embed.projection.weight": {
      "shape": [
        24,
        8
      ],
      "values": [
        -0.09000000357627869,
        -0.08874345570802689,
        -0.08748690783977509,
        -0.08623036742210388,
        -0.08497381955385208,
        -0.08371727913618088,
        -0.08246073126792908,
        -0.08120419085025787,
        -0.07994764298200607,
        -0.07869110256433487,
        -0.07743455469608307,
        -0.07617800682783127,
        -0.07492146641016006,
        -0.07366491854190826,
        -0.07240837812423706,
        -0.07115183025598526,
        -0.06989528983831406,
        -0.06863874197006226,
        -0.06738220155239105,
        -0.06612565368413925,
        -0.06486911326646805,
        -0.06361256539821625,
        -0.062356021255254745,
        -0.06109947711229324,
        -0.05984293296933174,
        -0.05858638882637024,
        -0.05732984468340874,
        -0.05607329681515694,
        -0.054816752672195435,
        -0.05356020852923393,
        -0.05230366438627243,
        -0.05104712024331093,
        -0.049790576100349426,
        -0.048534031957387924,
        -0.04727748781442642,
        -0.04602094367146492,
        -0.04476439952850342,
        -0.04350785166025162,
        -0.042251307517290115,
        -0.04099476337432861,
        -0.03973821923136711,
        -0.03848167508840561,
        -0.03722513094544411,
        -0.035968586802482605,
        -0.0347120426595211,
        -0.0334554985165596,
        -0.0321989543735981,
        -0.030942408367991447,
        -0.029685864225029945,
        -0.028429320082068443,
        -0.027172774076461792,
        -0.02591622993350029,
        -0.024659685790538788,
        -0.023403141647577286,
        -0.022146597504615784,
        -0.020890051499009132,
        -0.01963350735604763,
        -0.018376963213086128,
        -0.017120419070124626,
        -0.015863874927163124,
        -0.014607329852879047,
        -0.013350785709917545,
        -0.012094240635633469,
        -0.010837696492671967,
        -0.00958115141838789,
        -0.008324607275426388,
        -0.007068062666803598,
        -0.005811518523842096,
        -0.004554973915219307,
        -0.0032984293065965176,
        -0.002041884930804372,
        -0.0007853403221815825,
        0.00047120419912971556,
        0.0017277486622333527,
        0.002984293270856142,
        0.004240837879478931,
        0.0054973820224404335,
        0.006753926631063223,
        0.008010471239686012,
        0.009267015382647514,
        0.010523560456931591,
        0.011780104599893093,
        0.01303664967417717,
        0.014293193817138672,
        0.015549737960100174,
        0.016806282103061676,
        0.018062828108668327,
        0.01931937225162983,
        0.02057591639459133,
        0.021832460537552834,
        0.023089004680514336,
        0.024345548823475838,
        0.02560209482908249,
        0.02685863897204399,
        0.028115183115005493,
        0.029371727257966995,
        0.030628271400928497,
        0.03188481554389,
        0.0331413596868515,
        0.0343979075551033,
        0.035654451698064804,
        0.036910995841026306,
        0.03816753998398781,
        0.03942408412694931,
        0.04068062826991081,
        0.041937172412872314,
        0.043193716555833817,
        0.04445026069879532,
        0.04570680484175682,
        0.04696334898471832,
        0.04821989685297012,
        0.049476440995931625,
        0.05073298513889313,
        0.05198952928185463,
        0.05324607342481613,
        0.054502617567777634,
        0.055759161710739136,
        0.05701570585370064,
        0.05827224999666214,
        0.05952879413962364,
        0.06078534200787544,
        0.062041886150836945,
        0.06329842656850815,
        0.06455497443675995,
        0.06581151485443115,
        0.06706806272268295,
        0.06832461059093475,
        0.06958115100860596,
        0.07083769887685776,
        0.07209423929452896,
        0.07335078716278076,
        0.07460732758045197,
        0.07586387544870377,
        0.07712041586637497,
        0.07837696373462677,
        0.07963350415229797,
        0.08089005202054977,
        0.08214659988880157,
        0.08340314030647278,
        0.08465968817472458,
        0.08591622859239578,
        0.08717277646064758,
        0.08842931687831879,
        0.08968586474657059,
        0.09094240516424179,
        0.09219895303249359,
        0.09345550090074539,
        0.0947120413184166,
        0.0959685891866684,
        0.0972251296043396,
        0.0984816774725914,
        0.0997382178902626,
        0.1009947657585144,
        0.10225130617618561,
        0.10350785404443741,
        0.10476439446210861,
        0.10602094233036041,
        0.10727749019861221,
        0.10853403061628342,
        0.10979057848453522,
        0.11104711890220642,
        0.11230366677045822,
        0.11356020718812943,
        0.11481675505638123,
        0.11607329547405243,
        0.11732984334230423,
        0.11858638375997543,
        0.11984293162822723,
        0.12109947949647903,
        0.12235601991415024,
        0.12361256778240204,
        0.12486910820007324,
        0.12612564861774445,
        0.12738220393657684,
        0.12863874435424805,
        0.12989528477191925,
        0.13115182518959045,
        0.13240838050842285,
        0.13366492092609406,
        0.13492146134376526,
        0.13617801666259766,
        0.13743455708026886,
        0.13869109749794006,
        0.13994763791561127,
        0.14120419323444366,
        0.14246073365211487,
        0.14371727406978607,
        0.14497382938861847,
        0.14623036980628967,
        0.14748691022396088,
        0.14874345064163208,
        0.15000000596046448
      ]
    },
    "target_encoder.patch_embed.projection.bias": {
      "shape": [
        8
      ],
      "values": [
        0.0,
        0.008571428246796131,
        0.017142856493592262,
        0.025714285671710968,
        0.034285712987184525,
        0.04285714402794838,
        0.051428571343421936,
        0.05999999865889549
      ]
    },
    "target_encoder.norm.gamma": {
      "shape": [
        8
      ],
      "values": [
        0.9700000286102295,
        0.9871428608894348,
        1.0042856931686401,
        1.0214285850524902,
        1.0385714769363403,
        1.0557142496109009,
        1.072857141494751,
        1.090000033378601
      ]
    },
    "target_encoder.norm.beta": {
      "shape": [
        8
      ],
      "values": [
        0.004999999888241291,
        0.012142857536673546,
        0.019285714253783226,
        0.026428570970892906,
        0.033571429550647736,
        0.040714286267757416,
        0.047857142984867096,
        0.054999999701976776
      ]
    },
    "target_encoder.blocks.0.norm1.gamma": {
      "shape": [
        8
      ],
      "values": [
        0.9100000262260437,
        0.9385714530944824,
        0.9671428799629211,
        0.9957143068313599,
        1.0242856740951538,
        1.0528571605682373,
        1.0814285278320312,
        1.1100000143051147
      ]
    },
    "target_encoder.blocks.0.norm1.beta": {
      "shape": [
        8
      ],
      "values": [
        0.0,
        0.008571428246796131,
        0.017142856493592262,
        0.025714285671710968,
        0.034285712987184525,
        0.04285714402794838,
        0.051428571343421936,
        0.05999999865889549
      ]
    },
    "target_encoder.blocks.0.attn.qkv.weight": {
      "shape": [
        8,
        24
      ],
      "values": [
        -0.10999999940395355,
        -0.10853403061628342,
        -0.10706806182861328,
        -0.10560209304094315,
        -0.10413612425327301,
        -0.10267015546560287,
        -0.10120418667793274,
        -0.0997382178902626,
        -0.09827224910259247,
        -0.09680628031492233,
        -0.0953403115272522,
        -0.09387434273958206,
        -0.09240837395191193,
        -0.09094240516424179,
        -0.08947643637657166,
        -0.08801046758890152,
        -0.08654450625181198,
        -0.08507853746414185,
        -0.08361256867647171,
        -0.08214659988880157,
        -0.08068063110113144,
        -0.0792146623134613,
        -0.07774869352579117,
        -0.07628272473812103,
        -0.0748167559504509,
        -0.07335078716278076,
        -0.07188481837511063,
        -0.07041884958744049,
        -0.06895288079977036,
        -0.06748691201210022,
        -0.06602094322443008,
        -0.06455497443675995,
        -0.06308900564908981,
        -0.06162303686141968,
        -0.06015706807374954,
        -0.05869109928607941,
        -0.05722513049840927,
        -0.055759161710739136,
        -0.054293192923069,
        -0.052827224135398865,
        -0.05136125534772873,
        -0.049895286560058594,
        -0.04842931777238846,
        -0.04696334898471832,
        -0.045497383922338486,
        -0.04403141513466835,
        -0.042565446346998215,
        -0.04109947755932808,
        -0.039633508771657944,
        -0.03816753998398781,
        -0.03670157119631767,
        -0.03523560240864754,
        -0.0337696336209774,
        -0.032303664833307266,
        -0.03083769604563713,
        -0.029371727257966995,
        -0.02790575847029686,
        -0.026439789682626724,
        -0.024973822757601738,
        -0.023507853969931602,
        -0.022041885182261467,
        -0.02057591639459133,
        -0.019109947606921196,
        -0.01764397881925106,
        -0.016178010031580925,
        -0.014712042175233364,
        -0.013246073387563229,
        -0.011780104599893093,
        -0.010314135812222958,
        -0.008848167955875397,
        -0.007382199168205261,
        -0.005916230380535126,
        -0.00445026159286499,
        -0.002984293270856142,
        -0.0015183245996013284,
        -5.235601929598488e-05,
        0.0014136125100776553,
        0.002879581181332469,
        0.004345549736171961,
        0.005811518523842096,
        0.0072774868458509445,
        0.00874345563352108,
        0.010209424421191216,
        0.011675392277538776,
        0.013141361065208912,
        0.014607329852879047,
        0.01607329770922661,
        0.017539266496896744,
        0.01900523528456688,
        0.020471204072237015,
        0.02193717285990715,
        0.023403141647577286,
        0.02486911043524742,
        0.026335079222917557,
        0.027801048010587692,
        0.02926701493561268,
        0.030732983723282814,
        0.0321989543735981,
        0.033664923161268234,
        0.03513088822364807,
        0.03659685701131821,
        0.03806282579898834,
        0.03952879458665848,
        0.04099476337432861,
        0.04246073216199875,
        0.043926700949668884,
        0.04539266973733902,
        0.046858638525009155,
        0.04832460731267929,
        0.049790576100349426,
        0.05125654488801956,
        0.0527225136756897,
        0.05418848246335983,
        0.05565445125102997,
        0.057120420038700104,
        0.05858638882637024,
        0.060052357614040375,
        0.06151832640171051,
        0.06298429518938065,
        0.06445026397705078,
        0.06591623276472092,
        0.06738220155239105,
        0.06884817034006119,
        0.07031413912773132,
        0.07178010791540146,
        0.0732460767030716,
        0.07471204549074173,
        0.07617800682783127,
        0.0776439756155014,
        0.07910994440317154,
        0.08057591319084167,
        0.08204188197851181,
        0.08350785076618195,
        0.08497381955385208,
        0.08643978834152222,
        0.08790575712919235,
        0.08937172591686249,
        0.09083769470453262,
        0.09230366349220276,
        0.0937696322798729,
        0.09523560106754303,
        0.09670156985521317,
        0.0981675386428833,
        0.09963350743055344,
        0.10109947621822357,
        0.10256544500589371,
        0.10403141379356384,
        0.10549738258123398,
        0.10696335136890411,
        0.10842932015657425,
        0.10989528894424438,
        0.11136125773191452,
        0.11282722651958466,
        0.11429319530725479,
        0.11575916409492493,
        0.11722513288259506,
        0.1186911016702652,
        0.12015707045793533,
        0.12162303924560547,
        0.1230890080332756,
        0.12455497682094574,
        0.12602093815803528,
        0.127486914396286,
        0.12895287573337555,
        0.13041885197162628,
        0.13188481330871582,
        0.13335078954696655,
        0.1348167508840561,
        0.13628272712230682,
        0.13774868845939636,
        0.1392146646976471,
        0.14068062603473663,
        0.14214660227298737,
        0.1436125636100769,
        0.14507853984832764,
        0.14654450118541718,
        0.1480104774236679,
        0.14947643876075745,
        0.15094241499900818,
        0.15240837633609772,
        0.15387435257434845,
        0.155340313911438,
        0.15680629014968872,
        0.15827225148677826,
        0.1597382128238678,
        0.16120418906211853,
        0.16267015039920807,
        0.1641361266374588,
        0.16560208797454834,
        0.16706806421279907,
        0.1685340255498886,
        0.17000000178813934
      ]
    },
    "target_encoder.blocks.0.attn.qkv.bias": {
      "shape": [
        24
      ],
      "values": [
        -0.009999999776482582,
        -0.006521739065647125,
        -0.0030434783548116684,
        0.00043478261795826256,
        0.003913043532520533,
        0.0073913042433559895,
        0.010869565419852734,
        0.01434782613068819,
        0.017826087772846222,
        0.02130434848368168,
        0.024782609194517136,
        0.028260869905352592,
        0.03173913061618805,
        0.03521738946437836,
        0.03869565203785896,
        0.04217391461133957,
        0.04565217345952988,
        0.04913043603301048,
        0.05260869488120079,
        0.056086957454681396,
        0.059565216302871704,
        0.06304347515106201,
        0.06652174144983292,
        0.07000000029802322
      ]
    },
    "target_encoder.blocks.0.attn.out_proj.weight": {
      "shape": [
        8,
        8
      ],
      "values": [
        -0.07000000029802322,
        -0.06682539731264114,
        -0.06365079432725906,
        -0.060476191341876984,
        -0.057301588356494904,
        -0.054126985371112823,
        -0.05095238238573074,
        -0.04777777940034866,
        -0.04460317641496658,
        -0.041428569704294205,
        -0.038253966718912125,
        -0.035079363733530045,
        -0.031904760748147964,
        -0.028730159625411034,
        -0.025555554777383804,
        -0.022380951792001724,
        -0.019206348806619644,
        -0.016031745821237564,
        -0.012857142835855484,
        -0.009682539850473404,
        -0.0065079363994300365,
        -0.0033333334140479565,
        -0.00015873015217948705,
        0.003015873022377491,
        0.006190476007759571,
        0.009365078993141651,
        0.012539682909846306,
        0.015714285895228386,
        0.018888888880610466,
        0.022063491865992546,
        0.025238094851374626,
        0.028412697836756706,
        0.031587302684783936,
        0.034761905670166016,
        0.037936508655548096,
        0.041111111640930176,
        0.044285714626312256,
        0.047460317611694336,
        0.050634920597076416,
        0.053809523582458496,
        0.056984126567840576,
        0.060158729553222656,
        0.06333333253860474,
        0.06650793552398682,
        0.0696825385093689,
        0.07285714149475098,
        0.07603174448013306,
        0.07920634746551514,
        0.08238095045089722,
        0.0855555534362793,
        0.08873015642166138,
        0.09190475940704346,
        0.09507936239242554,
        0.09825396537780762,
        0.1014285683631897,
        0.10460317134857178,
        0.10777777433395386,
        0.11095237731933594,
        0.11412698775529861,
        0.1173015907406807,
        0.12047619372606277,
        0.12365079671144485,
        0.12682539224624634,
        0.12999999523162842
      ]
    },
    "target_encoder.blocks.0.attn.out_proj.bias": {
      "shape": [
        8
      ],
      "values": [
        0.004999999888241291,
        0.012142857536673546,
        0.019285714253783226,
        0.026428570970892906,
        0.033571429550647736,
        0.040714286267757416,
        0.047857142984867096,
        0.054999999701976776
      ]
    },
    "target_encoder.blocks.0.norm2.gamma": {
      "shape": [
        8
      ],
      "values": [
        0.9300000071525574,
        0.9585714340209961,
        0.9871428608894348,
        1.0157142877578735,
        1.0442856550216675,
        1.072857141494751,
        1.1014286279678345,
        1.1299999952316284
      ]
    },
    "target_encoder.blocks.0.norm2.beta": {
      "shape": [
        8
      ],
      "values": [
        0.004999999888241291,
        0.012142857536673546,
        0.019285714253783226,
        0.026428570970892906,
        0.033571429550647736,
        0.040714286267757416,
        0.047857142984867096,
        0.054999999701976776
      ]
    },
    "target_encoder.blocks.0.mlp.fc1.weight": {
      "shape": [
        8,
        24
      ],
      "values": [
        -0.09000000357627869,
        -0.08874345570802689,
        -0.08748690783977509,
        -0.08623036742210388,
        -0.08497381955385208,
        -0.08371727913618088,
        -0.08246073126792908,
        -0.08120419085025787,
        -0.07994764298200607,
        -0.07869110256433487,
        -0.07743455469608307,
        -0.07617800682783127,
        -0.07492146641016006,
        -0.07366491854190826,
        -0.07240837812423706,
        -0.07115183025598526,
        -0.06989528983831406,
        -0.06863874197006226,
        -0.06738220155239105,
        -0.06612565368413925,
        -0.06486911326646805,
        -0.06361256539821625,
        -0.062356021255254745,
        -0.06109947711229324,
        -0.05984293296933174,
        -0.05858638882637024,
        -0.05732984468340874,
        -0.05607329681515694,
        -0.054816752672195435,
        -0.05356020852923393,
        -0.05230366438627243,
        -0.05104712024331093,
        -0.049790576100349426,
        -0.048534031957387924,
        -0.04727748781442642,
        -0.04602094367146492,
        -0.04476439952850342,
        -0.04350785166025162,
        -0.042251307517290115,
        -0.04099476337432861,
        -0.03973821923136711,
        -0.03848167508840561,
        -0.03722513094544411,
        -0.035968586802482605,
        -0.0347120426595211,
        -0.0334554985165596,
        -0.0321989543735981,
        -0.030942408367991447,
        -0.029685864225029945,
        -0.028429320082068443,
        -0.027172774076461792,
        -0.02591622993350029,
        -0.024659685790538788,
        -0.023403141647577286,
        -0.022146597504615784,
        -0.020890051499009132,
        -0.01963350735604763,
        -0.018376963213086128,
        -0.017120419070124626,
        -0.015863874927163124,
        -0.014607329852879047,
        -0.013350785709917545,
        -0.012094240635633469,
        -0.010837696492671967,
        -0.00958115141838789,
        -0.008324607275426388,
        -0.007068062666803598,
        -0.005811518523842096,
        -0.004554973915219307,
        -0.0032984293065965176,
        -0.002041884930804372,
        -0.0007853403221815825,
        0.00047120419912971556,
        0.0017277486622333527,
        0.002984293270856142,
        0.004240837879478931,
        0.0054973820224404335,
        0.006753926631063223,
        0.008010471239686012,
        0.009267015382647514,
        0.010523560456931591,
        0.011780104599893093,
        0.01303664967417717,
        0.014293193817138672,
        0.015549737960100174,
        0.016806282103061676,
        0.018062828108668327,
        0.01931937225162983,
        0.02057591639459133,
        0.021832460537552834,
        0.023089004680514336,
        0.024345548823475838,
        0.02560209482908249,
        0.02685863897204399,
        0.028115183115005493,
        0.029371727257966995,
        0.030628271400928497,
        0.03188481554389,
        0.0331413596868515,
        0.0343979075551033,
        0.035654451698064804,
        0.036910995841026306,
        0.03816753998398781,
        0.03942408412694931,
        0.04068062826991081,
        0.041937172412872314,
        0.043193716555833817,
        0.04445026069879532,
        0.04570680484175682,
        0.04696334898471832,
        0.04821989685297012,
        0.049476440995931625,
        0.05073298513889313,
        0.05198952928185463,
        0.05324607342481613,
        0.054502617567777634,
        0.055759161710739136,
        0.05701570585370064,
        0.05827224999666214,
        0.05952879413962364,
        0.06078534200787544,
        0.062041886150836945,
        0.06329842656850815,
        0.06455497443675995,
        0.06581151485443115,
        0.06706806272268295,
        0.06832461059093475,
        0.06958115100860596,
        0.07083769887685776,
        0.07209423929452896,
        0.07335078716278076,
        0.07460732758045197,
        0.07586387544870377,
        0.07712041586637497,
        0.07837696373462677,
        0.07963350415229797,
        0.08089005202054977,
        0.08214659988880157,
        0.08340314030647278,
        0.08465968817472458,
        0.08591622859239578,
        0.08717277646064758,
        0.08842931687831879,
        0.08968586474657059,
        0.09094240516424179,
        0.09219895303249359,
        0.09345550090074539,
        0.0947120413184166,
        0.0959685891866684,
        0.0972251296043396,
        0.0984816774725914,
        0.0997382178902626,
        0.1009947657585144,
        0.10225130617618561,
        0.10350785404443741,
        0.10476439446210861,
        0.10602094233036041,
        0.10727749019861221,
        0.10853403061628342,
        0.10979057848453522,
        0.11104711890220642,
        0.11230366677045822,
        0.11356020718812943,
        0.11481675505638123,
        0.11607329547405243,
        0.11732984334230423,
        0.11858638375997543,
        0.11984293162822723,
        0.12109947949647903,
        0.12235601991415024,
        0.12361256778240204,
        0.12486910820007324,
        0.12612564861774445,
        0.12738220393657684,
        0.12863874435424805,
        0.12989528477191925,
        0.13115182518959045,
        0.13240838050842285,
        0.13366492092609406,
        0.13492146134376526,
        0.13617801666259766,
        0.13743455708026886,
        0.13869109749794006,
        0.13994763791561127,
        0.14120419323444366,
        0.14246073365211487,
        0.14371727406978607,
        0.14497382938861847,
        0.14623036980628967,
        0.14748691022396088,
        0.14874345064163208,
        0.15000000596046448
      ]
    },
    "target_encoder.blocks.0.mlp.fc1.bias": {
      "shape": [
        24
      ],
      "values": [
        0.0,
        0.0026086957659572363,
        0.005217391531914473,
        0.007826087065041065,
        0.010434783063828945,
        0.01304347813129425,
        0.01565217413008213,
        0.01826087012887001,
        0.02086956612765789,
        0.02347826026380062,
        0.0260869562625885,
        0.02869565226137638,
        0.03130434826016426,
        0.03391304239630699,
        0.03652174025774002,
        0.03913043439388275,
        0.04173913225531578,
        0.04434782639145851,
        0.04695652052760124,
        0.04956521838903427,
        0.052173912525177,
        0.05478261038661003,
        0.05739130452275276,
        0.05999999865889549
      ]
    },
    "target_encoder.blocks.0.mlp.fc2.weight": {
      "shape": [
        24,
        8
      ],
      "values": [
        -0.05999999865889549,
        -0.05905759334564209,
        -0.05811518430709839,
        -0.05717277526855469,
        -0.056230366230010986,
        -0.055287957191467285,
        -0.054345548152923584,
        -0.05340314283967018,
        -0.05246073380112648,
        -0.05151832476258278,
        -0.05057591572403908,
        -0.04963350668549538,
        -0.048691097646951675,
        -0.04774869233369827,
        -0.04680628329515457,
        -0.04586387425661087,
        -0.04492146521806717,
        -0.04397905617952347,
        -0.043036650866270065,
        -0.042094241827726364,
        -0.04115183278918266,
        -0.04020942375063896,
        -0.03926701471209526,
        -0.03832460567355156,
        -0.03738220036029816,
        -0.036439791321754456,
        -0.035497382283210754,
        -0.03455497324466705,
        -0.03361256420612335,
        -0.03267015889286995,
        -0.03172774985432625,
        -0.030785340815782547,
        -0.029842931777238846,
        -0.028900522738695145,
        -0.027958115562796593,
        -0.02701570652425289,
        -0.02607329934835434,
        -0.02513089030981064,
        -0.024188481271266937,
        -0.023246074095368385,
        -0.022303665056824684,
        -0.021361256018280983,
        -0.02041884884238243,
        -0.01947643980383873,
        -0.01853403076529503,
        -0.017591623589396477,
        -0.016649214550852776,
        -0.015706805512309074,
        -0.014764398336410522,
        -0.013821989297866821,
        -0.012879581190645695,
        -0.011937173083424568,
        -0.010994764044880867,
        -0.01005235593765974,
        -0.009109947830438614,
        -0.008167539723217487,
        -0.007225130684673786,
        -0.00628272257745266,
        -0.005340314004570246,
        -0.004397905897349119,
        -0.0034554973244667053,
        -0.002513088984414935,
        -0.001570680644363165,
        -0.0006282722461037338,
        0.0003141361230518669,
        0.0012565444922074676,
        0.0021989529486745596,
        0.00314136128872633,
        0.004083769861608744,
        0.00502617796882987,
        0.005968586541712284,
        0.006910994648933411,
        0.007853402756154537,
        0.008795811794698238,
        0.009738219901919365,
        0.010680628009140491,
        0.011623037047684193,
        0.01256544515490532,
        0.013507853262126446,
        0.014450261369347572,
        0.015392670407891273,
        0.016335079446434975,
        0.017277486622333527,
        0.018219895660877228,
        0.01916230283677578,
        0.02010471187531948,
        0.021047120913863182,
        0.021989528089761734,
        0.022931937128305435,
        0.023874346166849136,
        0.02481675334274769,
        0.02575916238129139,
        0.02670157141983509,
        0.027643978595733643,
        0.028586387634277344,
        0.029528796672821045,
        0.030471203848719597,
        0.03141361102461815,
        0.03235602006316185,
        0.03329842910170555,
        0.03424083814024925,
        0.035183247178792953,
        0.036125656217336655,
        0.03706806153059006,
        0.03801047056913376,
        0.03895287960767746,
        0.03989528864622116,
        0.04083769768476486,
        0.041780102998018265,
        0.042722512036561966,
        0.04366492107510567,
        0.04460733011364937,
        0.04554973915219307,
        0.04649214819073677,
        0.04743455350399017,
        0.048376962542533875,
        0.049319371581077576,
        0.05026178061962128,
        0.05120418965816498,
        0.05214659869670868,
        0.05308900400996208,
        0.05403141304850578,
        0.054973822087049484,
        0.055916231125593185,
        0.05685864016413689,
        0.05780104547739029,
        0.05874345451593399,
        0.05968586355447769,
        0.06062827259302139,
        0.061570681631565094,
        0.0625130906701088,
        0.0634554997086525,
        0.0643979087471962,
        0.0653403177857399,
        0.066282719373703,
        0.0672251284122467,
        0.0681675374507904,
        0.0691099464893341,
        0.07005235552787781,
        0.07099476456642151,
        0.07193717360496521,
        0.07287958264350891,
        0.07382199168205261,
        0.07476440072059631,
        0.07570680975914001,
        0.07664921134710312,
        0.07759162038564682,
        0.07853402942419052,
        0.07947643846273422,
        0.08041884750127792,
        0.08136125653982162,
        0.08230366557836533,
        0.08324607461690903,
        0.08418848365545273,
        0.08513089269399643,
        0.08607330173254013,
        0.08701570332050323,
        0.08795811235904694,
        0.08890052139759064,
        0.08984293043613434,
        0.09078533947467804,
        0.09172774851322174,
        0.09267015755176544,
        0.09361256659030914,
        0.09455497562885284,
        0.09549738466739655,
        0.09643979370594025,
        0.09738219529390335,
        0.09832460433244705,
        0.09926701337099075,
        0.10020942240953445,
        0.10115183144807816,
        0.10209424048662186,
        0.10303664952516556,
        0.10397905856370926,
        0.10492146760225296,
        0.10586387664079666,
        0.10680628567934036,
        0.10774869471788406,
        0.10869109630584717,
        0.10963350534439087,
        0.11057591438293457,
        0.11151832342147827,
        0.11246073246002197,
        0.11340314149856567,
        0.11434555053710938,
        0.11528795957565308,
        0.11623036861419678,
        0.11717277765274048,
        0.11811518669128418,
        0.11905758827924728,
        0.11999999731779099
      ]
    },
    "target_encoder.blocks.0.mlp.fc2.bias": {
      "shape": [
        8
      ],
      "values": [
        0.009999999776482582,
        0.015714285895228386,
        0.02142857201397419,
        0.027142856270074844,
        0.03285714238882065,
        0.03857142850756645,
        0.044285714626312256,
        0.05000000074505806
      ]
    },
    "predictor.input_proj.weight": {
      "shape": [
        8,
        12
      ],
      "values": [
        -0.10499999672174454,
        -0.10289473831653595,
        -0.10078947246074677,
        -0.09868421405553818,
        -0.09657894819974899,
        -0.09447368234395981,
        -0.09236842393875122,
        -0.09026315808296204,
        -0.08815789222717285,
        -0.08605263382196426,
        -0.08394736796617508,
        -0.0818421021103859,
        -0.07973684370517731,
        -0.07763157784938812,
        -0.07552631944417953,
        -0.07342105358839035,
        -0.07131578773260117,
        -0.06921052932739258,
        -0.0671052634716034,
        -0.06499999761581421,
        -0.06289473921060562,
        -0.06078947335481644,
        -0.05868421122431755,
        -0.056578949093818665,
        -0.05447368323802948,
        -0.052368421107530594,
        -0.05026315897703171,
        -0.04815789312124252,
        -0.04605263099074364,
        -0.04394736886024475,
        -0.041842106729745865,
        -0.03973684087395668,
        -0.037631578743457794,
        -0.03552631661295891,
        -0.03342105448246002,
        -0.03131578862667084,
        -0.02921052649617195,
        -0.027105262503027916,
        -0.02500000037252903,
        -0.022894736379384995,
        -0.02078947424888611,
        -0.018684210255742073,
        -0.016578948125243187,
        -0.014473684132099152,
        -0.012368421070277691,
        -0.01026315800845623,
        -0.00815789494663477,
        -0.006052631419152021,
        -0.003947368357330561,
        -0.0018421052955091,
        0.0002631578827276826,
        0.002368421060964465,
        0.0044736843556165695,
        0.00657894741743803,
        0.008684210479259491,
        0.010789473541080952,
        0.012894736602902412,
        0.014999999664723873,
        0.017105262726545334,
        0.01921052671968937,
        0.021315788850188255,
        0.02342105284333229,
        0.025526314973831177,
        0.027631578966975212,
        0.029736842960119247,
        0.031842105090618134,
        0.03394736722111702,
        0.036052633076906204,
        0.03815789520740509,
        0.040263157337903976,
        0.04236841946840286,
        0.04447368532419205,
        0.04657894745469093,
        0.04868420958518982,
        0.050789475440979004,
        0.05289473757147789,
        0.054999999701976776,
        0.05710526183247566,
        0.05921052768826485,
        0.06131578981876373,
        0.06342105567455292,
        0.0655263140797615,
        0.06763157993555069,
        0.06973684579133987,
        0.07184210419654846,
        0.07394737005233765,
        0.07605262845754623,
        0.07815789431333542,
        0.0802631601691246,
        0.08236841857433319,
        0.08447368443012238,
        0.08657895028591156,
        0.08868420869112015,
        0.09078947454690933,
        0.09289474040269852,
        0.0949999988079071
      ]
    },
    "predictor.input_proj.bias": {
      "shape": [
        12
      ],
      "values": [
        -0.029999999329447746,
        -0.02545454539358616,
        -0.02090909145772457,
        -0.016363635659217834,
        -0.011818181723356247,
        -0.007272727321833372,
        -0.0027272726874798536,
        0.001818181830458343,
        0.00636363634839654,
        0.010909090749919415,
        0.015454545617103577,
        0.019999999552965164
      ]
    },
    "predictor.norm.gamma": {
      "shape": [
        12
      ],
      "values": [
        0.9449999928474426,
        0.9540908932685852,
        0.9631817936897278,
        0.9722727537155151,
        0.9813636541366577,
        0.9904545545578003,
        0.9995454549789429,
        1.0086363554000854,
        1.017727255821228,
        1.0268181562423706,
        1.0359090566635132,
        1.0449999570846558
      ]
    },
    "predictor.norm.beta": {
      "shape": [
        12
      ],
      "values": [
        -0.02500000037252903,
        -0.0213636364787817,
        -0.01772727258503437,
        -0.01409090869128704,
        -0.010454545728862286,
        -0.006818181835114956,
        -0.00318181817419827,
        0.00045454545761458576,
        0.004090908914804459,
        0.007727272808551788,
        0.011363636702299118,
        0.014999999664723873
      ]
    },
    "predictor.output_proj.weight": {
      "shape": [
        12,
        8
      ],
      "values": [
        -0.0949999988079071,
        -0.0931052640080452,
        -0.09121052920818329,
        -0.08931578695774078,
        -0.08742105215787888,
        -0.08552631735801697,
        -0.08363158255815506,
        -0.08173684030771255,
        -0.07984210550785065,
        -0.07794737070798874,
        -0.07605262845754623,
        -0.07415789365768433,
        -0.07226315885782242,
        -0.07036842405796051,
        -0.068473681807518,
        -0.0665789470076561,
        -0.06468421220779419,
        -0.06278947740793228,
        -0.06089473515748978,
        -0.05900000035762787,
        -0.05710526183247566,
        -0.055210527032613754,
        -0.05331578850746155,
        -0.05142105370759964,
        -0.049526315182447433,
        -0.047631580382585526,
        -0.04573684185743332,
        -0.04384210705757141,
        -0.041947368532419205,
        -0.040052630007267,
        -0.03815789520740509,
        -0.036263156682252884,
        -0.034368421882390976,
        -0.03247368335723877,
        -0.030578946694731712,
        -0.028684210032224655,
        -0.026789473369717598,
        -0.02489473670721054,
        -0.023000000044703484,
        -0.021105263382196426,
        -0.01921052671968937,
        -0.017315790057182312,
        -0.01542105246335268,
        -0.013526315800845623,
        -0.011631579138338566,
        -0.009736842475831509,
        -0.007842104882001877,
        -0.00594736821949482,
        -0.0040526315569877625,
        -0.0021578946616500616,
        -0.0002631578827276826,
        0.0016315788961946964,
        0.0035263157915323973,
        0.005421052686870098,
        0.007315789349377155,
        0.009210526011884212,
        0.011105263605713844,
        0.013000000268220901,
        0.014894736930727959,
        0.016789473593235016,
        0.018684210255742073,
        0.02057894691824913,
        0.022473683580756187,
        0.024368420243263245,
        0.02626315876841545,
        0.028157895430922508,
        0.030052632093429565,
        0.03194736689329147,
        0.03384210541844368,
        0.035736843943595886,
        0.037631578743457794,
        0.03952631726861,
        0.04142105206847191,
        0.043315790593624115,
        0.04521052539348602,
        0.04710526391863823,
        0.04899999871850014,
        0.050894737243652344,
        0.05278947204351425,
        0.05468421056866646,
        0.056578949093818665,
        0.05847368389368057,
        0.06036842241883278,
        0.06226315721869469,
        0.0641578957438469,
        0.0660526305437088,
        0.06794736534357071,
        0.06984210759401321,
        0.07173684239387512,
        0.07363157719373703,
        0.07552631944417953,
        0.07742105424404144,
        0.07931578904390335,
        0.08121052384376526,
        0.08310526609420776,
        0.08500000089406967
      ]
    },
    "predictor.output_proj.bias": {
      "shape": [
        8
      ],
      "values": [
        -0.02500000037252903,
        -0.019285714253783226,
        -0.013571428135037422,
        -0.007857142947614193,
        -0.002142857061699033,
        0.0035714285913854837,
        0.009285714477300644,
        0.014999999664723873
      ]
    },
    "predictor.blocks.0.norm1.gamma": {
      "shape": [
        12
      ],
      "values": [
        0.875,
        0.8931818008422852,
        0.9113636612892151,
        0.9295454621315002,
        0.9477272629737854,
        0.9659090638160706,
        0.9840909242630005,
        1.0022727251052856,
        1.0204545259475708,
        1.038636326789856,
        1.0568181276321411,
        1.0750000476837158
      ]
    },
    "predictor.blocks.0.norm1.beta": {
      "shape": [
        12
      ],
      "values": [
        -0.03500000014901161,
        -0.029545454308390617,
        -0.024090908467769623,
        -0.018636364489793777,
        -0.013181817717850208,
        -0.007727272808551788,
        -0.0022727272007614374,
        0.00318181817419827,
        0.00863636378198862,
        0.01409090869128704,
        0.019545454531908035,
        0.02500000037252903
      ]
    },
    "predictor.blocks.0.attn.qkv.weight": {
      "shape": [
        12,
        36
      ],
      "values": [
        -0.14499999582767487,
        -0.1443503499031067,
        -0.14370068907737732,
        -0.14305104315280914,
        -0.14240139722824097,
        -0.1417517364025116,
        -0.14110209047794342,
        -0.14045242965221405,
        -0.13980278372764587,
        -0.1391531378030777,
        -0.13850347697734833,
        -0.13785383105278015,
        -0.13720417022705078,
        -0.1365545243024826,
        -0.13590487837791443,
        -0.13525521755218506,
        -0.13460557162761688,
        -0.1339559108018875,
        -0.13330626487731934,
        -0.13265661895275116,
        -0.1320069581270218,
        -0.1313573122024536,
        -0.13070765137672424,
        -0.13005800545215607,
        -0.1294083595275879,
        -0.12875869870185852,
        -0.12810905277729034,
        -0.12745939195156097,
        -0.1268097460269928,
        -0.12616010010242462,
        -0.12551043927669525,
        -0.12486078590154648,
        -0.1242111399769783,
        -0.12356148660182953,
        -0.12291183322668076,
        -0.12226217985153198,
        -0.12161252647638321,
        -0.12096288055181503,
        -0.12031322717666626,
        -0.11966357380151749,
        -0.11901392042636871,
        -0.11836426705121994,
        -0.11771461367607117,
        -0.11706496775150299,
        -0.11641531437635422,
        -0.11576566100120544,
        -0.11511600762605667,
        -0.1144663542509079,
        -0.11381670832633972,
        -0.11316705495119095,
        -0.11251740157604218,
        -0.1118677482008934,
        -0.11121809482574463,
        -0.11056844890117645,
        -0.10991879552602768,
        -0.1092691421508789,
        -0.10861948877573013,
        -0.10796983540058136,
        -0.10732018202543259,
        -0.10667053610086441,
        -0.10602088272571564,
        -0.10537122935056686,
        -0.10472157597541809,
        -0.10407192260026932,
        -0.10342227667570114,
        -0.10277262330055237,
        -0.1021229699254036,
        -0.10147331655025482,
        -0.10082366317510605,
        -0.10017401725053787,
        -0.0995243638753891,
        -0.09887471050024033,
        -0.09822505712509155,
        -0.09757540374994278,
        -0.096925750374794,
        -0.09627610445022583,
        -0.09562645107507706,
        -0.09497679769992828,
        -0.09432714432477951,
        -0.09367749094963074,
        -0.09302784502506256,
        -0.09237819164991379,
        -0.09172853827476501,
        -0.09107888489961624,
        -0.09042923152446747,
        -0.08977958559989929,
        -0.08912993222475052,
        -0.08848027884960175,
        -0.08783062547445297,
        -0.0871809720993042,
        -0.08653132617473602,
        -0.08588167279958725,
        -0.08523201942443848,
        -0.0845823660492897,
        -0.08393271267414093,
        -0.08328305929899216,
        -0.08263341337442398,
        -0.08198375999927521,
        -0.08133410662412643,
        -0.08068445324897766,
        -0.08003479987382889,
        -0.07938515394926071,
        -0.07873550057411194,
        -0.07808584719896317,
        -0.07743619382381439,
        -0.07678654044866562,
        -0.07613689452409744,
        -0.07548724114894867,
        -0.0748375877737999,
        -0.07418793439865112,
        -0.07353828102350235,
        -0.07288862764835358,
        -0.0722389817237854,
        -0.07158932834863663,
        -0.07093967497348785,
        -0.07029002159833908,
        -0.06964036822319031,
        -0.06899072229862213,
        -0.06834106892347336,
        -0.06769141554832458,
        -0.06704176217317581,
        -0.06639210879802704,
        -0.06574246287345886,
        -0.06509280949831009,
        -0.06444315612316132,
        -0.06379350274801254,
        -0.06314384937286377,
        -0.062494199723005295,
        -0.06184454634785652,
        -0.06119489669799805,
        -0.060545243322849274,
        -0.0598955899477005,
        -0.059245940297842026,
        -0.05859628692269325,
        -0.05794663727283478,
        -0.057296983897686005,
        -0.05664733052253723,
        -0.05599768087267876,
        -0.055348027497529984,
        -0.05469837412238121,
        -0.054048724472522736,
        -0.05339907109737396,
        -0.05274942144751549,
        -0.052099768072366714,
        -0.05145011469721794,
        -0.05080046504735947,
        -0.05015081167221069,
        -0.04950115829706192,
        -0.048851508647203445,
        -0.04820185527205467,
        -0.0475522056221962,
        -0.046902552247047424,
        -0.04625289887189865,
        -0.045603249222040176,
        -0.0449535958468914,
        -0.04430394247174263,
        -0.043654292821884155,
        -0.04300463944673538,
        -0.04235498979687691,
        -0.041705336421728134,
        -0.04105568304657936,
        -0.040406033396720886,
        -0.03975638002157211,
        -0.03910673037171364,
        -0.038457076996564865,
        -0.03780742362141609,
        -0.03715777397155762,
        -0.036508120596408844,
        -0.03585846722126007,
        -0.035208817571401596,
        -0.03455916419625282,
        -0.03390951454639435,
        -0.033259861171245575,
        -0.0326102077960968,
        -0.03196055814623833,
        -0.031310904771089554,
        -0.03066125325858593,
        -0.030011601746082306,
        -0.029361948370933533,
        -0.02871229685842991,
        -0.028062645345926285,
        -0.02741299383342266,
        -0.026763340458273888,
        -0.026113688945770264,
        -0.02546403743326664,
        -0.024814385920763016,
        -0.024164732545614243,
        -0.02351508103311062,
        -0.022865429520606995,
        -0.02221577800810337,
        -0.021566124632954597,
        -0.020916473120450974,
        -0.02026682160794735,
        -0.019617170095443726,
        -0.018967516720294952,
        -0.01831786520779133,
        -0.017668213695287704,
        -0.01701856218278408,
        -0.016368908807635307,
        -0.015719257295131683,
        -0.01506960578262806,
        -0.01441995333880186,
        -0.013770301826298237,
        -0.013120649382472038,
        -0.012470997869968414,
        -0.011821345426142216,
        -0.011171693913638592,
        -0.010522041469812393,
        -0.00987238995730877,
        -0.00922273751348257,
        -0.008573086000978947,
        -0.007923433557152748,
        -0.007273782044649124,
        -0.006624130066484213,
        -0.005974478088319302,
        -0.00532482611015439,
        -0.004675174131989479,
        -0.004025522153824568,
        -0.0033758701756596565,
        -0.0027262181974947453,
        -0.002076566219329834,
        -0.0014269141247496009,
        -0.0007772622047923505,
        -0.00012761021207552403,
        0.000522041751537472,
        0.0011716937879100442,
        0.0018213456496596336,
        0.002470997627824545,
        0.003120649605989456,
        0.0037703015841543674,
        0.004419953562319279,
        0.00506960554048419,
        0.005719257518649101,
        0.0063689094968140125,
        0.007018561474978924,
        0.007668213453143835,
        0.008317865431308746,
        0.00896751694381237,
        0.009617169387638569,
        0.010266820900142193,
        0.010916473343968391,
        0.011566124856472015,
        0.012215777300298214,
        0.012865428812801838,
        0.013515081256628036,
        0.01416473276913166,
        0.014814385212957859,
        0.015464036725461483,
        0.01611368916928768,
        0.016763340681791306,
        0.01741299219429493,
        0.018062645569443703,
        0.018712297081947327,
        0.01936194859445095,
        0.020011600106954575,
        0.020661253482103348,
        0.021310904994606972,
        0.021960556507110596,
        0.02261020801961422,
        0.023259861394762993,
        0.023909512907266617,
        0.02455916441977024,
        0.025208815932273865,
        0.025858469307422638,
        0.026508120819926262,
        0.027157772332429886,
        0.02780742384493351,
        0.028457077220082283,
        0.029106728732585907,
        0.02975638024508953,
        0.030406031757593155,
        0.031055685132741928,
        0.0317053347826004,
        0.032354988157749176,
        0.03300464153289795,
        0.033654291182756424,
        0.0343039445579052,
        0.03495359793305397,
        0.035603247582912445,
        0.03625290095806122,
        0.03690255060791969,
        0.037552203983068466,
        0.03820185735821724,
        0.038851507008075714,
        0.03950116038322449,
        0.04015081375837326,
        0.040800463408231735,
        0.04145011678338051,
        0.04209976643323898,
        0.042749419808387756,
        0.04339907318353653,
        0.044048722833395004,
        0.04469837620854378,
        0.04534802958369255,
        0.045997679233551025,
        0.0466473326086998,
        0.04729698225855827,
        0.047946635633707047,
        0.04859628900885582,
        0.049245938658714294,
        0.04989559203386307,
        0.05054524540901184,
        0.051194895058870316,
        0.05184454843401909,
        0.052494198083877563,
        0.05314385145902634,
        0.05379350483417511,
        0.054443154484033585,
        0.05509280785918236,
        0.05574246123433113,
        0.056392110884189606,
        0.05704176425933838,
        0.057691413909196854,
        0.05834106728434563,
        0.0589907206594944,
        0.059640370309352875,
        0.06029002368450165,
        0.06093967333436012,
        0.061589326709508896,
        0.06223898008465767,
        0.06288862973451614,
        0.06353828310966492,
        0.06418793648481369,
        0.06483758985996246,
        0.06548723578453064,
        0.06613688915967941,
        0.06678654253482819,
        0.06743619590997696,
        0.06808584928512573,
        0.06873549520969391,
        0.06938514858484268,
        0.07003480195999146,
        0.07068445533514023,
        0.071334108710289,
        0.07198376208543777,
        0.07263340801000595,
        0.07328306138515472,
        0.0739327147603035,
        0.07458236813545227,
        0.07523202151060104,
        0.07588166743516922,
        0.076531320810318,
        0.07718097418546677,
        0.07783062756061554,
        0.07848028093576431,
        0.07912992686033249,
        0.07977958023548126,
        0.08042923361063004,
        0.08107888698577881,
        0.08172854036092758,
        0.08237819373607635,
        0.08302783966064453,
        0.0836774930357933,
        0.08432714641094208,
        0.08497679978609085,
        0.08562645316123962,
        0.0862760990858078,
        0.08692575246095657,
        0.08757540583610535,
        0.08822505921125412,
        0.0888747125864029,
        0.08952435851097107,
        0.09017401188611984,
        0.09082366526126862,
        0.09147331863641739,
        0.09212297201156616,
        0.09277262538671494,
        0.09342227131128311,
        0.09407192468643188,
        0.09472157806158066,
        0.09537123143672943,
        0.0960208848118782,
        0.09667053073644638,
        0.09732018411159515,
        0.09796983748674393,
        0.0986194908618927,
        0.09926914423704147,
        0.09991879016160965,
        0.10056844353675842,
        0.1012180969119072,
        0.10186775028705597,
        0.10251740366220474,
        0.10316705703735352,
        0.10381670296192169,
        0.10446635633707047,
        0.10511600971221924,
        0.10576566308736801,
        0.10641531646251678,
        0.10706496238708496,
        0.10771461576223373,
        0.10836426913738251,
        0.10901392251253128,
        0.10966357588768005,
        0.11031322181224823,
        0.110962875187397,
        0.11161252856254578,
        0.11226218193769455,
        0.11291183531284332,
        0.1135614812374115,
        0.11421113461256027,
        0.11486078798770905,
        0.11551044136285782,
        0.11616009473800659,
        0.11680974811315536,
        0.11745939403772354,
        0.11810904741287231,
        0.11875870078802109,
        0.11940835416316986,
        0.12005800753831863,
        0.12070765346288681,
        0.12135730683803558,
        0.12200696021318436,
        0.12265661358833313,
        0.1233062669634819,
        0.12395591288805008,
        0.12460556626319885,
        0.12525522708892822,
        0.1259048730134964,
        0.12655451893806458,
        0.12720417976379395,
        0.12785382568836212,
        0.1285034865140915,
        0.12915313243865967,
        0.12980277836322784,
        0.13045243918895721,
        0.1311020851135254,
        0.13175174593925476,
        0.13240139186382294,
        0.1330510377883911,
        0.13370069861412048,
        0.13435034453868866,
        0.13500000536441803
      ]
    },
    "predictor.blocks.0.attn.qkv.bias": {
      "shape": [
        36
      ],
      "values": [
        -0.04500000178813934,
        -0.04271428659558296,
        -0.04042857140302658,
        -0.0381428562104702,
        -0.03585714101791382,
        -0.033571429550647736,
        -0.031285714358091354,
        -0.028999999165534973,
        -0.02671428583562374,
        -0.02442857064306736,
        -0.022142857313156128,
        -0.019857142120599747,
        -0.017571428790688515,
        -0.015285714529454708,
        -0.013000000268220901,
        -0.010714286006987095,
        -0.008428571745753288,
        -0.006142857018858194,
        -0.0038571427576243877,
        -0.001571428612805903,
        0.0007142857066355646,
        0.003000000026077032,
        0.005285714287310839,
        0.007571428548544645,
        0.00985714327543974,
        0.012142857536673546,
        0.014428571797907352,
        0.01671428605914116,
        0.01899999938905239,
        0.021285714581608772,
        0.023571427911520004,
        0.025857143104076385,
        0.028142856433987617,
        0.030428571626544,
        0.03271428495645523,
        0.03500000014901161
      ]
    },
    "predictor.blocks.0.attn.out_proj.weight": {
      "shape": [
        12,
        12
      ],
      "values": [
        -0.10499999672174454,
        -0.10360139608383179,
        -0.10220279544591904,
        -0.10080419480800629,
        -0.09940559417009354,
        -0.09800699353218079,
        -0.09660839289426804,
        -0.09520979225635529,
        -0.09381119161844254,
        -0.09241259098052979,
        -0.09101398289203644,
        -0.08961538225412369,
        -0.08821678161621094,
        -0.08681818097829819,
        -0.08541958034038544,
        -0.08402097970247269,
        -0.08262237906455994,
        -0.08122377842664719,
        -0.07982517778873444,
        -0.07842657715082169,
        -0.07702796906232834,
        -0.07562936842441559,
        -0.07423076778650284,
        -0.07283216714859009,
        -0.07143356651067734,
        -0.07003496587276459,
        -0.06863636523485184,
        -0.06723776459693909,
        -0.06583916395902634,
        -0.06444055587053299,
        -0.06304195523262024,
        -0.06164335831999779,
        -0.06024475395679474,
        -0.05884615331888199,
        -0.05744755268096924,
        -0.05604895204305649,
        -0.05465035140514374,
        -0.05325174704194069,
        -0.05185314640402794,
        -0.05045454576611519,
        -0.04905594512820244,
        -0.04765734449028969,
        -0.04625874012708664,
        -0.04486013948917389,
        -0.04346153885126114,
        -0.04206293821334839,
        -0.04066433385014534,
        -0.03926573321223259,
        -0.03786713257431984,
        -0.03646853193640709,
        -0.03506993129849434,
        -0.03367132693529129,
        -0.03227272629737854,
        -0.03087412565946579,
        -0.02947552502155304,
        -0.02807692252099514,
        -0.02667832188308239,
        -0.02527971938252449,
        -0.02388111874461174,
        -0.02248251810669899,
        -0.02108391560614109,
        -0.01968531496822834,
        -0.01828671246767044,
        -0.01688811182975769,
        -0.015489510260522366,
        -0.01409090869128704,
        -0.01269230805337429,
        -0.011293706484138966,
        -0.00989510491490364,
        -0.008496503345668316,
        -0.007097902242094278,
        -0.0056993006728589535,
        -0.004300699103623629,
        -0.002902098000049591,
        -0.001503496547229588,
        -0.00010489510168554261,
        0.0012937062419950962,
        0.0026923075783997774,
        0.004090908914804459,
        0.0054895104840397835,
        0.006888112053275108,
        0.008286713622510433,
        0.009685314260423183,
        0.011083915829658508,
        0.012482517398893833,
        0.013881118968129158,
        0.015279720537364483,
        0.016678322106599808,
        0.018076922744512558,
        0.019475525245070457,
        0.020874125882983208,
        0.022272726520895958,
        0.023671329021453857,
        0.025069929659366608,
        0.026468532159924507,
        0.027867132797837257,
        0.029265733435750008,
        0.030664335936307907,
        0.03206293657422066,
        0.03346153721213341,
        0.034860141575336456,
        0.03625874221324921,
        0.03765734285116196,
        0.03905594348907471,
        0.04045454412698746,
        0.041853148490190506,
        0.043251749128103256,
        0.044650349766016006,
        0.04604895040392876,
        0.04744755104184151,
        0.048846155405044556,
        0.050244756042957306,
        0.051643356680870056,
        0.053041957318782806,
        0.05444055795669556,
        0.055839162319898605,
        0.057237762957811356,
        0.058636363595724106,
        0.060034964233636856,
        0.061433564871549606,
        0.06283216923475266,
        0.0642307698726654,
        0.06562937051057816,
        0.0670279711484909,
        0.06842657178640366,
        0.0698251724243164,
        0.07122377306222916,
        0.0726223811507225,
        0.07402098178863525,
        0.075419582426548,
        0.07681818306446075,
        0.0782167837023735,
        0.07961538434028625,
        0.081013984978199,
        0.08241258561611176,
        0.0838111862540245,
        0.08520978689193726,
        0.0866083949804306,
        0.08800699561834335,
        0.0894055962562561,
        0.09080419689416885,
        0.0922027975320816,
        0.09360139816999435,
        0.0949999988079071
      ]
    },
    "predictor.blocks.0.attn.out_proj.bias": {
      "shape": [
        12
      ],
      "values": [
        -0.029999999329447746,
        -0.02545454539358616,
        -0.02090909145772457,
        -0.016363635659217834,
        -0.011818181723356247,
        -0.007272727321833372,
        -0.0027272726874798536,
        0.001818181830458343,
        0.00636363634839654,
        0.010909090749919415,
        0.015454545617103577,
        0.019999999552965164
      ]
    },
    "predictor.blocks.0.norm2.gamma": {
      "shape": [
        12
      ],
      "values": [
        0.8949999809265137,
        0.9131818413734436,
        0.9313636422157288,
        0.9495454430580139,
        0.9677272439002991,
        0.985909104347229,
        1.0040909051895142,
        1.0222727060317993,
        1.0404545068740845,
        1.0586363077163696,
        1.0768182277679443,
        1.0950000286102295
      ]
    },
    "predictor.blocks.0.norm2.beta": {
      "shape": [
        12
      ],
      "values": [
        -0.029999999329447746,
        -0.02545454539358616,
        -0.02090909145772457,
        -0.016363635659217834,
        -0.011818181723356247,
        -0.007272727321833372,
        -0.0027272726874798536,
        0.001818181830458343,
        0.00636363634839654,
        0.010909090749919415,
        0.015454545617103577,
        0.019999999552965164
      ]
    },
    "predictor.blocks.0.mlp.fc1.weight": {
      "shape": [
        12,
        48
      ],
      "values": [
        -0.125,
        -0.12458261102437973,
        -0.12416521459817886,
        -0.1237478256225586,
        -0.12333043664693832,
        -0.12291304022073746,
        -0.12249565124511719,
        -0.12207826226949692,
        -0.12166086584329605,
        -0.12124347686767578,
        -0.12082608789205551,
        -0.12040869891643524,
        -0.11999130249023438,
        -0.1195739135146141,
        -0.11915652453899384,
        -0.11873912811279297,
        -0.1183217391371727,
        -0.11790435016155243,
        -0.11748695373535156,
        -0.11706956475973129,
        -0.11665217578411102,
        -0.11623477935791016,
        -0.11581739038228989,
        -0.11540000140666962,
        -0.11498260498046875,
        -0.11456521600484848,
        -0.11414782702922821,
        -0.11373043805360794,
        -0.11331304162740707,
        -0.1128956526517868,
        -0.11247826367616653,
        -0.11206086724996567,
        -0.1116434782743454,
        -0.11122608929872513,
        -0.11080869287252426,
        -0.11039130389690399,
        -0.10997391492128372,
        -0.10955651849508286,
        -0.10913912951946259,
        -0.10872174054384232,
        -0.10830434411764145,
        -0.10788695514202118,
        -0.10746956616640091,
        -0.10705217719078064,
        -0.10663478076457977,
        -0.1062173917889595,
        -0.10580000281333923,
        -0.10538260638713837,
        -0.1049652174115181,
        -0.10454782843589783,
        -0.10413043200969696,
        -0.10371304303407669,
        -0.10329565405845642,
        -0.10287825763225555,
        -0.10246086865663528,
        -0.10204347968101501,
        -0.10162608325481415,
        -0.10120869427919388,
        -0.10079130530357361,
        -0.10037391632795334,
        -0.09995651990175247,
        -0.0995391309261322,
        -0.09912174195051193,
        -0.09870434552431107,
        -0.0982869565486908,
        -0.09786956757307053,
        -0.09745217114686966,
        -0.09703478217124939,
        -0.09661739319562912,
        -0.09619999676942825,
        -0.09578260779380798,
        -0.09536521881818771,
        -0.09494782239198685,
        -0.09453043341636658,
        -0.09411304444074631,
        -0.09369565546512604,
        -0.09327825903892517,
        -0.0928608700633049,
        -0.09244348108768463,
        -0.09202608466148376,
        -0.0916086956858635,
        -0.09119130671024323,
        -0.09077391028404236,
        -0.09035652130842209,
        -0.08993913233280182,
        -0.08952173590660095,
        -0.08910434693098068,
        -0.08868695795536041,
        -0.08826956152915955,
        -0.08785217255353928,
        -0.087434783577919,
        -0.08701739460229874,
        -0.08659999817609787,
        -0.0861826092004776,
        -0.08576522022485733,
        -0.08534782379865646,
        -0.0849304348230362,
        -0.08451304584741592,
        -0.08409564942121506,
        -0.08367826044559479,
        -0.08326087146997452,
        -0.08284347504377365,
        -0.08242608606815338,
        -0.08200869709253311,
        -0.08159130066633224,
        -0.08117391169071198,
        -0.0807565227150917,
        -0.08033913373947144,
        -0.07992173731327057,
        -0.0795043483376503,
        -0.07908695936203003,
        -0.07866956293582916,
        -0.07825217396020889,
        -0.07783478498458862,
        -0.07741738855838776,
        -0.07699999958276749,
        -0.07658261060714722,
        -0.07616521418094635,
        -0.07574782520532608,
        -0.07533043622970581,
        -0.07491303980350494,
        -0.07449565082788467,
        -0.0740782618522644,
        -0.07366087287664413,
        -0.07324347645044327,
        -0.072826087474823,
        -0.07240869849920273,
        -0.07199130207300186,
        -0.07157391309738159,
        -0.07115652412176132,
        -0.07073912769556046,
        -0.07032173871994019,
        -0.06990434974431992,
        -0.06948695331811905,
        -0.06906956434249878,
        -0.06865217536687851,
        -0.06823477894067764,
        -0.06781738996505737,
        -0.0674000009894371,
        -0.06698261201381683,
        -0.06656521558761597,
        -0.0661478266119957,
        -0.06573043763637543,
        -0.06531304121017456,
        -0.06489565223455429,
        -0.06447826325893402,
        -0.06406086683273315,
        -0.06364347785711288,
        -0.06322608888149261,
        -0.06280869245529175,
        -0.06239130347967148,
        -0.06197391450405121,
        -0.06155652180314064,
        -0.06113912910223007,
        -0.0607217401266098,
        -0.060304347425699234,
        -0.059886954724788666,
        -0.059469565749168396,
        -0.05905217304825783,
        -0.05863478407263756,
        -0.05821739137172699,
        -0.05779999867081642,
        -0.05738260969519615,
        -0.056965216994285583,
        -0.056547824293375015,
        -0.056130435317754745,
        -0.05571304261684418,
        -0.05529565364122391,
        -0.05487826094031334,
        -0.05446086823940277,
        -0.0540434792637825,
        -0.05362608656287193,
        -0.053208693861961365,
        -0.052791304886341095,
        -0.05237391218543053,
        -0.05195652320981026,
        -0.05153913050889969,
        -0.05112173780798912,
        -0.05070434883236885,
        -0.05028695613145828,
        -0.049869563430547714,
        -0.049452174454927444,
        -0.049034781754016876,
        -0.048617392778396606,
        -0.04820000007748604,
        -0.04778260737657547,
        -0.0473652184009552,
        -0.04694782570004463,
        -0.046530432999134064,
        -0.046113044023513794,
        -0.045695651322603226,
        -0.045278262346982956,
        -0.04486086964607239,
        -0.04444347694516182,
        -0.04402608796954155,
        -0.04360869526863098,
        -0.04319130256772041,
        -0.04277391359210014,
        -0.042356520891189575,
        -0.041939131915569305,
        -0.04152173921465874,
        -0.04110434651374817,
        -0.0406869575381279,
        -0.04026956483721733,
        -0.03985217213630676,
        -0.03943478316068649,
        -0.039017390459775925,
        -0.038600001484155655,
        -0.03818260878324509,
        -0.03776521608233452,
        -0.03734782710671425,
        -0.03693043440580368,
        -0.03651304170489311,
        -0.03609565272927284,
        -0.035678260028362274,
        -0.035260871052742004,
        -0.034843478351831436,
        -0.03442608565092087,
        -0.0340086966753006,
        -0.03359130397439003,
        -0.03317391127347946,
        -0.03275652229785919,
        -0.032339129596948624,
        -0.031921740621328354,
        -0.031504347920417786,
        -0.031086957082152367,
        -0.0306695643812418,
        -0.03025217354297638,
        -0.02983478270471096,
        -0.02941739186644554,
        -0.028999999165534973,
        -0.028582608327269554,
        -0.028165217489004135,
        -0.027747826650738716,
        -0.027330433949828148,
        -0.02691304311156273,
        -0.02649565227329731,
        -0.02607826143503189,
        -0.025660868734121323,
        -0.025243477895855904,
        -0.024826087057590485,
        -0.024408696219325066,
        -0.023991303518414497,
        -0.02357391268014908,
        -0.02315652184188366,
        -0.02273913100361824,
        -0.022321738302707672,
        -0.021904347464442253,
        -0.021486956626176834,
        -0.021069565787911415,
        -0.020652173087000847,
        -0.020234782248735428,
        -0.01981739141047001,
        -0.01940000057220459,
        -0.01898260787129402,
        -0.018565217033028603,
        -0.018147826194763184,
        -0.017730435356497765,
        -0.017313042655587196,
        -0.016895651817321777,
        -0.01647826097905636,
        -0.01606087014079094,
        -0.01564347743988037,
        -0.015226086601614952,
        -0.014808695763349533,
        -0.01439130399376154,
        -0.01397391315549612,
        -0.013556521385908127,
        -0.013139130547642708,
        -0.012721738778054714,
        -0.012304347939789295,
        -0.011886956170201302,
        -0.011469565331935883,
        -0.011052173562347889,
        -0.01063478272408247,
        -0.010217390954494476,
        -0.009800000116229057,
        -0.009382608346641064,
        -0.008965217508375645,
        -0.008547825738787651,
        -0.008130434900522232,
        -0.007713043596595526,
        -0.007295652292668819,
        -0.006878260988742113,
        -0.006460869684815407,
        -0.0060434783808887005,
        -0.005626087076961994,
        -0.005208695773035288,
        -0.0047913044691085815,
        -0.004373913165181875,
        -0.003956521861255169,
        -0.003539130324497819,
        -0.0031217390205711126,
        -0.0027043477166444063,
        -0.0022869564127177,
        -0.0018695652252063155,
        -0.0014521739212796092,
        -0.0010347826173529029,
        -0.0006173913134261966,
        -0.00019999999494757503,
        0.00021739130897913128,
        0.0006347825983539224,
        0.0010521739022806287,
        0.001469565206207335,
        0.0018869565101340413,
        0.0023043479304760695,
        0.0027217392344027758,
        0.003139130538329482,
        0.0035565218422561884,
        0.003973912913352251,
        0.004391304217278957,
        0.004808695521205664,
        0.00522608682513237,
        0.005643478129059076,
        0.006060869432985783,
        0.006478260736912489,
        0.006895652040839195,
        0.0073130433447659016,
        0.007730434648692608,
        0.008147826418280602,
        0.00856521725654602,
        0.008982609026134014,
        0.009399999864399433,
        0.009817391633987427,
        0.010234782472252846,
        0.01065217424184084,
        0.011069565080106258,
        0.011486956849694252,
        0.011904347687959671,
        0.012321739457547665,
        0.012739130295813084,
        0.013156522065401077,
        0.013573912903666496,
        0.01399130467325449,
        0.014408695511519909,
        0.014826087281107903,
        0.015243478119373322,
        0.01566086895763874,
