{
  "metadata": {
    "name": "ijepa-strict-image-tiny-v1",
    "generator": "specs/differential/export_ijepa_strict_fixture.py",
    "reference_repo": "facebookresearch/ijepa",
    "reference_note": "Exports a tiny strict image-path parity fixture using the same flattened token and masked-gather semantics as the canonical Python I-JEPA stack.",
    "abs_tolerance": 1e-05,
    "rel_tolerance": 1e-05
  },
  "config": {
    "encoder": {
      "in_channels": 1,
      "image_height": 4,
      "image_width": 4,
      "patch_size": [
        2,
        2
      ],
      "embed_dim": 4,
      "num_layers": 1,
      "num_heads": 2,
      "mlp_dim": 8,
      "dropout": 0.0
    },
    "predictor": {
      "encoder_embed_dim": 4,
      "predictor_embed_dim": 4,
      "num_layers": 1,
      "num_heads": 2,
      "max_target_len": 4
    }
  },
  "weights": {
    "context_encoder.patch_embed.projection.weight": {
      "shape": [
        4,
        4
      ],
      "values": [
        -0.18000000715255737,
        -0.15000000596046448,
        -0.12000000476837158,
        -0.09000001102685928,
        -0.06000000983476639,
        -0.03000001609325409,
        -1.4901161193847656e-08,
        0.0299999862909317,
        0.0599999874830246,
        0.0899999737739563,
        0.1199999749660492,
        0.1499999761581421,
        0.17999997735023499,
        0.20999997854232788,
        0.23999997973442078,
        0.26999998092651367
      ]
    },
    "context_encoder.patch_embed.projection.bias": {
      "shape": [
        4
      ],
      "values": [
        -0.05999999865889549,
        -0.029999999329447746,
        0.0,
        0.029999997466802597
      ]
    },
    "context_encoder.norm.gamma": {
      "shape": [
        4
      ],
      "values": [
        1.0499999523162842,
        0.949999988079071,
        1.100000023841858,
        0.8999999761581421
      ]
    },
    "context_encoder.norm.beta": {
      "shape": [
        4
      ],
      "values": [
        0.019999999552965164,
        -0.009999999776482582,
        0.029999999329447746,
        -0.019999999552965164
      ]
    },
    "context_encoder.blocks.0.norm1.gamma": {
      "shape": [
        4
      ],
      "values": [
        0.8500000238418579,
        0.9200000166893005,
        0.9900000095367432,
        1.0600000619888306
      ]
    },
    "context_encoder.blocks.0.norm1.beta": {
      "shape": [
        4
      ],
      "values": [
        -0.029999999329447746,
        -0.009999999776482582,
        0.009999999776482582,
        0.029999999329447746
      ]
    },
    "context_encoder.blocks.0.attn.qkv.weight": {
      "shape": [
        4,
        12
      ],
      "values": [
        -0.23999999463558197,
        -0.22999998927116394,
        -0.2199999988079071,
        -0.20999999344348907,
        -0.19999998807907104,
        -0.1899999976158142,
        -0.17999999225139618,
        -0.16999998688697815,
        -0.1599999964237213,
        -0.15000000596046448,
        -0.14000000059604645,
        -0.12999999523162842,
        -0.11999999731779099,
        -0.10999999940395355,
        -0.09999999403953552,
        -0.09000000357627869,
        -0.07999999821186066,
        -0.06999999284744263,
        -0.06000000238418579,
        -0.04999999701976776,
        -0.040000006556510925,
        -0.030000001192092896,
        -0.019999995827674866,
        -0.01000000536441803,
        0.0,
        0.01000000536441803,
        0.019999995827674866,
        0.0299999862909317,
        0.040000006556510925,
        0.04999999701976776,
        0.0599999874830246,
        0.07000000774860382,
        0.07999999821186066,
        0.08999998867511749,
        0.10000000894069672,
        0.10999999940395355,
        0.11999998986721039,
        0.1300000101327896,
        0.14000000059604645,
        0.14999999105930328,
        0.15999998152256012,
        0.17000000178813934,
        0.17999999225139618,
        0.18999998271465302,
        0.20000000298023224,
        0.20999999344348907,
        0.2199999839067459,
        0.23000000417232513
      ]
    },
    "context_encoder.blocks.0.attn.qkv.bias": {
      "shape": [
        12
      ],
      "values": [
        -0.05000000074505806,
        -0.03999999910593033,
        -0.030000001192092896,
        -0.020000001415610313,
        -0.010000001639127731,
        -3.725290298461914e-09,
        0.009999997913837433,
        0.019999999552965164,
        0.029999997466802597,
        0.03999999538064003,
        0.04999999329447746,
        0.05999999865889549
      ]
    },
    "context_encoder.blocks.0.attn.out_proj.weight": {
      "shape": [
        4,
        4
      ],
      "values": [
        -0.11999999731779099,
        -0.10499999672174454,
        -0.08999999612569809,
        -0.07500000298023224,
        -0.05999999865889549,
        -0.04500000178813934,
        -0.030000001192092896,
        -0.015000000596046448,
        0.0,
        0.01499999314546585,
        0.0299999937415123,
        0.044999994337558746,
        0.059999994933605194,
        0.07499999552965164,
        0.08999999612569809,
        0.10499999672174454
      ]
    },
    "context_encoder.blocks.0.attn.out_proj.bias": {
      "shape": [
        4
      ],
      "values": [
        -0.029999999329447746,
        -0.009999999776482582,
        0.009999999776482582,
        0.029999999329447746
      ]
    },
    "context_encoder.blocks.0.norm2.gamma": {
      "shape": [
        4
      ],
      "values": [
        0.8999999761581421,
        0.949999988079071,
        1.0,
        1.0499999523162842
      ]
    },
    "context_encoder.blocks.0.norm2.beta": {
      "shape": [
        4
      ],
      "values": [
        0.019999999552965164,
        0.004999999888241291,
        -0.009999999776482582,
        -0.02499999850988388
      ]
    },
    "context_encoder.blocks.0.mlp.fc1.weight": {
      "shape": [
        4,
        8
      ],
      "values": [
        -0.1599999964237213,
        -0.14999999105930328,
        -0.14000000059604645,
        -0.12999999523162842,
        -0.11999999731779099,
        -0.10999999940395355,
        -0.09999999403953552,
        -0.08999999612569809,
        -0.07999999821186066,
        -0.07000000029802322,
        -0.06000000238418579,
        -0.04999999701976776,
        -0.03999999910593033,
        -0.030000001192092896,
        -0.019999995827674866,
        -0.01000000536441803,
        0.0,
        0.01000000536441803,
        0.019999995827674866,
        0.030000001192092896,
        0.03999999165534973,
        0.04999999701976776,
        0.06000000238418579,
        0.06999999284744263,
        0.07999999821186066,
        0.09000000357627869,
        0.09999999403953552,
        0.10999998450279236,
        0.12000000476837158,
        0.12999999523162842,
        0.13999998569488525,
        0.15000000596046448
      ]
    },
    "context_encoder.blocks.0.mlp.fc1.bias": {
      "shape": [
        8
      ],
      "values": [
        -0.03999999910593033,
        -0.029999999329447746,
        -0.019999999552965164,
        -0.009999999776482582,
        0.0,
        0.009999997913837433,
        0.019999999552965164,
        0.030000001192092896
      ]
    },
    "context_encoder.blocks.0.mlp.fc2.weight": {
      "shape": [
        8,
        4
      ],
      "values": [
        -0.07999999821186066,
        -0.07099999487400055,
        -0.06199999898672104,
        -0.05299999937415123,
        -0.04399999976158142,
        -0.03500000014901161,
        -0.026000000536441803,
        -0.017000004649162292,
        -0.008000001311302185,
        0.0010000020265579224,
        0.009999997913837433,
        0.018999993801116943,
        0.02799999713897705,
        0.03700000047683716,
        0.04599998891353607,
        0.05499999225139618,
        0.06399999558925629,
        0.0729999989271164,
        0.0820000022649765,
        0.09099999070167542,
        0.09999999403953552,
        0.10899999737739563,
        0.11799998581409454,
        0.12699998915195465,
        0.13599999248981476,
        0.14499999582767487,
        0.15399999916553497,
        0.1629999876022339,
        0.1719999760389328,
        0.1809999793767929,
        0.18999998271465302,
        0.19899998605251312
      ]
    },
    "context_encoder.blocks.0.mlp.fc2.bias": {
      "shape": [
        4
      ],
      "values": [
        0.009999999776482582,
        0.02499999850988388,
        0.03999999910593033,
        0.054999999701976776
      ]
    },
    "target_encoder.patch_embed.projection.weight": {
      "shape": [
        4,
        4
      ],
      "values": [
        -0.18000000715255737,
        -0.15000000596046448,
        -0.12000000476837158,
        -0.09000001102685928,
        -0.06000000983476639,
        -0.03000001609325409,
        -1.4901161193847656e-08,
        0.0299999862909317,
        0.0599999874830246,
        0.0899999737739563,
        0.1199999749660492,
        0.1499999761581421,
        0.17999997735023499,
        0.20999997854232788,
        0.23999997973442078,
        0.26999998092651367
      ]
    },
    "target_encoder.patch_embed.projection.bias": {
      "shape": [
        4
      ],
      "values": [
        -0.05999999865889549,
        -0.029999999329447746,
        0.0,
        0.029999997466802597
      ]
    },
    "target_encoder.norm.gamma": {
      "shape": [
        4
      ],
      "values": [
        1.0499999523162842,
        0.949999988079071,
        1.100000023841858,
        0.8999999761581421
      ]
    },
    "target_encoder.norm.beta": {
      "shape": [
        4
      ],
      "values": [
        0.019999999552965164,
        -0.009999999776482582,
        0.029999999329447746,
        -0.019999999552965164
      ]
    },
    "target_encoder.blocks.0.norm1.gamma": {
      "shape": [
        4
      ],
      "values": [
        0.8500000238418579,
        0.9200000166893005,
        0.9900000095367432,
        1.0600000619888306
      ]
    },
    "target_encoder.blocks.0.norm1.beta": {
      "shape": [
        4
      ],
      "values": [
        -0.029999999329447746,
        -0.009999999776482582,
        0.009999999776482582,
        0.029999999329447746
      ]
    },
    "target_encoder.blocks.0.attn.qkv.weight": {
      "shape": [
        4,
        12
      ],
      "values": [
        -0.23999999463558197,
        -0.22999998927116394,
        -0.2199999988079071,
        -0.20999999344348907,
        -0.19999998807907104,
        -0.1899999976158142,
        -0.17999999225139618,
        -0.16999998688697815,
        -0.1599999964237213,
        -0.15000000596046448,
        -0.14000000059604645,
        -0.12999999523162842,
        -0.11999999731779099,
        -0.10999999940395355,
        -0.09999999403953552,
        -0.09000000357627869,
        -0.07999999821186066,
        -0.06999999284744263,
        -0.06000000238418579,
        -0.04999999701976776,
        -0.040000006556510925,
        -0.030000001192092896,
        -0.019999995827674866,
        -0.01000000536441803,
        0.0,
        0.01000000536441803,
        0.019999995827674866,
        0.0299999862909317,
        0.040000006556510925,
        0.04999999701976776,
        0.0599999874830246,
        0.07000000774860382,
        0.07999999821186066,
        0.08999998867511749,
        0.10000000894069672,
        0.10999999940395355,
        0.11999998986721039,
        0.1300000101327896,
        0.14000000059604645,
        0.14999999105930328,
        0.15999998152256012,
        0.17000000178813934,
        0.17999999225139618,
        0.18999998271465302,
        0.20000000298023224,
        0.20999999344348907,
        0.2199999839067459,
        0.23000000417232513
      ]
    },
    "target_encoder.blocks.0.attn.qkv.bias": {
      "shape": [
        12
      ],
      "values": [
        -0.05000000074505806,
        -0.03999999910593033,
        -0.030000001192092896,
        -0.020000001415610313,
        -0.010000001639127731,
        -3.725290298461914e-09,
        0.009999997913837433,
        0.019999999552965164,
        0.029999997466802597,
        0.03999999538064003,
        0.04999999329447746,
        0.05999999865889549
      ]
    },
    "target_encoder.blocks.0.attn.out_proj.weight": {
      "shape": [
        4,
        4
      ],
      "values": [
        -0.11999999731779099,
        -0.10499999672174454,
        -0.08999999612569809,
        -0.07500000298023224,
        -0.05999999865889549,
        -0.04500000178813934,
        -0.030000001192092896,
        -0.015000000596046448,
        0.0,
        0.01499999314546585,
        0.0299999937415123,
        0.044999994337558746,
        0.059999994933605194,
        0.07499999552965164,
        0.08999999612569809,
        0.10499999672174454
      ]
    },
    "target_encoder.blocks.0.attn.out_proj.bias": {
      "shape": [
        4
      ],
      "values": [
        -0.029999999329447746,
        -0.009999999776482582,
        0.009999999776482582,
        0.029999999329447746
      ]
    },
    "target_encoder.blocks.0.norm2.gamma": {
      "shape": [
        4
      ],
      "values": [
        0.8999999761581421,
        0.949999988079071,
        1.0,
        1.0499999523162842
      ]
    },
    "target_encoder.blocks.0.norm2.beta": {
      "shape": [
        4
      ],
      "values": [
        0.019999999552965164,
        0.004999999888241291,
        -0.009999999776482582,
        -0.02499999850988388
      ]
    },
    "target_encoder.blocks.0.mlp.fc1.weight": {
      "shape": [
        4,
        8
      ],
      "values": [
        -0.1599999964237213,
        -0.14999999105930328,
        -0.14000000059604645,
        -0.12999999523162842,
        -0.11999999731779099,
        -0.10999999940395355,
        -0.09999999403953552,
        -0.08999999612569809,
        -0.07999999821186066,
        -0.07000000029802322,
        -0.06000000238418579,
        -0.04999999701976776,
        -0.03999999910593033,
        -0.030000001192092896,
        -0.019999995827674866,
        -0.01000000536441803,
        0.0,
        0.01000000536441803,
        0.019999995827674866,
        0.030000001192092896,
        0.03999999165534973,
        0.04999999701976776,
        0.06000000238418579,
        0.06999999284744263,
        0.07999999821186066,
        0.09000000357627869,
        0.09999999403953552,
        0.10999998450279236,
        0.12000000476837158,
        0.12999999523162842,
        0.13999998569488525,
        0.15000000596046448
      ]
    },
    "target_encoder.blocks.0.mlp.fc1.bias": {
      "shape": [
        8
      ],
      "values": [
        -0.03999999910593033,
        -0.029999999329447746,
        -0.019999999552965164,
        -0.009999999776482582,
        0.0,
        0.009999997913837433,
        0.019999999552965164,
        0.030000001192092896
      ]
    },
    "target_encoder.blocks.0.mlp.fc2.weight": {
      "shape": [
        8,
        4
      ],
      "values": [
        -0.07999999821186066,
        -0.07099999487400055,
        -0.06199999898672104,
        -0.05299999937415123,
        -0.04399999976158142,
        -0.03500000014901161,
        -0.026000000536441803,
        -0.017000004649162292,
        -0.008000001311302185,
        0.0010000020265579224,
        0.009999997913837433,
        0.018999993801116943,
        0.02799999713897705,
        0.03700000047683716,
        0.04599998891353607,
        0.05499999225139618,
        0.06399999558925629,
        0.0729999989271164,
        0.0820000022649765,
        0.09099999070167542,
        0.09999999403953552,
        0.10899999737739563,
        0.11799998581409454,
        0.12699998915195465,
        0.13599999248981476,
        0.14499999582767487,
        0.15399999916553497,
        0.1629999876022339,
        0.1719999760389328,
        0.1809999793767929,
        0.18999998271465302,
        0.19899998605251312
      ]
    },
    "target_encoder.blocks.0.mlp.fc2.bias": {
      "shape": [
        4
      ],
      "values": [
        0.009999999776482582,
        0.02499999850988388,
        0.03999999910593033,
        0.054999999701976776
      ]
    },
    "predictor.input_proj.weight": {
      "shape": [
        4,
        4
      ],
      "values": [
        -0.10999999940395355,
        -0.09000000357627869,
        -0.07000000029802322,
        -0.05000000074505806,
        -0.030000001192092896,
        -0.01000000536441803,
        0.009999997913837433,
        0.030000001192092896,
        0.04999999701976776,
        0.06999999284744263,
        0.08999998867511749,
        0.10999999940395355,
        0.12999999523162842,
        0.14999999105930328,
        0.17000000178813934,
        0.18999998271465302
      ]
    },
    "predictor.input_proj.bias": {
      "shape": [
        4
      ],
      "values": [
        -0.029999999329447746,
        -0.014999999664723873,
        0.0,
        0.014999998733401299
      ]
    },
    "predictor.norm.gamma": {
      "shape": [
        4
      ],
      "values": [
        0.9800000190734863,
        1.0199999809265137,
        0.9599999785423279,
        1.0399999618530273
      ]
    },
    "predictor.norm.beta": {
      "shape": [
        4
      ],
      "values": [
        -0.009999999776482582,
        0.019999999552965164,
        -0.019999999552965164,
        0.009999999776482582
      ]
    },
    "predictor.output_proj.weight": {
      "shape": [
        4,
        4
      ],
      "values": [
        -0.09000000357627869,
        -0.0729999989271164,
        -0.0560000017285347,
        -0.039000000804662704,
        -0.02199999988079071,
        -0.004999995231628418,
        0.012000001966953278,
        0.028999999165534973,
        0.046000003814697266,
        0.06300000846385956,
        0.08000001311302185,
        0.09700000286102295,
        0.11400000751018524,
        0.13100001215934753,
        0.14800000190734863,
        0.16500002145767212
      ]
    },
    "predictor.output_proj.bias": {
      "shape": [
        4
      ],
      "values": [
        -0.019999999552965164,
        -0.009999999776482582,
        0.0,
        0.009999999776482582
      ]
    },
    "predictor.blocks.0.norm1.gamma": {
      "shape": [
        4
      ],
      "values": [
        1.0,
        1.0399999618530273,
        1.0800000429153442,
        1.1200000047683716
      ]
    },
    "predictor.blocks.0.norm1.beta": {
      "shape": [
        4
      ],
      "values": [
        0.009999999776482582,
        0.0,
        -0.009999999776482582,
        -0.019999999552965164
      ]
    },
    "predictor.blocks.0.attn.qkv.weight": {
      "shape": [
        4,
        12
      ],
      "values": [
        -0.14000000059604645,
        -0.13199999928474426,
        -0.12399999797344208,
        -0.11599999666213989,
        -0.10799999535083771,
        -0.09999999403953552,
        -0.09200000017881393,
        -0.08399999886751175,
        -0.07599999755620956,
        -0.06799999624490738,
        -0.059999994933605194,
        -0.05199999362230301,
        -0.04399999976158142,
        -0.035999998450279236,
        -0.02799999713897705,
        -0.019999995827674866,
        -0.01199999451637268,
        -0.003999993205070496,
        0.0040000081062316895,
        0.012000009417533875,
        0.02000001072883606,
        0.028000012040138245,
        0.03600001335144043,
        0.044000014662742615,
        0.052000001072883606,
        0.06000000238418579,
        0.06800000369548798,
        0.07600000500679016,
        0.08400000631809235,
        0.09200000762939453,
        0.10000000894069672,
        0.1080000102519989,
        0.11600001156330109,
        0.12399999797344208,
        0.13200001418590546,
        0.14000000059604645,
        0.14800001680850983,
        0.15600000321865082,
        0.1640000194311142,
        0.1720000058412552,
        0.18000002205371857,
        0.18800000846385956,
        0.19600002467632294,
        0.20400001108646393,
        0.2120000272989273,
        0.2200000137090683,
        0.22800002992153168,
        0.23600001633167267
      ]
    },
    "predictor.blocks.0.attn.qkv.bias": {
      "shape": [
        12
      ],
      "values": [
        -0.019999999552965164,
        -0.014999999664723873,
        -0.009999999776482582,
        -0.004999999888241291,
        0.0,
        0.004999998956918716,
        0.009999999776482582,
        0.015000000596046448,
        0.019999999552965164,
        0.02499999850988388,
        0.029999997466802597,
        0.03500000014901161
      ]
    },
    "predictor.blocks.0.attn.out_proj.weight": {
      "shape": [
        4,
        4
      ],
      "values": [
        -0.05999999865889549,
        -0.04800000041723251,
        -0.035999998450279236,
        -0.024000000208616257,
        -0.011999998241662979,
        3.725290298461914e-09,
        0.011999998241662979,
        0.024000000208616257,
        0.036000002175569534,
        0.04800000414252281,
        0.06000000610947609,
        0.07199999690055847,
        0.08399999141693115,
        0.09600000083446503,
        0.10799999535083771,
        0.12000000476837158
      ]
    },
    "predictor.blocks.0.attn.out_proj.bias": {
      "shape": [
        4
      ],
      "values": [
        0.029999999329447746,
        0.019999999552965164,
        0.009999999776482582,
        0.0
      ]
    },
    "predictor.blocks.0.norm2.gamma": {
      "shape": [
        4
      ],
      "values": [
        0.949999988079071,
        0.9799999594688416,
        1.0099999904632568,
        1.0399999618530273
      ]
    },
    "predictor.blocks.0.norm2.beta": {
      "shape": [
        4
      ],
      "values": [
        -0.019999999552965164,
        -0.009999999776482582,
        0.0,
        0.009999999776482582
      ]
    },
    "predictor.blocks.0.mlp.fc1.weight": {
      "shape": [
        4,
        16
      ],
      "values": [
        -0.11999999731779099,
        -0.11499999463558197,
        -0.10999999940395355,
        -0.10499999672174454,
        -0.09999999403953552,
        -0.0949999988079071,
        -0.08999999612569809,
        -0.08499999344348907,
        -0.07999999821186066,
        -0.07500000298023224,
        -0.07000000029802322,
        -0.06499999761581421,
        -0.05999999865889549,
        -0.054999999701976776,
        -0.04999999701976776,
        -0.04500000178813934,
        -0.03999999910593033,
        -0.034999996423721313,
        -0.030000001192092896,
        -0.02499999850988388,
        -0.020000003278255463,
        -0.015000000596046448,
        -0.009999997913837433,
        -0.005000002682209015,
        0.0,
        0.005000002682209015,
        0.009999997913837433,
        0.01499999314546585,
        0.020000003278255463,
        0.02499999850988388,
        0.0299999937415123,
        0.03500000387430191,
        0.03999999910593033,
        0.044999994337558746,
        0.05000000447034836,
        0.054999999701976776,
        0.059999994933605194,
        0.0650000050663948,
        0.07000000029802322,
        0.07499999552965164,
        0.07999999076128006,
        0.08500000089406967,
        0.08999999612569809,
        0.09499999135732651,
        0.10000000149011612,
        0.10499999672174454,
        0.10999999195337296,
        0.11500000208616257,
        0.11999999731779099,
        0.1249999925494194,
        0.12999999523162842,
        0.13499999046325684,
        0.13999998569488525,
        0.14499998092651367,
        0.1499999761581421,
        0.1550000011920929,
        0.1599999964237213,
        0.16499999165534973,
        0.16999998688697815,
        0.17499998211860657,
        0.17999997735023499,
        0.1850000023841858,
        0.1899999976158142,
        0.19499999284744263
      ]
    },
    "predictor.blocks.0.mlp.fc1.bias": {
      "shape": [
        16
      ],
      "values": [
        -0.029999999329447746,
        -0.025999998673796654,
        -0.02199999988079071,
        -0.017999999225139618,
        -0.013999998569488525,
        -0.009999997913837433,
        -0.0059999991208314896,
        -0.001999998465180397,
        0.0020000021904706955,
        0.006000002846121788,
        0.01000000350177288,
        0.014000004157423973,
        0.018000001087784767,
        0.02200000174343586,
        0.026000002399086952,
        0.030000003054738045
      ]
    },
    "predictor.blocks.0.mlp.fc2.weight": {
      "shape": [
        16,
        4
      ],
      "values": [
        -0.09000000357627869,
        -0.0860000029206276,
        -0.0820000022649765,
        -0.07800000160932541,
        -0.07400000095367432,
        -0.07000000029802322,
        -0.06599999964237213,
        -0.06200000271201134,
        -0.058000002056360245,
        -0.05400000140070915,
        -0.05000000074505806,
        -0.04600000008940697,
        -0.04200000315904617,
        -0.03800000250339508,
        -0.03400000184774399,
        -0.030000001192092896,
        -0.026000000536441803,
        -0.02199999988079071,
        -0.017999999225139618,
        -0.013999998569488525,
        -0.009999997913837433,
        -0.00599999725818634,
        -0.001999996602535248,
        0.0020000040531158447,
        0.00599999725818634,
        0.009999997913837433,
        0.013999998569488525,
        0.017999999225139618,
        0.02199999988079071,
        0.026000000536441803,
        0.030000001192092896,
        0.03400000184774399,
        0.03800000250339508,
        0.041999995708465576,
        0.046000003814697266,
        0.04999999701976776,
        0.05400000512599945,
        0.057999998331069946,
        0.062000006437301636,
        0.06599999964237213,
        0.07000000774860382,
        0.07400000095367432,
        0.078000009059906,
        0.0820000022649765,
        0.08600001037120819,
        0.09000000357627869,
        0.09400001168251038,
        0.09800000488758087,
        0.10199999809265137,
        0.10600000619888306,
        0.10999999940395355,
        0.11400000751018524,
        0.11800000071525574,
        0.12200000882148743,
        0.12600000202655792,
        0.1300000101327896,
        0.1340000033378601,
        0.1380000114440918,
        0.1420000046491623,
        0.14600001275539398,
        0.15000000596046448,
        0.15400001406669617,
        0.15800000727176666,
        0.16200000047683716
      ]
    },
    "predictor.blocks.0.mlp.fc2.bias": {
      "shape": [
        4
      ],
      "values": [
        0.019999999552965164,
        0.029999999329447746,
        0.03999999910593033,
        0.04999999701976776
      ]
    }
  },
  "raw_input": {
    "shape": [
      1,
      1,
      4,
      4
    ],
    "values": [
      0.10000000149011612,
      0.20000000298023224,
      0.30000001192092896,
      0.4000000059604645,
      0.5,
      0.6000000238418579,
      0.699999988079071,
      0.800000011920929,
      0.8999999761581421,
      1.0,
      1.100000023841858,
      1.2000000476837158,
      1.2999999523162842,
      1.399999976158142,
      1.5,
      1.600000023841858
    ]
  },
  "mask": {
    "context_indices": [
      0,
      3
    ],
    "target_indices": [
      1,
      2
    ],
    "total_tokens": 4
  },
  "target_positions": [
    1,
    2
  ],
  "context": {
    "shape": [
      1,
      2,
      4
    ],
    "values": [
      -1.3884918689727783,
      -0.43478327989578247,
      0.5218544602394104,
      1.1872786283493042,
      -1.0229730606079102,
      -0.9038042426109314,
      0.6990849375724792,
      1.173305869102478
    ]
  },
  "target": {
    "shape": [
      1,
      2,
      4
    ],
    "values": [
      -0.6374340057373047,
      -1.2283097505569458,
      0.7871521711349487,
      1.0782147645950317,
      -1.5838347673416138,
      -0.020293403416872025,
      0.33532384037971497,
      1.114656686782837
    ]
  },
  "predicted": {
    "shape": [
      1,
      2,
      4
    ],
    "values": [
      -0.00323349772952497,
      0.008314231410622597,
      0.019861940294504166,
      0.03140970692038536,
      0.03753961622714996,
      0.047925010323524475,
      0.05831038951873779,
      0.06869581341743469
    ]
  },
  "energy": [
    0.9275329113006592
  ]
}
